{"learner":{"attributes":{"best_iteration":"143","best_score":"0.24635085141733803","scikit_learn":"{\"_estimator_type\": \"classifier\"}"},"feature_names":["ModelProb","Over25Odds","ImpliedProb","Value_Delta","ExpectedValue","Tournament_Over25Rate","TournamentStage_Bucket"],"feature_types":["float","float","float","float","float","float","int"],"gradient_booster":{"model":{"cats":{"enc":[],"feature_segments":[],"sorted_idx":[]},"gbtree_model_param":{"num_parallel_tree":"1","num_trees":"159"},"iteration_indptr":[0,1,2,3,4,5,6,7,8,9,10,11,12,13,14,15,16,17,18,19,20,21,22,23,24,25,26,27,28,29,30,31,32,33,34,35,36,37,38,39,40,41,42,43,44,45,46,47,48,49,50,51,52,53,54,55,56,57,58,59,60,61,62,63,64,65,66,67,68,69,70,71,72,73,74,75,76,77,78,79,80,81,82,83,84,85,86,87,88,89,90,91,92,93,94,95,96,97,98,99,100,101,102,103,104,105,106,107,108,109,110,111,112,113,114,115,116,117,118,119,120,121,122,123,124,125,126,127,128,129,130,131,132,133,134,135,136,137,138,139,140,141,142,143,144,145,146,147,148,149,150,151,152,153,154,155,156,157,158,159],"tree_info":[0,0,0,0,0,0,0,0,0,0,0,0,0,0,0,0,0,0,0,0,0,0,0,0,0,0,0,0,0,0,0,0,0,0,0,0,0,0,0,0,0,0,0,0,0,0,0,0,0,0,0,0,0,0,0,0,0,0,0,0,0,0,0,0,0,0,0,0,0,0,0,0,0,0,0,0,0,0,0,0,0,0,0,0,0,0,0,0,0,0,0,0,0,0,0,0,0,0,0,0,0,0,0,0,0,0,0,0,0,0,0,0,0,0,0,0,0,0,0,0,0,0,0,0,0,0,0,0,0,0,0,0,0,0,0,0,0,0,0,0,0,0,0,0,0,0,0,0,0,0,0,0,0,0,0,0,0,0,0],"trees":[{"base_weights":[-2.4139106E-3,-6.1060816E-2,1.8313762E0,1.568087E0,3.3916156E0,3.247923E-2,9.228715E-2,1.4881681E-1,1.954614E-1],"categories":[],"categories_nodes":[],"categories_segments":[],"categories_sizes":[],"default_left":[0,0,0,0,0,0,0,0,0],"id":0,"left_children":[1,-1,3,5,7,-1,-1,-1,-1],"loss_changes":[5.203211E3,0E0,3.7651855E2,2.0209924E2,1.7028076E1,0E0,0E0,0E0,0E0],"parents":[2147483647,0,0,2,2,3,3,4,4],"right_children":[2,-1,4,6,8,-1,-1,-1,-1],"split_conditions":[-2.7307964E-4,-6.1060816E-2,6.1904764E-1,4E-1,6.7241377E-1,3.247923E-2,9.228715E-2,1.4881681E-1,1.954614E-1],"split_indices":[3,0,5,5,5,0,0,0,0],"split_type":[0,0,0,0,0,0,0,0,0],"sum_hessian":[2.326029E3,1.3975209E3,9.285082E2,7.9616156E2,1.3234662E2,1.8558267E2,6.105789E2,7.7177414E1,5.516921E1],"tree_param":{"num_deleted":"0","num_feature":"7","num_nodes":"9","size_leaf_vector":"1"}},{"base_weights":[1.45017E-3,-6.0402133E-2,1.6623816E0,1.0145139E0,2.0883274E0,2.7794471E-2,6.5032735E-2,9.14151E-2,1.4141141E-1],"categories":[],"categories_nodes":[],"categories_segments":[],"categories_sizes":[],"default_left":[0,0,0,0,0,0,0,0,0],"id":1,"left_children":[1,-1,3,5,7,-1,-1,-1,-1],"loss_changes":[4.6921567E3,0E0,2.694724E2,5.076367E1,1.0888794E2,0E0,0E0,0E0,0E0],"parents":[2147483647,0,0,2,2,3,3,4,4],"right_children":[2,-1,4,6,8,-1,-1,-1,-1],"split_conditions":[9.9942654E-1,-6.0402133E-2,4.642857E-1,3.7804878E-1,6.1904764E-1,2.7794471E-2,6.5032735E-2,9.14151E-2,1.4141141E-1],"split_indices":[4,0,5,5,5,0,0,0,0],"split_type":[0,0,0,0,0,0,0,0,0],"sum_hessian":[2.333703E3,1.3505228E3,9.8318005E2,3.913359E2,5.918441E2,1.5148288E2,2.3985303E2,4.405067E2,1.5133745E2],"tree_param":{"num_deleted":"0","num_feature":"7","num_nodes":"9","size_leaf_vector":"1"}},{"base_weights":[1.2902603E-3,-5.9788138E-2,1.4939866E0,1.2448047E0,2.2981915E0,3.4009162E-2,7.124364E-2,1.01001084E-1,1.3658217E-1],"categories":[],"categories_nodes":[],"categories_segments":[],"categories_sizes":[],"default_left":[0,0,0,0,0,0,0,0,0],"id":2,"left_children":[1,-1,3,5,7,-1,-1,-1,-1],"loss_changes":[4.1455703E3,0E0,2.0405054E2,7.9397095E1,2.3789185E1,0E0,0E0,0E0,0E0],"parents":[2147483647,0,0,2,2,3,3,4,4],"right_children":[2,-1,4,6,8,-1,-1,-1,-1],"split_conditions":[-2.7307964E-4,-5.9788138E-2,5.822785E-1,4E-1,6.5625E-1,3.4009162E-2,7.124364E-2,1.01001084E-1,1.3658217E-1],"split_indices":[3,0,5,5,5,0,0,0,0],"split_type":[0,0,0,0,0,0,0,0,0],"sum_hessian":[2.3180613E3,1.2865358E3,1.0315256E3,7.894602E2,2.4206538E2,1.9204877E2,5.9741144E2,1.5089075E2,9.117464E1],"tree_param":{"num_deleted":"0","num_feature":"7","num_nodes":"9","size_leaf_vector":"1"}},{"base_weights":[2.41316E-3,-5.921615E-2,1.3644748E0,1.1706989E0,2.1567996E0,2.3021257E-2,6.6477545E-2,1.2015039E-1,9.4967626E-2],"categories":[],"categories_nodes":[],"categories_segments":[],"categories_sizes":[],"default_left":[0,0,0,0,0,0,0,0,0],"id":3,"left_children":[1,-1,3,5,7,-1,-1,-1,-1],"loss_changes":[3.7579216E3,0E0,1.6367029E2,9.77677E1,8.843567E0,0E0,0E0,0E0,0E0],"parents":[2147483647,0,0,2,2,3,3,4,4],"right_children":[2,-1,4,6,8,-1,-1,-1,-1],"split_conditions":[-2.7307964E-4,-5.921615E-2,6E-1,3.7804878E-1,1.68E0,2.3021257E-2,6.6477545E-2,1.2015039E-1,9.4967626E-2],"split_indices":[3,0,5,5,1,0,0,0,0],"split_type":[0,0,0,0,0,0,0,0,0],"sum_hessian":[2.3228604E3,1.2413918E3,1.0814685E3,8.709428E2,2.1052567E2,1.5989664E2,7.110462E2,1.0335181E2,1.0717386E2],"tree_param":{"num_deleted":"0","num_feature":"7","num_nodes":"9","size_leaf_vector":"1"}},{"base_weights":[-7.0371204E-3,-5.8681782E-2,1.2349019E0,7.850047E-1,1.52001E0,-8.612976E-3,4.4501316E-2,6.784496E-2,1.0027027E-1],"categories":[],"categories_nodes":[],"categories_segments":[],"categories_sizes":[],"default_left":[0,0,0,0,0,0,0,0,0],"id":4,"left_children":[1,-1,3,5,7,-1,-1,-1,-1],"loss_changes":[3.3392007E3,0E0,1.4199683E2,4.3894318E1,5.12937E1,0E0,0E0,0E0,0E0],"parents":[2147483647,0,0,2,2,3,3,4,4],"right_children":[2,-1,4,6,8,-1,-1,-1,-1],"split_conditions":[-2.7307964E-4,-5.8681782E-2,4.642857E-1,2.75E-1,6.27451E-1,-8.612976E-3,4.4501316E-2,6.784496E-2,1.0027027E-1],"split_indices":[3,0,5,5,5,0,0,0,0],"split_type":[0,0,0,0,0,0,0,0,0],"sum_hessian":[2.3027336E3,1.1874106E3,1.1153231E3,4.3408914E2,6.8123395E2,4.2852386E1,3.9123672E2,5.127323E2,1.6850166E2],"tree_param":{"num_deleted":"0","num_feature":"7","num_nodes":"9","size_leaf_vector":"1"}},{"base_weights":[-1.21558765E-2,-5.8183413E-2,1.1475129E0,1.007566E0,1.6542423E0,3.8180597E-2,5.8031745E-2,7.827368E-2,1.2639572E-1],"categories":[],"categories_nodes":[],"categories_segments":[],"categories_sizes":[],"default_left":[0,0,0,0,0,0,0,0,0],"id":5,"left_children":[1,-1,3,5,7,-1,-1,-1,-1],"loss_changes":[3.0739402E3,0E0,7.966675E1,3.2768616E1,1.5171082E1,0E0,0E0,0E0,0E0],"parents":[2147483647,0,0,2,2,3,3,4,4],"right_children":[2,-1,4,6,8,-1,-1,-1,-1],"split_conditions":[9.9942654E-1,-5.8183413E-2,5.780347E-1,4.4642857E-1,7.29927E-1,3.8180597E-2,5.8031745E-2,7.827368E-2,1.2639572E-1],"split_indices":[4,0,2,2,2,0,0,0,0],"split_type":[0,0,0,0,0,0,0,0,0],"sum_hessian":[2.299934E3,1.1540237E3,1.1459105E3,9.0026624E2,2.4564421E2,3.4939905E2,5.508672E2,2.2552206E2,2.0122147E1],"tree_param":{"num_deleted":"0","num_feature":"7","num_nodes":"9","size_leaf_vector":"1"}},{"base_weights":[-1.0290471E-2,-5.7715386E-2,1.0427063E0,7.858167E-1,1.3937943E0,9.074502E-3,4.438975E-2,6.0403883E-2,8.774284E-2],"categories":[],"categories_nodes":[],"categories_segments":[],"categories_sizes":[],"default_left":[0,0,0,0,0,0,0,0,0],"id":6,"left_children":[1,-1,3,5,7,-1,-1,-1,-1],"loss_changes":[2.739509E3,0E0,1.0570618E2,4.2122864E1,3.1344421E1,0E0,0E0,0E0,0E0],"parents":[2147483647,0,0,2,2,3,3,4,4],"right_children":[2,-1,4,6,8,-1,-1,-1,-1],"split_conditions":[-2.7307964E-4,-5.7715386E-2,5.068493E-1,3.2E-1,6.2857145E-1,9.074502E-3,4.438975E-2,6.0403883E-2,8.774284E-2],"split_indices":[3,0,5,5,5,0,0,0,0],"split_type":[0,0,0,0,0,0,0,0,0],"sum_hessian":[2.2721194E3,1.0889475E3,1.1831719E3,6.851147E2,4.980572E2,9.9320076E1,5.857946E2,3.3175903E2,1.6629816E2],"tree_param":{"num_deleted":"0","num_feature":"7","num_nodes":"9","size_leaf_vector":"1"}},{"base_weights":[9.980573E-4,-5.7278156E-2,9.868008E-1,7.5794554E-1,1.2857317E0,-6.5731034E-3,4.1533366E-2,6.2329292E-2,1.1826463E-1],"categories":[],"categories_nodes":[],"categories_segments":[],"categories_sizes":[],"default_left":[0,0,0,0,0,0,0,0,0],"id":7,"left_children":[1,-1,3,5,7,-1,-1,-1,-1],"loss_changes":[2.5612104E3,0E0,8.237927E1,4.4901398E1,1.9317688E1,0E0,0E0,0E0,0E0],"parents":[2147483647,0,0,2,2,3,3,4,4],"right_children":[2,-1,4,6,8,-1,-1,-1,-1],"split_conditions":[9.9942654E-1,-5.7278156E-2,5.063291E-1,2.8985506E-1,8E-1,-6.5731034E-3,4.1533366E-2,6.2329292E-2,1.1826463E-1],"split_indices":[4,0,5,5,5,0,0,0,0],"split_type":[0,0,0,0,0,0,0,0,0],"sum_hessian":[2.26399E3,1.0465792E3,1.2174108E3,6.915273E2,5.258835E2,5.220751E1,6.3931976E2,5.095611E2,1.6322376E1],"tree_param":{"num_deleted":"0","num_feature":"7","num_nodes":"9","size_leaf_vector":"1"}},{"base_weights":[-7.866822E-3,-5.6868125E-2,9.050136E-1,7.7116203E-1,1.3827906E0,1.829726E-2,4.327975E-2,-3.4873426E-2,7.039717E-2],"categories":[],"categories_nodes":[],"categories_segments":[],"categories_sizes":[],"default_left":[0,0,0,0,0,0,0,0,0],"id":8,"left_children":[1,-1,3,5,7,-1,-1,-1,-1],"loss_changes":[2.3204622E3,0E0,7.852661E1,3.6972473E1,1.5167786E1,0E0,0E0,0E0,0E0],"parents":[2147483647,0,0,2,2,3,3,4,4],"right_children":[2,-1,4,6,8,-1,-1,-1,-1],"split_conditions":[-2.7307964E-4,-5.6868125E-2,5.780347E-1,3.908046E-1,3.2786885E-1,1.829726E-2,4.327975E-2,-3.4873426E-2,7.039717E-2],"split_indices":[3,0,2,5,5,0,0,0,0],"split_type":[0,0,0,0,0,0,0,0,0],"sum_hessian":[2.248486E3,1.0048955E3,1.2435906E3,9.734795E2,2.701111E2,1.8490733E2,7.8857214E2,2.9076285E0,2.672035E2],"tree_param":{"num_deleted":"0","num_feature":"7","num_nodes":"9","size_leaf_vector":"1"}},{"base_weights":[1.1374676E-2,-5.6483198E-2,8.796207E-1,4.3868852E-1,1.0038289E0,-5.2040845E-2,2.4618495E-2,4.6330944E-2,8.05239E-2],"categories":[],"categories_nodes":[],"categories_segments":[],"categories_sizes":[],"default_left":[0,0,0,0,0,0,0,0,0],"id":9,"left_children":[1,-1,3,5,7,-1,-1,-1,-1],"loss_changes":[2.2041758E3,0E0,6.875568E1,2.2707859E1,4.4644165E1,0E0,0E0,0E0,0E0],"parents":[2147483647,0,0,2,2,3,3,4,4],"right_children":[2,-1,4,6,8,-1,-1,-1,-1],"split_conditions":[9.9942654E-1,-5.6483198E-2,4.1463414E-1,1.875E-1,6.666667E-1,-5.2040845E-2,2.4618495E-2,4.6330944E-2,8.05239E-2],"split_indices":[4,0,5,5,5,0,0,0,0],"split_type":[0,0,0,0,0,0,0,0,0],"sum_hessian":[2.2228591E3,9.604051E2,1.262454E3,2.7846188E2,9.839921E2,9.105924E0,2.6935596E2,8.751382E2,1.08853935E2],"tree_param":{"num_deleted":"0","num_feature":"7","num_nodes":"9","size_leaf_vector":"1"}},{"base_weights":[-6.713544E-3,-1.111071E0,7.944541E-1,-5.6121316E-2,-1.86597E-1,6.7805904E-1,1.3364815E0,-3.5401277E-2,3.1139953E-2,-1.1419797E-2,3.6321834E-2,6.341729E-2,9.926569E-2],"categories":[],"categories_nodes":[],"categories_segments":[],"categories_sizes":[],"default_left":[0,0,0,0,0,0,0,0,0,0,0,0,0],"id":10,"left_children":[1,3,5,-1,7,9,11,-1,-1,-1,-1,-1,-1],"loss_changes":[1.9456764E3,9.496338E0,7.95E1,0E0,5.68194E0,4.6263763E1,7.3966675E0,0E0,0E0,0E0,0E0,0E0,0E0],"parents":[2147483647,0,0,1,1,2,2,4,4,5,5,6,6],"right_children":[2,4,6,-1,8,10,12,-1,-1,-1,-1,-1,-1],"split_conditions":[6.9194526E-4,-2.7307964E-4,6.1290324E-1,-5.6121316E-2,5.586592E-1,2.8985506E-1,7.8571427E-1,-3.5401277E-2,3.1139953E-2,-1.1419797E-2,3.6321834E-2,6.341729E-2,9.926569E-2],"split_indices":[3,3,5,0,2,5,5,0,0,0,0,0,0],"split_type":[0,0,0,0,0,0,0,0,0,0,0,0,0],"sum_hessian":[2.1970647E3,9.235812E2,1.2734834E3,9.12163E2,1.141815E1,1.0502118E3,2.232716E2,7.0205917E0,4.397558E0,5.3021572E1,9.9719025E2,2.0472743E2,1.854419E1],"tree_param":{"num_deleted":"0","num_feature":"7","num_nodes":"13","size_leaf_vector":"1"}},{"base_weights":[-8.167403E-3,-5.5781733E-2,7.438202E-1,1.1409827E0,6.312683E-1,9.965735E-2,5.4584827E-2,-7.689643E-3,3.3638485E-2],"categories":[],"categories_nodes":[],"categories_segments":[],"categories_sizes":[],"default_left":[0,0,0,0,0,0,0,0,0],"id":11,"left_children":[1,-1,3,5,7,-1,-1,-1,-1],"loss_changes":[1.806234E3,0E0,5.702289E1,9.751984E0,3.296985E1,0E0,0E0,0E0,0E0],"parents":[2147483647,0,0,2,2,3,3,4,4],"right_children":[2,-1,4,6,8,-1,-1,-1,-1],"split_conditions":[-2.7307964E-4,-5.5781733E-2,1.74E0,1.33E0,2.8985506E-1,9.965735E-2,5.4584827E-2,-7.689643E-3,3.3638485E-2],"split_indices":[3,0,1,1,5,0,0,0,0],"split_type":[0,0,0,0,0,0,0,0,0],"sum_hessian":[2.1668682E3,8.761139E2,1.2907543E3,2.8299835E2,1.00775586E3,1.3316364E1,2.69682E2,5.046316E1,9.572927E2],"tree_param":{"num_deleted":"0","num_feature":"7","num_nodes":"9","size_leaf_vector":"1"}},{"base_weights":[-9.68771E-3,-5.5462755E-2,7.0059806E-1,1.0838687E0,6.16979E-1,8.264353E-3,5.6291874E-2,3.595751E-2,2.270296E-2],"categories":[],"categories_nodes":[],"categories_segments":[],"categories_sizes":[],"default_left":[0,0,0,0,0,0,0,0,0],"id":12,"left_children":[1,-1,3,5,7,-1,-1,-1,-1],"loss_changes":[1.6858654E3,0E0,4.136133E1,8.817871E0,1.7632324E1,0E0,0E0,0E0,0E0],"parents":[2147483647,0,0,2,2,3,3,4,4],"right_children":[2,-1,4,6,8,-1,-1,-1,-1],"split_conditions":[9.9942654E-1,-5.5462755E-2,1.69E0,1.0030472E0,2.22E0,8.264353E-3,5.6291874E-2,3.595751E-2,2.270296E-2],"split_indices":[4,0,1,4,1,0,0,0,0],"split_type":[0,0,0,0,0,0,0,0,0],"sum_hessian":[2.156584E3,8.4614154E2,1.3104424E3,2.3255531E2,1.0778871E3,1.0376645E1,2.2217867E2,6.603503E2,4.175368E2],"tree_param":{"num_deleted":"0","num_feature":"7","num_nodes":"9","size_leaf_vector":"1"}},{"base_weights":[-9.952518E-3,-5.5162E-2,6.5313995E-1,1.0312687E0,5.7243013E-1,6.8334594E-2,4.7036726E-2,3.2897025E-2,1.7640293E-2],"categories":[],"categories_nodes":[],"categories_segments":[],"categories_sizes":[],"default_left":[0,0,0,0,0,0,0,0,0],"id":13,"left_children":[1,-1,3,5,7,-1,-1,-1,-1],"loss_changes":[1.5568567E3,0E0,4.020636E1,5.816971E0,2.0499023E1,0E0,0E0,0E0,0E0],"parents":[2147483647,0,0,2,2,3,3,4,4],"right_children":[2,-1,4,6,8,-1,-1,-1,-1],"split_conditions":[-2.7307964E-4,-5.5162E-2,1.69E0,1.46E0,2.35E0,6.8334594E-2,4.7036726E-2,3.2897025E-2,1.7640293E-2],"split_indices":[3,0,1,1,1,0,0,0,0],"split_type":[0,0,0,0,0,0,0,0,0],"sum_hessian":[2.1455405E3,8.097631E2,1.3357775E3,2.3289194E2,1.1028856E3,4.6503548E1,1.8638838E2,7.9237854E2,3.1050702E2],"tree_param":{"num_deleted":"0","num_feature":"7","num_nodes":"9","size_leaf_vector":"1"}},{"base_weights":[-1.294941E-2,-5.4878097E-2,6.028697E-1,7.301274E-1,3.0875334E-1,4.771902E-2,3.2603513E-2,1.6217275E-2,-4.621495E-2],"categories":[],"categories_nodes":[],"categories_segments":[],"categories_sizes":[],"default_left":[0,0,0,0,0,0,0,0,0],"id":14,"left_children":[1,-1,3,5,7,-1,-1,-1,-1],"loss_changes":[1.4187555E3,0E0,5.0485596E1,1.5918793E1,8.200001E0,0E0,0E0,0E0,0E0],"parents":[2147483647,0,0,2,2,3,3,4,4],"right_children":[2,-1,4,6,8,-1,-1,-1,-1],"split_conditions":[9.9942654E-1,-5.4878097E-2,2.25E0,1.69E0,3.84E0,4.771902E-2,3.2603513E-2,1.6217275E-2,-4.621495E-2],"split_indices":[4,0,1,1,1,0,0,0,0],"split_type":[0,0,0,0,0,0,0,0,0],"sum_hessian":[2.1221328E3,7.6825684E2,1.353876E3,9.43962E2,4.0991403E2,2.4083424E2,7.0312775E2,4.0552307E2,4.3909492E0],"tree_param":{"num_deleted":"0","num_feature":"7","num_nodes":"9","size_leaf_vector":"1"}},{"base_weights":[-6.8289097E-3,-5.4611243E-2,5.834755E-1,5.0518864E-1,1.0430636E0,5.2318344E-4,2.7699405E-2,6.029722E-2,4.2944346E-2],"categories":[],"categories_nodes":[],"categories_segments":[],"categories_sizes":[],"default_left":[0,0,0,0,0,0,0,0,0],"id":15,"left_children":[1,-1,3,5,7,-1,-1,-1,-1],"loss_changes":[1.3421814E3,0E0,4.829315E1,2.8031342E1,4.860565E0,0E0,0E0,0E0,0E0],"parents":[2147483647,0,0,2,2,3,3,4,4],"right_children":[2,-1,4,6,8,-1,-1,-1,-1],"split_conditions":[-2.7307964E-4,-5.4611243E-2,6.283784E-1,3.2E-1,5.0158996E-2,5.2318344E-4,2.7699405E-2,6.029722E-2,4.2944346E-2],"split_indices":[3,0,5,5,3,0,0,0,0],"split_type":[0,0,0,0,0,0,0,0,0],"sum_hessian":[2.092827E3,7.369474E2,1.3558795E3,1.1603273E3,1.9555234E2,1.0428717E2,1.05604E3,1.0083176E2,9.472058E1],"tree_param":{"num_deleted":"0","num_feature":"7","num_nodes":"9","size_leaf_vector":"1"}},{"base_weights":[-2.0824872E-2,-5.4358333E-2,5.342815E-1,4.782188E-1,1.0692486E0,1.06288666E-4,2.6224649E-2,4.9719363E-2,8.7866485E-2],"categories":[],"categories_nodes":[],"categories_segments":[],"categories_sizes":[],"default_left":[0,0,0,0,0,0,0,0,0],"id":16,"left_children":[1,-1,3,5,7,-1,-1,-1,-1],"loss_changes":[1.2185424E3,0E0,4.0092804E1,2.7035858E1,4.8258667E0,0E0,0E0,0E0,0E0],"parents":[2147483647,0,0,2,2,3,3,4,4],"right_children":[2,-1,4,6,8,-1,-1,-1,-1],"split_conditions":[-2.7307964E-4,-5.4358333E-2,6.5625E-1,3.2E-1,8.378378E-1,1.06288666E-4,2.6224649E-2,4.9719363E-2,8.7866485E-2],"split_indices":[3,0,5,5,5,0,0,0,0],"split_type":[0,0,0,0,0,0,0,0,0],"sum_hessian":[2.0565999E3,7.037534E2,1.3528464E3,1.2262352E3,1.2661129E2,1.0871935E2,1.1175159E3,1.163932E2,1.0218087E1],"tree_param":{"num_deleted":"0","num_feature":"7","num_nodes":"9","size_leaf_vector":"1"}},{"base_weights":[-8.597973E-3,-5.4121036E-2,5.172278E-1,4.5324785E-1,9.32907E-1,1.3744125E-2,2.7403314E-2,-2.9287941E-3,4.915098E-2],"categories":[],"categories_nodes":[],"categories_segments":[],"categories_sizes":[],"default_left":[0,0,0,0,0,0,0,0,0],"id":17,"left_children":[1,-1,3,5,7,-1,-1,-1,-1],"loss_changes":[1.1535884E3,0E0,3.6051758E1,1.99832E1,9.099945E0,0E0,0E0,0E0,0E0],"parents":[2147483647,0,0,2,2,3,3,4,4],"right_children":[2,-1,4,6,8,-1,-1,-1,-1],"split_conditions":[9.9942654E-1,-5.4121036E-2,6.1349696E-1,4.4642857E-1,1.0030472E0,1.3744125E-2,2.7403314E-2,-2.9287941E-3,4.915098E-2],"split_indices":[4,0,2,2,4,0,0,0,0],"split_type":[0,0,0,0,0,0,0,0,0],"sum_hessian":[2.0410465E3,6.705712E2,1.3704752E3,1.1894841E3,1.809911E2,4.1420734E2,7.752768E2,8.699613E0,1.722915E2],"tree_param":{"num_deleted":"0","num_feature":"7","num_nodes":"9","size_leaf_vector":"1"}},{"base_weights":[-1.1517918E-2,-5.389714E-2,4.8366424E-1,1.0545438E-1,5.453039E-1,-3.3066314E-2,8.369358E-3,2.4980715E-2,4.748491E-2],"categories":[],"categories_nodes":[],"categories_segments":[],"categories_sizes":[],"default_left":[0,0,0,0,0,0,0,0,0],"id":18,"left_children":[1,-1,3,5,7,-1,-1,-1,-1],"loss_changes":[1.0798594E3,0E0,3.249832E1,9.463153E0,2.1707428E1,0E0,0E0,0E0,0E0],"parents":[2147483647,0,0,2,2,3,3,4,4],"right_children":[2,-1,4,6,8,-1,-1,-1,-1],"split_conditions":[9.9942654E-1,-5.389714E-2,3.7804878E-1,2.3809524E-1,6.666667E-1,-3.3066314E-2,8.369358E-3,2.4980715E-2,4.748491E-2],"split_indices":[4,0,5,5,5,0,0,0,0],"split_type":[0,0,0,0,0,0,0,0,0],"sum_hessian":[2.0429122E3,6.474298E2,1.3954824E3,1.9594E2,1.1995424E3,1.3920029E1,1.8201997E2,1.0797812E3,1.1976112E2],"tree_param":{"num_deleted":"0","num_feature":"7","num_nodes":"9","size_leaf_vector":"1"}},{"base_weights":[-1.5061369E-2,-1.0626136E0,4.608641E-1,-5.368339E-2,-4.6470654E-1,2.3063758E-1,5.8978355E-1,-4.0868793E-2,3.884503E-2,-3.9765857E-2,1.2672818E-2,2.5935514E-2,3.99751E-2],"categories":[],"categories_nodes":[],"categories_segments":[],"categories_sizes":[],"default_left":[0,0,0,0,0,0,0,0,0,0,0,0,0],"id":19,"left_children":[1,3,5,-1,7,9,11,-1,-1,-1,-1,-1,-1],"loss_changes":[1.0014292E3,3.6484375E0,4.085852E1,0E0,6.394682E0,1.1847034E1,1.2772827E1,0E0,0E0,0E0,0E0,0E0,0E0],"parents":[2147483647,0,0,1,1,2,2,4,4,5,5,6,6],"right_children":[2,4,6,-1,8,10,12,-1,-1,-1,-1,-1,-1],"split_conditions":[1.0012417E0,9.9942654E-1,4.556962E-1,-5.368339E-2,6.412008E-1,1.875E-1,6.1904764E-1,-4.0868793E-2,3.884503E-2,-3.9765857E-2,1.2672818E-2,2.5935514E-2,3.99751E-2],"split_indices":[4,4,5,0,0,5,5,0,0,0,0,0,0],"split_type":[0,0,0,0,0,0,0,0,0,0,0,0,0],"sum_hessian":[2.0066742E3,6.264881E2,1.380186E3,6.143345E2,1.2153618E1,4.9643436E2,8.837517E2,9.731217E0,2.4224005E0,1.0064644E1,4.8636972E2,6.626528E2,2.2109889E2],"tree_param":{"num_deleted":"0","num_feature":"7","num_nodes":"13","size_leaf_vector":"1"}},{"base_weights":[-7.925291E-3,-5.3482156E-2,4.3689212E-1,3.6279237E-1,8.2186925E-1,-9.255274E-3,1.9275907E-2,4.184572E-2,-1.9299773E-2],"categories":[],"categories_nodes":[],"categories_segments":[],"categories_sizes":[],"default_left":[0,0,0,0,0,0,0,0,0],"id":20,"left_children":[1,-1,3,5,7,-1,-1,-1,-1],"loss_changes":[9.362596E2,0E0,3.9557587E1,1.4682037E1,4.4067993E0,0E0,0E0,0E0,0E0],"parents":[2147483647,0,0,2,2,3,3,4,4],"right_children":[2,-1,4,6,8,-1,-1,-1,-1],"split_conditions":[9.9942654E-1,-5.3482156E-2,6.1904764E-1,2.75E-1,1.8118883E0,-9.255274E-3,1.9275907E-2,4.184572E-2,-1.9299773E-2],"split_indices":[4,0,5,5,4,0,0,0,0],"split_type":[0,0,0,0,0,0,0,0,0],"sum_hessian":[1.9804749E3,5.843374E2,1.3961375E3,1.1724153E3,2.237222E2,4.640829E1,1.126007E3,2.2127315E2,2.4490633E0],"tree_param":{"num_deleted":"0","num_feature":"7","num_nodes":"9","size_leaf_vector":"1"}},{"base_weights":[-1.1287753E-2,-5.3292233E-2,4.1105965E-1,1.3016279E-1,4.902576E-1,-3.5500642E-2,8.606184E-3,2.1428937E-2,3.7716683E-2],"categories":[],"categories_nodes":[],"categories_segments":[],"categories_sizes":[],"default_left":[0,0,0,0,0,0,0,0,0],"id":21,"left_children":[1,-1,3,5,7,-1,-1,-1,-1],"loss_changes":[8.72137E2,0E0,3.1041138E1,1.1011486E1,1.743576E1,0E0,0E0,0E0,0E0],"parents":[2147483647,0,0,2,2,3,3,4,4],"right_children":[2,-1,4,6,8,-1,-1,-1,-1],"split_conditions":[-2.7307964E-4,-5.3292233E-2,4.1666666E-1,2.3809524E-1,6.27451E-1,-3.5500642E-2,8.606184E-3,2.1428937E-2,3.7716683E-2],"split_indices":[3,0,5,5,5,0,0,0,0],"split_type":[0,0,0,0,0,0,0,0,0],"sum_hessian":[1.9561615E3,5.5896387E2,1.3971975E3,3.07876E2,1.0893215E3,1.3887533E1,2.9398846E2,8.851943E2,2.0412729E2],"tree_param":{"num_deleted":"0","num_feature":"7","num_nodes":"9","size_leaf_vector":"1"}},{"base_weights":[-9.400956E-3,-1.0444458E0,3.8828155E-1,-5.311187E-2,-3.2192183E-1,1.4271438E-1,4.7540066E-1,-3.8157504E-2,1.6380003E-2,-3.7354574E-2,8.400313E-3,2.1995403E-2,4.6983648E-2],"categories":[],"categories_nodes":[],"categories_segments":[],"categories_sizes":[],"default_left":[0,0,0,0,0,0,0,0,0,0,0,0,0],"id":22,"left_children":[1,3,5,-1,7,9,11,-1,-1,-1,-1,-1,-1],"loss_changes":[8.036136E2,6.6242065E0,3.01064E1,0E0,4.3935394E0,8.4697075E0,1.6734863E1,0E0,0E0,0E0,0E0,0E0,0E0],"parents":[2147483647,0,0,1,1,2,2,4,4,5,5,6,6],"right_children":[2,4,6,-1,8,10,12,-1,-1,-1,-1,-1,-1],"split_conditions":[1.0012417E0,9.9942654E-1,4.2307693E-1,-5.311187E-2,5.755701E-1,1.875E-1,6.5789473E-1,-3.8157504E-2,1.6380003E-2,-3.7354574E-2,8.400313E-3,2.1995403E-2,4.6983648E-2],"split_indices":[4,4,5,0,0,5,2,0,0,0,0,0,0],"split_type":[0,0,0,0,0,0,0,0,0,0,0,0,0],"sum_hessian":[1.9503378E3,5.409044E2,1.4094335E3,5.274462E2,1.34581785E1,3.6977298E2,1.0396604E3,7.9099264E0,5.548252E0,9.431178E0,3.603418E2,9.6763446E2,7.2026E1],"tree_param":{"num_deleted":"0","num_feature":"7","num_nodes":"13","size_leaf_vector":"1"}},{"base_weights":[-1.8206568E-3,-1.0407406E0,3.8327295E-1,-5.294272E-2,-3.1986907E-1,2.982403E-1,6.5204036E-1,-2.723223E-2,4.909527E-2,1.1489232E-2,2.2622978E-2,3.0655188E-2,6.915136E-2],"categories":[],"categories_nodes":[],"categories_segments":[],"categories_sizes":[],"default_left":[0,0,0,0,0,0,0,0,0,0,0,0,0],"id":23,"left_children":[1,3,5,-1,7,9,11,-1,-1,-1,-1,-1,-1],"loss_changes":[7.737164E2,6.4902344E0,3.205072E1,0E0,4.7050037E0,1.1230873E1,8.779633E0,0E0,0E0,0E0,0E0,0E0,0E0],"parents":[2147483647,0,0,1,1,2,2,4,4,5,5,6,6],"right_children":[2,4,6,-1,8,10,12,-1,-1,-1,-1,-1,-1],"split_conditions":[6.9194526E-4,-2.7307964E-4,5.822785E-1,-5.294272E-2,6.4102566E-1,5.102041E-1,8E-1,-2.723223E-2,4.909527E-2,1.1489232E-2,2.2622978E-2,3.0655188E-2,6.915136E-2],"split_indices":[3,3,5,0,2,2,5,0,0,0,0,0,0],"split_type":[0,0,0,0,0,0,0,0,0,0,0,0,0],"sum_hessian":[1.9319003E3,5.2198016E2,1.4099202E3,5.087282E2,1.3251927E1,1.0726613E3,3.3725888E2,1.1796634E1,1.4552944E0,7.4462366E2,3.2803757E2,3.2194873E2,1.5310151E1],"tree_param":{"num_deleted":"0","num_feature":"7","num_nodes":"13","size_leaf_vector":"1"}},{"base_weights":[-1.6233018E-2,-5.2780855E-2,3.3724394E-1,6.416072E-1,2.8867733E-1,6.1541375E-2,2.7661283E-2,1.4728283E-2,-4.940569E-2],"categories":[],"categories_nodes":[],"categories_segments":[],"categories_sizes":[],"default_left":[0,0,0,0,0,0,0,0,0],"id":24,"left_children":[1,-1,3,5,7,-1,-1,-1,-1],"loss_changes":[7.035279E2,0E0,2.0937668E1,9.516754E0,9.569527E0,0E0,0E0,0E0,0E0],"parents":[2147483647,0,0,2,2,3,3,4,4],"right_children":[2,-1,4,6,8,-1,-1,-1,-1],"split_conditions":[-2.7307964E-4,-5.2780855E-2,1.65E0,1.38E0,3.84E0,6.1541375E-2,2.7661283E-2,1.4728283E-2,-4.940569E-2],"split_indices":[3,0,1,1,1,0,0,0,0],"split_type":[0,0,0,0,0,0,0,0,0],"sum_hessian":[1.9129226E3,4.8495288E2,1.4279697E3,1.9482228E2,1.2331475E3,2.3725227E1,1.7109706E2,1.2282523E3,4.8951483E0],"tree_param":{"num_deleted":"0","num_feature":"7","num_nodes":"9","size_leaf_vector":"1"}},{"base_weights":[-8.345842E-3,-1.0334424E0,3.3399448E-1,-5.262598E-2,-3.457776E-1,2.6241463E-1,5.975596E-1,-3.142191E-2,5.863709E-3,-7.824718E-3,1.4534923E-2,2.7813569E-2,6.1659753E-2],"categories":[],"categories_nodes":[],"categories_segments":[],"categories_sizes":[],"default_left":[0,0,0,0,0,0,0,0,0,0,0,0,0],"id":25,"left_children":[1,3,5,-1,7,9,11,-1,-1,-1,-1,-1,-1],"loss_changes":[6.666089E2,5.874695E0,2.6708374E1,0E0,1.948766E0,1.3335197E1,7.2753067E0,0E0,0E0,0E0,0E0,0E0,0E0],"parents":[2147483647,0,0,1,1,2,2,4,4,5,5,6,6],"right_children":[2,4,6,-1,8,10,12,-1,-1,-1,-1,-1,-1],"split_conditions":[6.9194526E-4,-2.7307964E-4,5.970149E-1,-5.262598E-2,5.7135046E-1,3.030303E-1,8E-1,-3.142191E-2,5.863709E-3,-7.824718E-3,1.4534923E-2,2.7813569E-2,6.1659753E-2],"split_indices":[3,3,5,0,0,5,5,0,0,0,0,0,0],"split_type":[0,0,0,0,0,0,0,0,0,0,0,0,0],"sum_hessian":[1.8975559E3,4.745512E2,1.4230046E3,4.612253E2,1.3325894E1,1.1206505E3,3.0235416E2,8.05296E0,5.272934E0,7.059162E1,1.0500588E3,2.856732E2,1.668099E1],"tree_param":{"num_deleted":"0","num_feature":"7","num_nodes":"13","size_leaf_vector":"1"}},{"base_weights":[-3.300824E-2,-5.248199E-2,2.8353143E-1,1.2880087E0,2.6884758E-1,6.7499526E-2,2.3104597E-2,1.6707197E-2,6.646505E-3],"categories":[],"categories_nodes":[],"categories_segments":[],"categories_sizes":[],"default_left":[0,0,0,0,0,0,0,0,0],"id":26,"left_children":[1,-1,3,5,7,-1,-1,-1,-1],"loss_changes":[6.0099896E2,0E0,2.0660751E1,4.1314316E-1,1.2424728E1,0E0,0E0,0E0,0E0],"parents":[2147483647,0,0,2,2,3,3,4,4],"right_children":[2,-1,4,6,8,-1,-1,-1,-1],"split_conditions":[-2.7307964E-4,-5.248199E-2,1.36E0,1.8599877E-1,2.22E0,6.7499526E-2,2.3104597E-2,1.6707197E-2,6.646505E-3],"split_indices":[3,0,1,3,1,0,0,0,0],"split_type":[0,0,0,0,0,0,0,0,0],"sum_hessian":[1.8656674E3,4.4242224E2,1.4232451E3,1.9256409E1,1.4039886E3,1.7321928E1,1.9344797E0,9.4739197E2,4.5659674E2],"tree_param":{"num_deleted":"0","num_feature":"7","num_nodes":"9","size_leaf_vector":"1"}},{"base_weights":[-1.9823097E-2,-5.2344132E-2,2.823848E-1,5.602084E-1,2.3976347E-1,-1.8278476E-2,3.0238906E-2,1.4164949E-2,5.351736E-3],"categories":[],"categories_nodes":[],"categories_segments":[],"categories_sizes":[],"default_left":[0,0,0,0,0,0,0,0,0],"id":27,"left_children":[1,-1,3,5,7,-1,-1,-1,-1],"loss_changes":[5.7979504E2,0E0,1.6956703E1,8.111443E0,7.210739E0,0E0,0E0,0E0,0E0],"parents":[2147483647,0,0,2,2,3,3,4,4],"right_children":[2,-1,4,6,8,-1,-1,-1,-1],"split_conditions":[9.9942654E-1,-5.2344132E-2,1.64E0,1.0030472E0,2.38E0,-1.8278476E-2,3.0238906E-2,1.4164949E-2,5.351736E-3],"split_indices":[4,0,1,4,1,0,0,0,0],"split_type":[0,0,0,0,0,0,0,0,0],"sum_hessian":[1.866031E3,4.2368048E2,1.4423505E3,1.9022722E2,1.2521233E3,8.406657E0,1.8182057E2,9.420072E2,3.101161E2],"tree_param":{"num_deleted":"0","num_feature":"7","num_nodes":"9","size_leaf_vector":"1"}},{"base_weights":[-1.2305903E-2,-1.025136E0,2.8181946E-1,-5.221122E-2,-4.278349E-1,7.032464E-2,3.4230593E-1,-2.9849494E-2,2.180027E-2,2.6581166E-4,2.0901205E-2,-4.608639E-2,1.7654166E-2],"categories":[],"categories_nodes":[],"categories_segments":[],"categories_sizes":[],"default_left":[0,0,0,0,0,0,0,0,0,0,0,0,0],"id":28,"left_children":[1,3,5,-1,7,9,11,-1,-1,-1,-1,-1,-1],"loss_changes":[5.4807983E2,4.273926E0,1.821563E1,0E0,2.3814294E0,7.193485E0,1.542598E1,0E0,0E0,0E0,0E0,0E0,0E0],"parents":[2147483647,0,0,1,1,2,2,4,4,5,5,6,6],"right_children":[2,4,6,-1,8,10,12,-1,-1,-1,-1,-1,-1],"split_conditions":[6.9194526E-4,-2.7307964E-4,4.2553192E-1,-5.221122E-2,6.377815E-1,5E-1,1.875E-1,-2.9849494E-2,2.180027E-2,2.6581166E-4,2.0901205E-2,-4.608639E-2,1.7654166E-2],"split_indices":[3,3,2,0,0,5,5,0,0,0,0,0,0],"split_type":[0,0,0,0,0,0,0,0,0,0,0,0,0],"sum_hessian":[1.8378475E3,4.130413E2,1.4248062E3,3.9952515E2,1.3516131E1,3.1734637E2,1.1074598E3,1.1561166E1,1.9549655E0,2.682144E2,4.913201E1,8.647998E0,1.0988118E3],"tree_param":{"num_deleted":"0","num_feature":"7","num_nodes":"13","size_leaf_vector":"1"}},{"base_weights":[-6.9000293E-3,-5.2086916E-2,2.6786718E-1,3.4309435E-1,9.127998E-2,5.4375328E-2,1.6239233E-2,5.6622075E-3,-1.2768743E-2],"categories":[],"categories_nodes":[],"categories_segments":[],"categories_sizes":[],"default_left":[0,0,0,0,0,0,0,0,0],"id":29,"left_children":[1,-1,3,5,7,-1,-1,-1,-1],"loss_changes":[5.20976E2,0E0,1.9201912E1,1.3480438E1,3.3325427E0,0E0,0E0,0E0,0E0],"parents":[2147483647,0,0,2,2,3,3,4,4],"right_children":[2,-1,4,6,8,-1,-1,-1,-1],"split_conditions":[9.9942654E-1,-5.2086916E-2,2.25E0,1.37E0,3.21E0,5.4375328E-2,1.6239233E-2,5.6622075E-3,-1.2768743E-2],"split_indices":[4,0,1,1,1,0,0,0,0],"split_type":[0,0,0,0,0,0,0,0,0],"sum_hessian":[1.8302502E3,3.834176E2,1.4468326E3,1.0139437E3,4.3288895E2,2.2938633E1,9.9100507E2,4.077285E2,2.5160486E1],"tree_param":{"num_deleted":"0","num_feature":"7","num_nodes":"9","size_leaf_vector":"1"}},{"base_weights":[-1.02609275E-2,-5.1967647E-2,2.4838981E-1,1.9942988E-1,5.2329284E-1,3.0858375E-3,1.2986521E-2,2.4215423E-2,6.4522214E-2],"categories":[],"categories_nodes":[],"categories_segments":[],"categories_sizes":[],"default_left":[0,0,0,0,0,0,0,0,0],"id":30,"left_children":[1,-1,3,5,7,-1,-1,-1,-1],"loss_changes":[4.8471478E2,0E0,1.9482887E1,1.0255505E1,5.9362755E0,0E0,0E0,0E0,0E0],"parents":[2147483647,0,0,2,2,3,3,4,4],"right_children":[2,-1,4,6,8,-1,-1,-1,-1],"split_conditions":[-2.7307964E-4,-5.1967647E-2,6.2068963E-1,4.2307693E-1,8.378378E-1,3.0858375E-3,1.2986521E-2,2.4215423E-2,6.4522214E-2],"split_indices":[3,0,5,5,5,0,0,0,0],"split_type":[0,0,0,0,0,0,0,0,0],"sum_hessian":[1.8190652E3,3.6476373E2,1.4543014E3,1.2359122E3,2.1838914E2,3.7698502E2,8.589273E2,2.0938037E2,9.008784E0],"tree_param":{"num_deleted":"0","num_feature":"7","num_nodes":"9","size_leaf_vector":"1"}},{"base_weights":[-2.1253969E-3,-5.1854324E-2,2.4702686E-1,2.127658E-1,6.6741735E-1,-7.218429E-3,1.1705153E-2,2.9851535E-2,6.449145E-2],"categories":[],"categories_nodes":[],"categories_segments":[],"categories_sizes":[],"default_left":[0,0,0,0,0,0,0,0,0],"id":31,"left_children":[1,-1,3,5,7,-1,-1,-1,-1],"loss_changes":[4.6403778E2,0E0,2.0748123E1,1.0264526E1,3.9976845E0,0E0,0E0,0E0,0E0],"parents":[2147483647,0,0,2,2,3,3,4,4],"right_children":[2,-1,4,6,8,-1,-1,-1,-1],"split_conditions":[-2.7307964E-4,-5.1854324E-2,6.666667E-1,3.030303E-1,8.378378E-1,-7.218429E-3,1.1705153E-2,2.9851535E-2,6.449145E-2],"split_indices":[3,0,5,5,5,0,0,0,0],"split_type":[0,0,0,0,0,0,0,0,0],"sum_hessian":[1.7975586E3,3.4816074E2,1.4493978E3,1.3415685E3,1.0782934E2,7.530915E1,1.2662594E3,9.863431E1,9.195028E0],"tree_param":{"num_deleted":"0","num_feature":"7","num_nodes":"9","size_leaf_vector":"1"}},{"base_weights":[-3.033715E-3,-1.013596E0,2.4283166E-1,-5.1746424E-2,-4.3877873E-1,5.312335E-1,1.9780457E-1,-3.2227874E-2,2.3322595E-2,-3.1045293E-2,2.7859425E-2,1.0093926E-2,-3.886957E-2],"categories":[],"categories_nodes":[],"categories_segments":[],"categories_sizes":[],"default_left":[0,0,0,0,0,0,0,0,0,0,0,0,0],"id":32,"left_children":[1,3,5,-1,7,9,11,-1,-1,-1,-1,-1,-1],"loss_changes":[4.4016644E2,3.796814E0,1.8398567E1,0E0,2.9348283E0,6.0823746E0,5.059822E0,0E0,0E0,0E0,0E0,0E0,0E0],"parents":[2147483647,0,0,1,1,2,2,4,4,5,5,6,6],"right_children":[2,4,6,-1,8,10,12,-1,-1,-1,-1,-1,-1],"split_conditions":[1.0012417E0,-2.7307964E-4,1.65E0,-5.1746424E-2,6.509429E-1,1.0030472E0,9.7329295E-1,-3.2227874E-2,2.3322595E-2,-3.1045293E-2,2.7859425E-2,1.0093926E-2,-3.886957E-2],"split_indices":[4,3,1,0,0,4,0,0,0,0,0,0,0],"split_type":[0,0,0,0,0,0,0,0,0,0,0,0,0],"sum_hessian":[1.7695718E3,3.4566946E2,1.4239023E3,3.3252835E2,1.3141143E1,1.9082921E2,1.2330731E3,1.0941795E1,2.1993468E0,3.6992111E0,1.8713E2,1.2287329E3,4.340163E0],"tree_param":{"num_deleted":"0","num_feature":"7","num_nodes":"13","size_leaf_vector":"1"}},{"base_weights":[-1.9302178E-2,-1.0108141E0,2.1126874E-1,-5.1643368E-2,-4.6041918E-1,1.1675846E-1,3.7325072E-1,-3.33715E-2,2.416364E-2,7.5240205E-3,-6.405522E-3,1.7639797E-2,5.5100407E-2],"categories":[],"categories_nodes":[],"categories_segments":[],"categories_sizes":[],"default_left":[0,0,0,0,0,0,0,0,0,0,0,0,0],"id":33,"left_children":[1,3,5,-1,7,9,11,-1,-1,-1,-1,-1,-1],"loss_changes":[4.021574E2,3.5529175E0,2.1806728E1,0E0,3.1727986E0,7.4743404E0,7.444046E0,0E0,0E0,0E0,0E0,0E0,0E0],"parents":[2147483647,0,0,1,1,2,2,4,4,5,5,6,6],"right_children":[2,4,6,-1,8,10,12,-1,-1,-1,-1,-1,-1],"split_conditions":[6.9194526E-4,-2.7307964E-4,5.243902E-1,-5.1643368E-2,6.377815E-1,1.3636827E0,8E-1,-3.33715E-2,2.416364E-2,7.5240205E-3,-6.405522E-3,1.7639797E-2,5.5100407E-2],"split_indices":[3,3,5,0,0,4,5,0,0,0,0,0,0],"split_type":[0,0,0,0,0,0,0,0,0,0,0,0,0],"sum_hessian":[1.7571785E3,3.3088922E2,1.4262892E3,3.1729907E2,1.3590137E1,9.0182794E2,5.244613E2,1.138536E1,2.204777E0,7.9300525E2,1.088227E2,5.1158618E2,1.2875101E1],"tree_param":{"num_deleted":"0","num_feature":"7","num_nodes":"13","size_leaf_vector":"1"}},{"base_weights":[-4.1403794E-3,-5.154259E-2,2.0668681E-1,4.0720773E-1,1.6555752E-1,2.2501081E-2,-6.550466E-3,-3.9357435E-2,8.63704E-3],"categories":[],"categories_nodes":[],"categories_segments":[],"categories_sizes":[],"default_left":[0,0,0,0,0,0,0,0,0],"id":34,"left_children":[1,-1,3,5,7,-1,-1,-1,-1],"loss_changes":[3.8027866E2,0E0,1.1953358E1,5.759636E0,8.424553E0,0E0,0E0,0E0,0E0],"parents":[2147483647,0,0,2,2,3,3,4,4],"right_children":[2,-1,4,6,8,-1,-1,-1,-1],"split_conditions":[9.9942654E-1,-5.154259E-2,1.69E0,1.21563E0,1.875E-1,2.2501081E-2,-6.550466E-3,-3.9357435E-2,8.63704E-3],"split_indices":[4,0,1,4,5,0,0,0,0],"split_type":[0,0,0,0,0,0,0,0,0],"sum_hessian":[1.7548344E3,2.982911E2,1.4565432E3,2.463913E2,1.210152E3,2.2838748E2,1.8003822E1,8.24354E0,1.2019084E3],"tree_param":{"num_deleted":"0","num_feature":"7","num_nodes":"9","size_leaf_vector":"1"}},{"base_weights":[-7.9127215E-3,-5.145092E-2,1.9390656E-1,1.3071615E-1,3.9434838E-1,3.4586614E-4,9.256651E-3,-2.3487268E-2,2.0858316E-2],"categories":[],"categories_nodes":[],"categories_segments":[],"categories_sizes":[],"default_left":[0,0,0,0,0,0,0,0,0],"id":35,"left_children":[1,-1,3,5,7,-1,-1,-1,-1],"loss_changes":[3.6162222E2,0E0,1.8506912E1,7.513651E0,7.1107445E0,0E0,0E0,0E0,0E0],"parents":[2147483647,0,0,2,2,3,3,4,4],"right_children":[2,-1,4,6,8,-1,-1,-1,-1],"split_conditions":[9.9942654E-1,-5.145092E-2,5.822785E-1,4.1935483E-1,1.0030472E0,3.4586614E-4,9.256651E-3,-2.3487268E-2,2.0858316E-2],"split_indices":[4,0,5,5,4,0,0,0,0],"split_type":[0,0,0,0,0,0,0,0,0],"sum_hessian":[1.7528081E3,2.8858948E2,1.4642186E3,1.1145139E3,3.497047E2,3.4065283E2,7.73861E2,8.493074E0,3.4121164E2],"tree_param":{"num_deleted":"0","num_feature":"7","num_nodes":"9","size_leaf_vector":"1"}},{"base_weights":[-1.0548316E-2,-5.13602E-2,1.8140215E-1,6.6295797E-1,1.6203177E-1,5.468427E-2,2.721837E-2,8.306915E-3,-4.7617774E-2],"categories":[],"categories_nodes":[],"categories_segments":[],"categories_sizes":[],"default_left":[0,0,0,0,0,0,0,0,0],"id":36,"left_children":[1,-1,3,5,7,-1,-1,-1,-1],"loss_changes":[3.3815094E2,0E0,1.3489338E1,2.2672806E0,6.576874E0,0E0,0E0,0E0,0E0],"parents":[2147483647,0,0,2,2,3,3,4,4],"right_children":[2,-1,4,6,8,-1,-1,-1,-1],"split_conditions":[9.9942654E-1,-5.13602E-2,1.49E0,1.3E0,3.84E0,5.468427E-2,2.721837E-2,8.306915E-3,-4.7617774E-2],"split_indices":[4,0,1,1,1,0,0,0,0],"split_type":[0,0,0,0,0,0,0,0,0],"sum_hessian":[1.7308413E3,2.742006E2,1.4566406E3,5.5042233E1,1.4015984E3,1.0107799E1,4.4934437E1,1.3973003E3,4.2981453E0],"tree_param":{"num_deleted":"0","num_feature":"7","num_nodes":"9","size_leaf_vector":"1"}},{"base_weights":[-2.5353815E-2,-5.1274206E-2,1.5473542E-1,9.428209E-1,1.470119E-1,5.20063E-2,3.8597398E-4,1.0995518E-2,4.4615725E-3],"categories":[],"categories_nodes":[],"categories_segments":[],"categories_sizes":[],"default_left":[0,0,0,0,0,0,0,0,0],"id":37,"left_children":[1,-1,3,5,7,-1,-1,-1,-1],"loss_changes":[3.099006E2,0E0,8.736954E0,1.2628412E0,6.067726E0,0E0,0E0,0E0,0E0],"parents":[2147483647,0,0,2,2,3,3,4,4],"right_children":[2,-1,4,6,8,-1,-1,-1,-1],"split_conditions":[-2.7307964E-4,-5.1274206E-2,1.33E0,1.8599877E-1,1.98E0,5.20063E-2,3.8597398E-4,1.0995518E-2,4.4615725E-3],"split_indices":[3,0,1,3,1,0,0,0,0],"split_type":[0,0,0,0,0,0,0,0,0],"sum_hessian":[1.7187119E3,2.6154126E2,1.4571707E3,1.2967127E1,1.4442035E3,1.1643238E1,1.3238885E0,6.373226E2,8.06881E2],"tree_param":{"num_deleted":"0","num_feature":"7","num_nodes":"9","size_leaf_vector":"1"}},{"base_weights":[-1.2011008E-3,-5.119027E-2,1.7274714E-1,5.979636E-1,1.5529865E-1,5.189265E-2,2.2866907E-2,8.419857E-3,-8.367858E-3],"categories":[],"categories_nodes":[],"categories_segments":[],"categories_sizes":[],"default_left":[0,0,0,0,0,0,0,0,0],"id":38,"left_children":[1,-1,3,5,7,-1,-1,-1,-1],"loss_changes":[3.046627E2,0E0,1.0767323E1,3.072754E0,5.9763374E0,0E0,0E0,0E0,0E0],"parents":[2147483647,0,0,2,2,3,3,4,4],"right_children":[2,-1,4,6,8,-1,-1,-1,-1],"split_conditions":[9.9942654E-1,-5.119027E-2,1.5E0,1.33E0,1.5409578E0,5.189265E-2,2.2866907E-2,8.419857E-3,-8.367858E-3],"split_indices":[4,0,1,1,4,0,0,0,0],"split_type":[0,0,0,0,0,0,0,0,0],"sum_hessian":[1.7107465E3,2.4798866E2,1.4627578E3,5.6346E1,1.4064117E3,1.2103834E1,4.424217E1,1.352004E3,5.4407707E1],"tree_param":{"num_deleted":"0","num_feature":"7","num_nodes":"9","size_leaf_vector":"1"}},{"base_weights":[-4.968828E-3,-5.1109444E-2,1.5937509E-1,-2.110394E-2,2.1217723E-1,-3.6611065E-2,6.4042535E-5,1.004595E-2,5.33006E-2],"categories":[],"categories_nodes":[],"categories_segments":[],"categories_sizes":[],"default_left":[0,0,0,0,0,0,0,0,0],"id":39,"left_children":[1,-1,3,5,7,-1,-1,-1,-1],"loss_changes":[2.832603E2,0E0,1.390596E1,5.271338E0,1.0635292E1,0E0,0E0,0E0,0E0],"parents":[2147483647,0,0,2,2,3,3,4,4],"right_children":[2,-1,4,6,8,-1,-1,-1,-1],"split_conditions":[-2.7307964E-4,-5.1109444E-2,4.1666666E-1,1.875E-1,8E-1,-3.6611065E-2,6.4042535E-5,1.004595E-2,5.33006E-2],"split_indices":[3,0,5,5,5,0,0,0,0],"split_type":[0,0,0,0,0,0,0,0,0],"sum_hessian":[1.6924303E3,2.3467436E2,1.457756E3,3.3009244E2,1.1276636E3,9.105922E0,3.209865E2,1.1142075E3,1.3456073E1],"tree_param":{"num_deleted":"0","num_feature":"7","num_nodes":"9","size_leaf_vector":"1"}},{"base_weights":[8.545921E-3,-9.950621E-1,1.7073968E-1,-5.1033523E-2,-4.6736026E-1,-2.7100047E-2,2.2811586E-1,1.3868879E-2,-4.5656975E-2,-4.0736508E-2,-1.2863133E-4,1.0905737E-2,4.2584296E-2],"categories":[],"categories_nodes":[],"categories_segments":[],"categories_sizes":[],"default_left":[0,0,0,0,0,0,0,0,0,0,0,0,0],"id":40,"left_children":[1,3,5,-1,7,9,11,-1,-1,-1,-1,-1,-1],"loss_changes":[2.774857E2,2.727951E0,1.6663815E1,0E0,4.5097904E0,6.3885016E0,6.9091682E0,0E0,0E0,0E0,0E0,0E0,0E0],"parents":[2147483647,0,0,1,1,2,2,4,4,5,5,6,6],"right_children":[2,4,6,-1,8,10,12,-1,-1,-1,-1,-1,-1],"split_conditions":[1.0012417E0,9.9942654E-1,4.1666666E-1,-5.1033523E-2,1.74E0,1.875E-1,7.8571427E-1,1.3868879E-2,-4.5656975E-2,-4.0736508E-2,-1.2863133E-4,1.0905737E-2,4.2584296E-2],"split_indices":[4,4,5,0,1,5,5,0,0,0,0,0,0],"split_type":[0,0,0,0,0,0,0,0,0,0,0,0,0],"sum_hessian":[1.702634E3,2.3616687E2,1.4664672E3,2.2434563E2,1.1821238E1,3.2980133E2,1.1366659E3,4.567817E0,7.2534204E0,8.98714E0,3.208142E2,1.1200518E3,1.6614143E1],"tree_param":{"num_deleted":"0","num_feature":"7","num_nodes":"13","size_leaf_vector":"1"}},{"base_weights":[-2.2609066E-2,-5.096156E-2,1.24005854E-1,8.663536E-2,3.2350916E-1,5.982797E-3,-4.886127E-3,1.4136051E-2,4.7089346E-2],"categories":[],"categories_nodes":[],"categories_segments":[],"categories_sizes":[],"default_left":[0,0,0,0,0,0,0,0,0],"id":41,"left_children":[1,-1,3,5,7,-1,-1,-1,-1],"loss_changes":[2.4645564E2,0E0,1.0935337E1,7.5595417E0,5.575033E0,0E0,0E0,0E0,0E0],"parents":[2147483647,0,0,2,2,3,3,4,4],"right_children":[2,-1,4,6,8,-1,-1,-1,-1],"split_conditions":[9.9942654E-1,-5.096156E-2,6.1290324E-1,1.3299108E-1,8E-1,5.982797E-3,-4.886127E-3,1.4136051E-2,4.7089346E-2],"split_indices":[4,0,5,3,5,0,0,0,0],"split_type":[0,0,0,0,0,0,0,0,0],"sum_hessian":[1.6848049E3,2.1530522E2,1.4694996E3,1.2388715E3,2.3062823E2,1.05098E3,1.8789142E2,2.1772224E2,1.2905995E1],"tree_param":{"num_deleted":"0","num_feature":"7","num_nodes":"9","size_leaf_vector":"1"}},{"base_weights":[-1.2269199E-2,-5.088964E-2,1.294338E-1,1.0177017E-1,4.2947552E-1,-3.9701648E-2,5.411431E-3,1.8725565E-2,5.1288098E-2],"categories":[],"categories_nodes":[],"categories_segments":[],"categories_sizes":[],"default_left":[0,0,0,0,0,0,0,0,0],"id":42,"left_children":[1,-1,3,5,7,-1,-1,-1,-1],"loss_changes":[2.3644002E2,0E0,1.2029047E1,7.7982016E0,3.6298313E0,0E0,0E0,0E0,0E0],"parents":[2147483647,0,0,2,2,3,3,4,4],"right_children":[2,-1,4,6,8,-1,-1,-1,-1],"split_conditions":[-2.7307964E-4,-5.088964E-2,6.5625E-1,1.875E-1,8.378378E-1,-3.9701648E-2,5.411431E-3,1.8725565E-2,5.1288098E-2],"split_indices":[3,0,5,5,5,0,0,0,0],"split_type":[0,0,0,0,0,0,0,0,0],"sum_hessian":[1.6574697E3,2.0396349E2,1.4535062E3,1.332033E3,1.2147329E2,8.661898E0,1.3233711E3,1.1271186E2,8.761431E0],"tree_param":{"num_deleted":"0","num_feature":"7","num_nodes":"9","size_leaf_vector":"1"}},{"base_weights":[-1.2895252E-2,-5.0822098E-2,1.2181191E-1,1.2127734E-2,1.8534684E-1,2.8505984E-3,-1.3247785E-2,8.662908E-3,4.4341836E-2],"categories":[],"categories_nodes":[],"categories_segments":[],"categories_sizes":[],"default_left":[0,0,0,0,0,0,0,0,0],"id":43,"left_children":[1,-1,3,5,7,-1,-1,-1,-1],"loss_changes":[2.2421198E2,0E0,1.018861E1,6.699174E0,7.6981525E0,0E0,0E0,0E0,0E0],"parents":[2147483647,0,0,2,2,3,3,4,4],"right_children":[2,-1,4,6,8,-1,-1,-1,-1],"split_conditions":[9.9942654E-1,-5.0822098E-2,4.5614034E-1,1.3636827E0,2.74E0,2.8505984E-3,-1.3247785E-2,8.662908E-3,4.4341836E-2],"split_indices":[4,0,5,4,1,0,0,0,0],"split_type":[0,0,0,0,0,0,0,0,0],"sum_hessian":[1.6566415E3,1.9528134E2,1.4613601E3,5.364482E2,9.24912E2,4.6234756E2,7.4100586E1,9.10469E2,1.4442982E1],"tree_param":{"num_deleted":"0","num_feature":"7","num_nodes":"9","size_leaf_vector":"1"}},{"base_weights":[1.4167552E-2,-9.844532E-1,1.5344016E-1,-5.075858E-2,-4.4427973E-1,1.2539493E-1,4.7136888E-1,9.159946E-4,-4.4560462E-2,-6.6865482E-3,7.112652E-3,2.0619946E-2,5.4967027E-2],"categories":[],"categories_nodes":[],"categories_segments":[],"categories_sizes":[],"default_left":[0,0,0,0,0,0,0,0,0,0,0,0,0],"id":44,"left_children":[1,3,5,-1,7,9,11,-1,-1,-1,-1,-1,-1],"loss_changes":[2.2743501E2,2.8701477E0,1.2736248E1,0E0,2.6106045E0,5.7856007E0,3.8409576E0,0E0,0E0,0E0,0E0,0E0,0E0],"parents":[2147483647,0,0,1,1,2,2,4,4,5,5,6,6],"right_children":[2,4,6,-1,8,10,12,-1,-1,-1,-1,-1,-1],"split_conditions":[6.9194526E-4,-2.7307964E-4,6.5625E-1,-5.075858E-2,5.416667E-1,3.0392158E-1,8.378378E-1,9.159946E-4,-4.4560462E-2,-6.6865482E-3,7.112652E-3,2.0619946E-2,5.4967027E-2],"split_indices":[3,3,5,0,5,5,5,0,0,0,0,0,0],"split_type":[0,0,0,0,0,0,0,0,0,0,0,0,0],"sum_hessian":[1.6331897E3,1.9915172E2,1.434038E3,1.8760379E2,1.1547935E1,1.3190737E3,1.1496418E2,6.145732E0,5.402202E0,8.015039E1,1.2389233E3,1.06609665E2,8.354515E0],"tree_param":{"num_deleted":"0","num_feature":"7","num_nodes":"13","size_leaf_vector":"1"}},{"base_weights":[-1.8357532E-2,-5.0690603E-2,1.01358846E-1,6.6063434E-2,2.7214932E-1,3.8012234E-3,-1.3292909E-2,4.5146268E-2,1.184178E-2],"categories":[],"categories_nodes":[],"categories_segments":[],"categories_sizes":[],"default_left":[0,0,0,0,0,0,0,0,0],"id":45,"left_children":[1,-1,3,5,7,-1,-1,-1,-1],"loss_changes":[1.9674727E2,0E0,8.866599E0,4.062985E0,5.401699E0,0E0,0E0,0E0,0E0],"parents":[2147483647,0,0,2,2,3,3,4,4],"right_children":[2,-1,4,6,8,-1,-1,-1,-1],"split_conditions":[-2.7307964E-4,-5.0690603E-2,6.5263593E-1,1E0,1.33E0,3.8012234E-3,-1.3292909E-2,4.5146268E-2,1.184178E-2],"split_indices":[3,0,0,6,1,0,0,0,0],"split_type":[0,0,0,0,0,0,0,0,0],"sum_hessian":[1.649087E3,1.7623186E2,1.4728552E3,1.2217551E3,2.5110005E2,1.1869067E3,3.484835E1,1.2009903E1,2.3909015E2],"tree_param":{"num_deleted":"0","num_feature":"7","num_nodes":"9","size_leaf_vector":"1"}},{"base_weights":[-2.0835532E-2,-5.0629802E-2,9.460507E-2,2.8007084E-1,5.8560666E-2,2.009751E-2,4.2219623E-3,3.3063297E-3,-1.7716272E-2],"categories":[],"categories_nodes":[],"categories_segments":[],"categories_sizes":[],"default_left":[0,0,0,0,0,0,0,0,0],"id":46,"left_children":[1,-1,3,5,7,-1,-1,-1,-1],"loss_changes":[1.8636401E2,0E0,9.731875E0,5.6174526E0,3.8414507E0,0E0,0E0,0E0,0E0],"parents":[2147483647,0,0,2,2,3,3,4,4],"right_children":[2,-1,4,6,8,-1,-1,-1,-1],"split_conditions":[-2.7307964E-4,-5.0629802E-2,1.69E0,1.0641727E0,3.3E0,2.009751E-2,4.2219623E-3,3.3063297E-3,-1.7716272E-2],"split_indices":[3,0,1,4,1,0,0,0,0],"split_type":[0,0,0,0,0,0,0,0,0],"sum_hessian":[1.625947E3,1.6871655E2,1.4572305E3,2.3602066E2,1.2212097E3,1.4477226E2,9.1248405E1,1.2000591E3,2.1150635E1],"tree_param":{"num_deleted":"0","num_feature":"7","num_nodes":"9","size_leaf_vector":"1"}},{"base_weights":[-1.6368438E-2,-2.3575103E-1,2.6472695E-2,-9.1516536E-1,-8.763505E-2,-3.2941428E-1,4.0279936E-2,-4.8364844E-2,-3.998246E-3,-7.371577E-3,1.398082E-2,-4.6909764E-2,1.6056186E-2,3.7207888E-4,1.0604436E-2],"categories":[],"categories_nodes":[],"categories_segments":[],"categories_sizes":[],"default_left":[0,0,0,0,0,0,0,0,0,0,0,0,0,0,0],"id":47,"left_children":[1,3,5,7,9,11,13,-1,-1,-1,-1,-1,-1,-1,-1],"loss_changes":[1.5331869E1,2.6738966E1,6.7212286E0,1.9949532E0,4.8705673E0,2.0535967E1,7.4177065E0,0E0,0E0,0E0,0E0,0E0,0E0,0E0,0E0],"parents":[2147483647,0,0,1,1,2,2,3,3,4,4,5,5,6,6],"right_children":[2,4,6,8,10,12,14,-1,-1,-1,-1,-1,-1,-1,-1],"split_conditions":[4.554866E-1,2.29E0,1.41E0,4.5413095E-1,5.068493E-1,7.3861593E-1,6.5734243E-1,-4.8364844E-2,-3.998246E-3,-7.371577E-3,1.398082E-2,-4.6909764E-2,1.6056186E-2,3.7207888E-4,1.0604436E-2],"split_indices":[0,1,1,0,5,0,0,0,0,0,0,0,0,0,0],"split_type":[0,0,0,0,0,0,0,0,0,0,0,0,0,0,0],"sum_hessian":[1.6296292E3,2.6550705E2,1.3641221E3,4.6595016E1,2.1891203E2,5.0093166E1,1.3140289E3,4.370865E1,2.8863678E0,1.8877408E2,3.0137953E1,2.5648663E1,2.4444504E1,1.1040514E3,2.0997754E2],"tree_param":{"num_deleted":"0","num_feature":"7","num_nodes":"15","size_leaf_vector":"1"}},{"base_weights":[-6.2441337E-3,-5.0548315E-2,1.0423842E-1,-4.8451796E-2,1.5157117E-1,-3.7155155E-2,-1.4997775E-3,7.067544E-3,4.4397585E-2],"categories":[],"categories_nodes":[],"categories_segments":[],"categories_sizes":[],"default_left":[0,0,0,0,0,0,0,0,0],"id":48,"left_children":[1,-1,3,5,7,-1,-1,-1,-1],"loss_changes":[1.7793987E2,0E0,1.0445251E1,4.3690233E0,8.17362E0,0E0,0E0,0E0,0E0],"parents":[2147483647,0,0,2,2,3,3,4,4],"right_children":[2,-1,4,6,8,-1,-1,-1,-1],"split_conditions":[-2.7307964E-4,-5.0548315E-2,4.1935483E-1,1.875E-1,7.8571427E-1,-3.7155155E-2,-1.4997775E-3,7.067544E-3,4.4397585E-2],"split_indices":[3,0,5,5,5,0,0,0,0],"split_type":[0,0,0,0,0,0,0,0,0],"sum_hessian":[1.6010509E3,1.5780754E2,1.4432434E3,3.415186E2,1.1017247E3,7.8228106E0,3.3369577E2,1.0878188E3,1.3905989E1],"tree_param":{"num_deleted":"0","num_feature":"7","num_nodes":"9","size_leaf_vector":"1"}},{"base_weights":[-1.9785583E-2,-5.0488826E-2,8.281073E-2,7.666683E-2,5.289079E-2,4.0298584E-3,-4.7843333E-2],"categories":[],"categories_nodes":[],"categories_segments":[],"categories_sizes":[],"default_left":[0,0,0,0,0,0,0],"id":49,"left_children":[1,-1,3,5,-1,-1,-1],"loss_changes":[1.6307353E2,0E0,8.634546E0,5.9547005E0,0E0,0E0,0E0],"parents":[2147483647,0,0,2,2,3,3],"right_children":[2,-1,4,6,-1,-1,-1],"split_conditions":[9.9942654E-1,-5.0488826E-2,8.378378E-1,3.84E0,5.289079E-2,4.0298584E-3,-4.7843333E-2],"split_indices":[4,0,5,1,0,0,0],"split_type":[0,0,0,0,0,0,0],"sum_hessian":[1.6037145E3,1.4976196E2,1.4539525E3,1.4459198E3,8.032688E0,1.4413606E3,4.5592074E0],"tree_param":{"num_deleted":"0","num_feature":"7","num_nodes":"7","size_leaf_vector":"1"}},{"base_weights":[-2.0758724E-3,-9.710678E-1,1.02510765E-1,-5.043152E-2,-5.1405096E-1,5.5372808E-2,2.6194823E-1,-4.1268755E-2,1.354233E-3,-3.4241665E-2,3.0915476E-3,-3.3341464E-2,1.3544844E-2],"categories":[],"categories_nodes":[],"categories_segments":[],"categories_sizes":[],"default_left":[0,0,0,0,0,0,0,0,0,0,0,0,0],"id":50,"left_children":[1,3,5,-1,7,9,11,-1,-1,-1,-1,-1,-1],"loss_changes":[1.6274248E2,2.1670837E0,1.0878744E1,0E0,2.3675613E0,5.396124E0,2.9272995E0,0E0,0E0,0E0,0E0,0E0,0E0],"parents":[2147483647,0,0,1,1,2,2,4,4,5,5,6,6],"right_children":[2,4,6,-1,8,10,12,-1,-1,-1,-1,-1,-1],"split_conditions":[1.0012417E0,-2.7307964E-4,5.822785E-1,-5.043152E-2,5.755701E-1,1.875E-1,1.5699833E-3,-4.1268755E-2,1.354233E-3,-3.4241665E-2,3.0915476E-3,-3.3341464E-2,1.3544844E-2],"split_indices":[4,3,5,0,0,5,3,0,0,0,0,0,0],"split_type":[0,0,0,0,0,0,0,0,0,0,0,0,0],"sum_hessian":[1.6038662E3,1.5543948E2,1.4484266E3,1.4251874E2,1.2920737E1,1.1189535E3,3.294732E2,7.8685617E0,5.0521755E0,8.76966E0,1.1101838E3,2.4425614E0,3.2703064E2],"tree_param":{"num_deleted":"0","num_feature":"7","num_nodes":"13","size_leaf_vector":"1"}},{"base_weights":[-3.7657793E-3,-5.0373882E-2,8.997076E-2,6.779795E-2,3.8746086E-1,1.1860467E-2,2.1129153E-3,1.6465625E-2,4.1079644E-2],"categories":[],"categories_nodes":[],"categories_segments":[],"categories_sizes":[],"default_left":[0,0,0,0,0,0,0,0,0],"id":51,"left_children":[1,-1,3,5,7,-1,-1,-1,-1],"loss_changes":[1.4993369E2,0E0,9.587868E0,5.8640957E0,2.276227E0,0E0,0E0,0E0,0E0],"parents":[2147483647,0,0,2,2,3,3,4,4],"right_children":[2,-1,4,6,8,-1,-1,-1,-1],"split_conditions":[9.9942654E-1,-5.0373882E-2,6.666667E-1,1.69E0,1.2893814E0,1.1860467E-2,2.1129153E-3,1.6465625E-2,4.1079644E-2],"split_indices":[4,0,5,1,4,0,0,0,0],"split_type":[0,0,0,0,0,0,0,0,0],"sum_hessian":[1.5916434E3,1.3511469E2,1.4565288E3,1.3566422E3,9.988661E1,1.7664175E2,1.1800004E3,8.96388E1,1.0247813E1],"tree_param":{"num_deleted":"0","num_feature":"7","num_nodes":"9","size_leaf_vector":"1"}},{"base_weights":[-7.1464893E-3,-5.032263E-2,8.101105E-2,-6.5402585E-1,8.799811E-2,-4.077207E-2,1.6595662E-2,4.744073E-3,-3.1514056E-2],"categories":[],"categories_nodes":[],"categories_segments":[],"categories_sizes":[],"default_left":[0,0,0,0,0,0,0,0,0],"id":52,"left_children":[1,-1,3,5,7,-1,-1,-1,-1],"loss_changes":[1.4223352E2,0E0,7.6775227E0,2.5129495E0,7.3308125E0,0E0,0E0,0E0,0E0],"parents":[2147483647,0,0,2,2,3,3,4,4],"right_children":[2,-1,4,6,8,-1,-1,-1,-1],"split_conditions":[9.9942654E-1,-5.032263E-2,2.3809524E-1,1.4953754E0,1.8118883E0,-4.077207E-2,1.6595662E-2,4.744073E-3,-3.1514056E-2],"split_indices":[4,0,5,4,4,0,0,0,0],"split_type":[0,0,0,0,0,0,0,0,0],"sum_hessian":[1.6125964E3,1.2988411E2,1.4827124E3,1.3089548E1,1.4696228E3,1.13966465E1,1.692902E0,1.4565326E3,1.3090219E1],"tree_param":{"num_deleted":"0","num_feature":"7","num_nodes":"9","size_leaf_vector":"1"}},{"base_weights":[-7.3013036E-3,-5.0272364E-2,7.844521E-2,4.7634366E-1,6.311422E-2,2.141519E-2,5.1254984E-2,3.3468087E-3,-4.067648E-2],"categories":[],"categories_nodes":[],"categories_segments":[],"categories_sizes":[],"default_left":[0,0,0,0,0,0,0,0,0],"id":53,"left_children":[1,-1,3,5,7,-1,-1,-1,-1],"loss_changes":[1.3603078E2,0E0,8.898887E0,9.885063E-1,4.7805486E0,0E0,0E0,0E0,0E0],"parents":[2147483647,0,0,2,2,3,3,4,4],"right_children":[2,-1,4,6,8,-1,-1,-1,-1],"split_conditions":[-2.7307964E-4,-5.0272364E-2,1.5E0,2E0,3.76E0,2.141519E-2,5.1254984E-2,3.3468087E-3,-4.067648E-2],"split_indices":[3,0,1,6,1,0,0,0,0],"split_type":[0,0,0,0,0,0,0,0,0],"sum_hessian":[1.5874546E3,1.247347E2,1.4627198E3,5.3151905E1,1.409568E3,5.051055E1,2.641354E0,1.4043689E3,5.1990585E0],"tree_param":{"num_deleted":"0","num_feature":"7","num_nodes":"9","size_leaf_vector":"1"}},{"base_weights":[7.0004705E-3,-5.021423E-2,8.870066E-2,-1.2320709E-1,1.2253416E-1,3.7499685E-3,-1.4335349E-2,5.8616507E-3,4.8984814E-2],"categories":[],"categories_nodes":[],"categories_segments":[],"categories_sizes":[],"default_left":[0,0,0,0,0,0,0,0,0],"id":54,"left_children":[1,-1,3,5,7,-1,-1,-1,-1],"loss_changes":[1.3115211E2,0E0,1.0544615E1,6.59034E0,5.6420517E0,0E0,0E0,0E0,0E0],"parents":[2147483647,0,0,2,2,3,3,4,4],"right_children":[2,-1,4,6,8,-1,-1,-1,-1],"split_conditions":[9.9942654E-1,-5.021423E-2,3.7804878E-1,1.1531348E0,8.378378E-1,3.7499685E-3,-1.4335349E-2,5.8616507E-3,4.8984814E-2],"split_indices":[4,0,5,4,5,0,0,0,0],"split_type":[0,0,0,0,0,0,0,0,0],"sum_hessian":[1.5852936E3,1.1765592E2,1.4676377E3,2.0169975E2,1.2659379E3,9.141777E1,1.1028199E2,1.2592865E3,6.651341E0],"tree_param":{"num_deleted":"0","num_feature":"7","num_nodes":"9","size_leaf_vector":"1"}},{"base_weights":[-9.873644E-4,-5.0161507E-2,7.640292E-2,-6.9519475E-2,1.104407E-1,1.1846064E-2,-5.4436005E-3,5.1874546E-3,4.302036E-2],"categories":[],"categories_nodes":[],"categories_segments":[],"categories_sizes":[],"default_left":[0,0,0,0,0,0,0,0,0],"id":55,"left_children":[1,-1,3,5,7,-1,-1,-1,-1],"loss_changes":[1.21805885E2,0E0,7.248576E0,3.3583605E0,5.845031E0,0E0,0E0,0E0,0E0],"parents":[2147483647,0,0,2,2,3,3,4,4],"right_children":[2,-1,4,6,8,-1,-1,-1,-1],"split_conditions":[-2.7307964E-4,-5.0161507E-2,4.751611E-1,5.9998236E-3,7.5757575E-1,1.1846064E-2,-5.4436005E-3,5.1874546E-3,4.302036E-2],"split_indices":[3,0,0,3,2,0,0,0,0],"split_type":[0,0,0,0,0,0,0,0,0],"sum_hessian":[1.5684069E3,1.1156904E2,1.4568379E3,2.7535007E2,1.1814878E3,3.0764494E1,2.4458559E2,1.1721674E3,9.320379E0],"tree_param":{"num_deleted":"0","num_feature":"7","num_nodes":"9","size_leaf_vector":"1"}},{"base_weights":[5.6672612E-5,-5.0109144E-2,7.2851226E-2,9.9874425E-1,6.744382E-2,5.358232E-2,1.4889552E-2,-1.5219579E-2,3.9759E-3],"categories":[],"categories_nodes":[],"categories_segments":[],"categories_sizes":[],"default_left":[0,0,0,0,0,0,0,0,0],"id":56,"left_children":[1,-1,3,5,7,-1,-1,-1,-1],"loss_changes":[1.1545063E2,0E0,7.3189015E0,1.1490059E-1,6.6139975E0,0E0,0E0,0E0,0E0],"parents":[2147483647,0,0,2,2,3,3,4,4],"right_children":[2,-1,4,6,8,-1,-1,-1,-1],"split_conditions":[-2.7307964E-4,-5.0109144E-2,1.3E0,1.5129854E-1,2.75E-1,5.358232E-2,1.4889552E-2,-1.5219579E-2,3.9759E-3],"split_indices":[3,0,1,3,5,0,0,0,0],"split_type":[0,0,0,0,0,0,0,0,0],"sum_hessian":[1.5804344E3,1.0615257E2,1.4742819E3,7.4935017E0,1.4667885E3,6.3085437E0,1.1849581E0,4.536991E1,1.4214185E3],"tree_param":{"num_deleted":"0","num_feature":"7","num_nodes":"9","size_leaf_vector":"1"}},{"base_weights":[-5.550273E-3,-9.5127374E-1,6.903588E-2,-5.0054826E-2,-4.980054E-1,6.1304968E-2,6.131298E-1,-3.4619622E-2,2.2100968E-2,-4.443745E-2,3.2445812E-3,3.6899935E-2,-1.6708028E-2],"categories":[],"categories_nodes":[],"categories_segments":[],"categories_sizes":[],"default_left":[0,0,0,0,0,0,0,0,0,0,0,0,0],"id":57,"left_children":[1,3,5,-1,7,9,11,-1,-1,-1,-1,-1,-1],"loss_changes":[1.09778534E2,2.0706787E0,6.0305142E0,0E0,2.728427E0,4.9082956E0,2.6241145E0,0E0,0E0,0E0,0E0,0E0,0E0],"parents":[2147483647,0,0,1,1,2,2,4,4,5,5,6,6],"right_children":[2,4,6,-1,8,10,12,-1,-1,-1,-1,-1,-1],"split_conditions":[1.0012417E0,-2.7307964E-4,7.29927E-1,-5.0054826E-2,6.377815E-1,2.6041666E-1,1.8599877E-1,-3.4619622E-2,2.2100968E-2,-4.443745E-2,3.2445812E-3,3.6899935E-2,-1.6708028E-2],"split_indices":[4,3,2,0,0,2,3,0,0,0,0,0,0],"split_type":[0,0,0,0,0,0,0,0,0,0,0,0,0],"sum_hessian":[1.554375E3,1.127679E2,1.4416072E3,1.0051121E2,1.2256687E1,1.4225077E3,1.909944E1,1.0374735E1,1.8819522E0,4.4218764E0,1.4180858E3,1.707023E1,2.0292091E0],"tree_param":{"num_deleted":"0","num_feature":"7","num_nodes":"13","size_leaf_vector":"1"}},{"base_weights":[-2.7160954E-2,-9.548886E-1,4.3594714E-2,-9.682662E-1,7.629286E-3,3.8536593E-2,6.9987863E-1,-5.0007463E-2,-3.159795E-2,-2.073825E-3,3.0932126E-3,5.497111E-2,1.0852708E-2],"categories":[],"categories_nodes":[],"categories_segments":[],"categories_sizes":[],"default_left":[0,0,0,0,0,0,0,0,0,0,0,0,0],"id":58,"left_children":[1,3,5,7,-1,9,11,-1,-1,-1,-1,-1,-1],"loss_changes":[1.016862E2,1.7740784E0,4.7521935E0,5.323944E-1,0E0,2.6712074E0,1.8742862E0,0E0,0E0,0E0,0E0,0E0,0E0],"parents":[2147483647,0,0,1,1,2,2,3,3,5,5,6,6],"right_children":[2,4,6,8,-1,10,12,-1,-1,-1,-1,-1,-1],"split_conditions":[1.0012417E0,6.9194526E-4,7.5757575E-1,-2.7307964E-4,7.629286E-3,4.2553192E-1,4.2475723E-2,-5.0007463E-2,-3.159795E-2,-2.073825E-3,3.0932126E-3,5.497111E-2,1.0852708E-2],"split_indices":[4,3,2,3,0,2,3,0,0,0,0,0,0],"split_type":[0,0,0,0,0,0,0,0,0,0,0,0,0],"sum_hessian":[1.547469E3,1.0877305E2,1.438696E3,1.07599014E2,1.1740333E0,1.428743E3,9.952913E0,9.6478615E1,1.1120404E1,3.2234216E2,1.1064009E3,4.747353E0,5.2055597E0],"tree_param":{"num_deleted":"0","num_feature":"7","num_nodes":"13","size_leaf_vector":"1"}},{"base_weights":[9.787676E-3,-4.9958013E-2,7.3931366E-2,5.1620696E-2,4.6034208E-1,-2.3643825E-2,2.997843E-3,5.815483E-3,2.7953237E-2],"categories":[],"categories_nodes":[],"categories_segments":[],"categories_sizes":[],"default_left":[0,0,0,0,0,0,0,0,0],"id":59,"left_children":[1,-1,3,5,7,-1,-1,-1,-1],"loss_changes":[1.00847046E2,0E0,1.260591E1,6.088937E0,2.6467E0,0E0,0E0,0E0,0E0],"parents":[2147483647,0,0,2,2,3,3,4,4],"right_children":[2,-1,4,6,8,-1,-1,-1,-1],"split_conditions":[-2.7307964E-4,-4.9958013E-2,6.7241377E-1,2.5E-1,1.7897755E-2,-2.3643825E-2,2.997843E-3,5.815483E-3,2.7953237E-2],"split_indices":[3,0,5,5,3,0,0,0,0],"split_type":[0,0,0,0,0,0,0,0,0],"sum_hessian":[1.5561207E3,9.214527E1,1.4639755E3,1.3851339E3,7.884159E1,2.0798552E1,1.3643353E3,1.8065254E1,6.0776337E1],"tree_param":{"num_deleted":"0","num_feature":"7","num_nodes":"9","size_leaf_vector":"1"}},{"base_weights":[9.160536E-4,-4.9907733E-2,6.1335545E-2,-7.3610884E-1,6.625098E-2,-3.8309678E-5,-4.5227956E-2,3.1048213E-3,4.186799E-2],"categories":[],"categories_nodes":[],"categories_segments":[],"categories_sizes":[],"default_left":[0,0,0,0,0,0,0,0,0],"id":60,"left_children":[1,-1,3,5,7,-1,-1,-1,-1],"loss_changes":[9.401693E1,0E0,5.8056893E0,1.1240401E0,4.6272097E0,0E0,0E0,0E0,0E0],"parents":[2147483647,0,0,2,2,3,3,4,4],"right_children":[2,-1,4,6,8,-1,-1,-1,-1],"split_conditions":[9.9942654E-1,-4.9907733E-2,1.875E-1,5.290622E-1,8.378378E-1,-3.8309678E-5,-4.5227956E-2,3.1048213E-3,4.186799E-2],"split_indices":[4,0,5,0,5,0,0,0,0],"split_type":[0,0,0,0,0,0,0,0,0],"sum_hessian":[1.5555027E3,8.782049E1,1.4676823E3,8.080048E0,1.4596022E3,1.6932003E0,6.3868475E0,1.4528551E3,6.7471185E0],"tree_param":{"num_deleted":"0","num_feature":"7","num_nodes":"9","size_leaf_vector":"1"}},{"base_weights":[3.1580569E-3,-4.9852353E-2,6.0676698E-2,5.83234E-1,5.385036E-2,3.4924325E-2,-3.474863E-2,3.053368E-3,-1.5247618E-2],"categories":[],"categories_nodes":[],"categories_segments":[],"categories_sizes":[],"default_left":[0,0,0,0,0,0,0,0,0],"id":61,"left_children":[1,-1,3,5,7,-1,-1,-1,-1],"loss_changes":[8.9074005E1,0E0,5.1910677E0,3.2515845E0,3.7637072E0,0E0,0E0,0E0,0E0],"parents":[2147483647,0,0,2,2,3,3,4,4],"right_children":[2,-1,4,6,8,-1,-1,-1,-1],"split_conditions":[-2.7307964E-4,-4.9852353E-2,1.38E0,2.4132986E-1,3.21E0,3.4924325E-2,-3.474863E-2,3.053368E-3,-1.5247618E-2],"split_indices":[3,0,1,3,1,0,0,0,0],"split_type":[0,0,0,0,0,0,0,0,0],"sum_hessian":[1.5462421E3,8.319584E1,1.4630463E3,1.777697E1,1.4452693E3,1.6722673E1,1.0542965E0,1.4175856E3,2.7683681E1],"tree_param":{"num_deleted":"0","num_feature":"7","num_nodes":"9","size_leaf_vector":"1"}},{"base_weights":[-1.0072681E-3,-4.9799066E-2,5.3010494E-2,3.6606338E-2,2.749901E-1,2.0299738E-3,-4.097779E-2,2.3380367E-2,2.2704343E-3],"categories":[],"categories_nodes":[],"categories_segments":[],"categories_sizes":[],"default_left":[0,0,0,0,0,0,0,0,0],"id":62,"left_children":[1,-1,3,5,7,-1,-1,-1,-1],"loss_changes":[8.332033E1,0E0,5.3443794E0,4.7183876E0,4.4466014E0,0E0,0E0,0E0,0E0],"parents":[2147483647,0,0,2,2,3,3,4,4],"right_children":[2,-1,4,6,8,-1,-1,-1,-1],"split_conditions":[-2.7307964E-4,-4.9799066E-2,6.666667E-1,3.69E0,6.802235E-1,2.0299738E-3,-4.097779E-2,2.3380367E-2,2.2704343E-3],"split_indices":[3,0,5,1,0,0,0,0,0],"split_type":[0,0,0,0,0,0,0,0,0],"sum_hessian":[1.5482709E3,7.883014E1,1.4694408E3,1.3694073E3,1.0003345E2,1.3639982E3,5.4091077E0,5.3831993E1,4.6201454E1],"tree_param":{"num_deleted":"0","num_feature":"7","num_nodes":"9","size_leaf_vector":"1"}},{"base_weights":[1.0292152E-2,-4.974861E-2,6.249166E-2,5.1560086E-1,5.66926E-2,3.4238275E-2,5.3957584E-3,2.978131E-3,-4.156981E-2],"categories":[],"categories_nodes":[],"categories_segments":[],"categories_sizes":[],"default_left":[0,0,0,0,0,0,0,0,0],"id":63,"left_children":[1,-1,3,5,7,-1,-1,-1,-1],"loss_changes":[8.100104E1,0E0,3.8261223E0,1.1962886E0,3.7448955E0,0E0,0E0,0E0,0E0],"parents":[2147483647,0,0,2,2,3,3,4,4],"right_children":[2,-1,4,6,8,-1,-1,-1,-1],"split_conditions":[9.9942654E-1,-4.974861E-2,1.38E0,7.022603E-2,3.84E0,3.4238275E-2,5.3957584E-3,2.978131E-3,-4.156981E-2],"split_indices":[4,0,1,3,1,0,0,0,0],"split_type":[0,0,0,0,0,0,0,0,0],"sum_hessian":[1.5414474E3,7.519881E1,1.4662485E3,1.7417559E1,1.448831E3,1.1829428E1,5.5881314E0,1.4450939E3,3.7371492E0],"tree_param":{"num_deleted":"0","num_feature":"7","num_nodes":"9","size_leaf_vector":"1"}},{"base_weights":[3.132811E-3,-4.9699888E-2,5.2403316E-2,2.3975536E-2,2.0585355E-1,1.3396165E-3,-3.7860956E-2,4.0398568E-2,8.134801E-3],"categories":[],"categories_nodes":[],"categories_segments":[],"categories_sizes":[],"default_left":[0,0,0,0,0,0,0,0,0],"id":64,"left_children":[1,-1,3,5,7,-1,-1,-1,-1],"loss_changes":[7.615652E1,0E0,6.438458E0,2.765019E0,5.864481E0,0E0,0E0,0E0,0E0],"parents":[2147483647,0,0,2,2,3,3,4,4],"right_children":[2,-1,4,6,8,-1,-1,-1,-1],"split_conditions":[9.9942654E-1,-4.9699888E-2,6.5734243E-1,3.84E0,6.60889E-1,1.3396165E-3,-3.7860956E-2,4.0398568E-2,8.134801E-3],"split_indices":[4,0,0,1,0,0,0,0,0],"split_type":[0,0,0,0,0,0,0,0,0],"sum_hessian":[1.5480695E3,7.198907E1,1.4760804E3,1.2463425E3,2.2973785E2,1.2428269E3,3.5156186E0,1.4180157E1,2.155577E2],"tree_param":{"num_deleted":"0","num_feature":"7","num_nodes":"9","size_leaf_vector":"1"}},{"base_weights":[6.8952015E-4,-4.9644243E-2,4.7294777E-2,-9.456637E-2,7.247342E-2,1.08239995E-2,-6.9686323E-3,3.3511545E-3,4.1074388E-2],"categories":[],"categories_nodes":[],"categories_segments":[],"categories_sizes":[],"default_left":[0,0,0,0,0,0,0,0,0],"id":65,"left_children":[1,-1,3,5,7,-1,-1,-1,-1],"loss_changes":[7.172043E1,0E0,5.2911997E0,3.144153E0,5.0764756E0,0E0,0E0,0E0,0E0],"parents":[2147483647,0,0,2,2,3,3,4,4],"right_children":[2,-1,4,6,8,-1,-1,-1,-1],"split_conditions":[-2.7307964E-4,-4.9644243E-2,3.908046E-1,3.7529173E-1,7.5757575E-1,1.08239995E-2,-6.9686323E-3,3.3511545E-3,4.1074388E-2],"split_indices":[3,0,5,0,2,0,0,0,0],"split_type":[0,0,0,0,0,0,0,0,0],"sum_hessian":[1.5468296E3,6.839599E1,1.4784336E3,2.2243541E2,1.2559982E3,2.752496E1,1.9491045E2,1.2480063E3,7.991842E0],"tree_param":{"num_deleted":"0","num_feature":"7","num_nodes":"9","size_leaf_vector":"1"}},{"base_weights":[-9.821008E-3,-9.1007316E-1,3.8987454E-2,-4.9595978E-2,-4.2134106E-1,7.559444E-1,3.193458E-2,1.8352512E-2,-4.0861823E-2,4.528039E-2,-7.441103E-3,2.9186583E-3,-1.3499166E-3],"categories":[],"categories_nodes":[],"categories_segments":[],"categories_sizes":[],"default_left":[0,0,0,0,0,0,0,0,0,0,0,0,0],"id":66,"left_children":[1,3,5,-1,7,9,11,-1,-1,-1,-1,-1,-1],"loss_changes":[6.704627E1,2.7210083E0,7.295713E0,0E0,4.3559113E0,2.03829E0,2.2367141E0,0E0,0E0,0E0,0E0,0E0,0E0],"parents":[2147483647,0,0,1,1,2,2,4,4,5,5,6,6],"right_children":[2,4,6,-1,8,10,12,-1,-1,-1,-1,-1,-1],"split_conditions":[1.0012417E0,9.9942654E-1,1.36E0,-4.9595978E-2,1.74E0,1.8599877E-1,2.25E0,1.8352512E-2,-4.0861823E-2,4.528039E-2,-7.441103E-3,2.9186583E-3,-1.3499166E-3],"split_indices":[4,4,1,0,1,3,1,0,0,0,0,0,0],"split_type":[0,0,0,0,0,0,0,0,0,0,0,0,0],"sum_hessian":[1.5240548E3,7.747187E1,1.4465829E3,6.5477066E1,1.1994806E1,1.3057378E1,1.4335255E3,4.0341024E0,7.960704E0,1.1203245E1,1.8541323E0,9.895855E2,4.4394003E2],"tree_param":{"num_deleted":"0","num_feature":"7","num_nodes":"13","size_leaf_vector":"1"}},{"base_weights":[4.7779016E-4,-4.9544048E-2,4.3622147E-2,-3.2594702E-1,5.5498406E-2,-2.8801057E-2,-7.5972923E-3,4.6667657E-3,-1.879515E-3],"categories":[],"categories_nodes":[],"categories_segments":[],"categories_sizes":[],"default_left":[0,0,0,0,0,0,0,0,0],"id":67,"left_children":[1,-1,3,5,7,-1,-1,-1,-1],"loss_changes":[6.515021E1,0E0,6.424756E0,1.8963451E0,4.987705E0,0E0,0E0,0E0,0E0],"parents":[2147483647,0,0,2,2,3,3,4,4],"right_children":[2,-1,4,6,8,-1,-1,-1,-1],"split_conditions":[9.9942654E-1,-4.9544048E-2,2.75E-1,5.278907E-1,2.25E0,-2.8801057E-2,-7.5972923E-3,4.6667657E-3,-1.879515E-3],"split_indices":[4,0,5,0,1,0,0,0,0],"split_type":[0,0,0,0,0,0,0,0,0],"sum_hessian":[1.5212035E3,6.252626E1,1.4586772E3,4.4592365E1,1.4140848E3,1.7348577E1,2.7243786E1,1.0054188E3,4.0866602E2],"tree_param":{"num_deleted":"0","num_feature":"7","num_nodes":"9","size_leaf_vector":"1"}},{"base_weights":[-1.7594391E-2,-4.9491264E-2,2.2855988E-2,2.6217088E-2,-5.1034875E-2,1.6016E-4,7.1161673E-3],"categories":[],"categories_nodes":[],"categories_segments":[],"categories_sizes":[],"default_left":[0,0,0,0,0,0,0],"id":68,"left_children":[1,-1,3,5,-1,-1,-1],"loss_changes":[5.9754974E1,0E0,5.144771E0,3.88861E0,0E0,0E0,0E0],"parents":[2147483647,0,0,2,2,3,3],"right_children":[2,-1,4,6,-1,-1,-1],"split_conditions":[-2.7307964E-4,-4.9491264E-2,3.84E0,6.543066E-1,-5.1034875E-2,1.6016E-4,7.1161673E-3],"split_indices":[3,0,1,0,0,0,0],"split_type":[0,0,0,0,0,0,0],"sum_hessian":[1.5178594E3,5.969165E1,1.4581677E3,1.4544581E3,3.709673E0,1.2147126E3,2.3974548E2],"tree_param":{"num_deleted":"0","num_feature":"7","num_nodes":"7","size_leaf_vector":"1"}},{"base_weights":[1.8145332E-2,-4.9429476E-2,5.7563387E-2,-2.7935398E-1,7.0528165E-2,-8.329085E-3,-2.9535228E-2,-1.7598374E-2,3.9368793E-3],"categories":[],"categories_nodes":[],"categories_segments":[],"categories_sizes":[],"default_left":[0,0,0,0,0,0,0,0,0],"id":69,"left_children":[1,-1,3,5,7,-1,-1,-1,-1],"loss_changes":[6.0522545E1,0E0,6.428645E0,1.8176212E0,4.9309163E0,0E0,0E0,0E0,0E0],"parents":[2147483647,0,0,2,2,3,3,4,4],"right_children":[2,-1,4,6,8,-1,-1,-1,-1],"split_conditions":[-2.7307964E-4,-4.9429476E-2,2.8985506E-1,5.980834E-1,1.5699833E-3,-8.329085E-3,-2.9535228E-2,-1.7598374E-2,3.9368793E-3],"split_indices":[3,0,5,0,3,0,0,0,0],"split_type":[0,0,0,0,0,0,0,0,0],"sum_hessian":[1.522696E3,5.6466457E1,1.4662296E3,5.3569317E1,1.4126603E3,4.045236E1,1.3116959E1,2.6127779E1,1.3865325E3],"tree_param":{"num_deleted":"0","num_feature":"7","num_nodes":"9","size_leaf_vector":"1"}},{"base_weights":[7.3667765E-3,-8.862647E-1,4.8429653E-2,-4.936492E-2,-4.2795816E-1,6.0373917E-2,-2.7637023E-1,1.9965589E-2,-3.5086468E-2,8.234478E-3,1.2372773E-3,-5.7265628E-2,-6.8094665E-3],"categories":[],"categories_nodes":[],"categories_segments":[],"categories_sizes":[],"default_left":[0,0,0,0,0,0,0,0,0,0,0,0,0],"id":70,"left_children":[1,3,5,-1,7,9,11,-1,-1,-1,-1,-1,-1],"loss_changes":[5.6185493E1,2.692215E0,5.6951385E0,0E0,3.4318223E0,5.246034E0,6.189889E0,0E0,0E0,0E0,0E0,0E0,0E0],"parents":[2147483647,0,0,1,1,2,2,4,4,5,5,6,6],"right_children":[2,4,6,-1,8,10,12,-1,-1,-1,-1,-1,-1],"split_conditions":[1.0012417E0,9.9942654E-1,1E0,-4.936492E-2,1.56E0,1.0465066E0,1.7897755E-2,1.9965589E-2,-3.5086468E-2,8.234478E-3,1.2372773E-3,-5.7265628E-2,-6.8094665E-3],"split_indices":[4,4,6,0,1,4,3,0,0,0,0,0,0],"split_type":[0,0,0,0,0,0,0,0,0,0,0,0,0],"sum_hessian":[1.5289756E3,6.626651E1,1.462709E3,5.335104E1,1.2915471E1,1.4116122E3,5.1096836E1,3.0973806E0,9.81809E0,3.584604E2,1.0531519E3,6.101998E0,4.4994835E1],"tree_param":{"num_deleted":"0","num_feature":"7","num_nodes":"13","size_leaf_vector":"1"}},{"base_weights":[-8.0932705E-3,-4.931323E-2,2.703852E-2,-3.7156618E-1,4.0063687E-2,-3.26056E-2,-1.3628984E-2,1.80711E-3,4.4271015E-2],"categories":[],"categories_nodes":[],"categories_segments":[],"categories_sizes":[],"default_left":[0,0,0,0,0,0,0,0,0],"id":71,"left_children":[1,-1,3,5,7,-1,-1,-1,-1],"loss_changes":[5.1748055E1,0E0,7.5631495E0,1.102499E0,4.638096E0,0E0,0E0,0E0,0E0],"parents":[2147483647,0,0,2,2,3,3,4,4],"right_children":[2,-1,4,6,8,-1,-1,-1,-1],"split_conditions":[-2.7307964E-4,-4.931323E-2,2.75E-1,3.1803932E-2,8.378378E-1,-3.26056E-2,-1.3628984E-2,1.80711E-3,4.4271015E-2],"split_indices":[3,0,5,3,5,0,0,0,0],"split_type":[0,0,0,0,0,0,0,0,0],"sum_hessian":[1.504064E3,5.1208103E1,1.4528558E3,4.510155E1,1.4077543E3,1.030563E1,3.4795925E1,1.402292E3,5.462276E0],"tree_param":{"num_deleted":"0","num_feature":"7","num_nodes":"9","size_leaf_vector":"1"}},{"base_weights":[-1.6904574E-2,-4.9248654E-2,1.5854228E-2,8.4142335E-2,-3.3712532E-2,9.114414E-3,8.0538914E-4,-4.394603E-4,-9.07213E-3],"categories":[],"categories_nodes":[],"categories_segments":[],"categories_sizes":[],"default_left":[0,0,0,0,0,0,0,0,0],"id":72,"left_children":[1,-1,3,5,7,-1,-1,-1,-1],"loss_changes":[4.800921E1,0E0,4.9610314E0,4.1126766E0,3.126109E0,0E0,0E0,0E0,0E0],"parents":[2147483647,0,0,2,2,3,3,4,4],"right_children":[2,-1,4,6,8,-1,-1,-1,-1],"split_conditions":[9.9942654E-1,-4.9248654E-2,1.97E0,6.169E-1,5.9904706E-1,9.114414E-3,8.0538914E-4,-4.394603E-4,-9.07213E-3],"split_indices":[4,0,1,0,0,0,0,0,0],"split_type":[0,0,0,0,0,0,0,0,0],"sum_hessian":[1.5123842E3,4.855151E1,1.4638326E3,6.153574E2,8.484752E2,2.5124072E2,3.6411667E2,7.269004E2,1.2157483E2],"tree_param":{"num_deleted":"0","num_feature":"7","num_nodes":"9","size_leaf_vector":"1"}},{"base_weights":[2.5425744E-3,-4.9190134E-2,3.4577657E-2,8.4801847E-1,2.958459E-2,4.5625865E-2,8.578061E-3,1.8131941E-3,-1.7125506E-2],"categories":[],"categories_nodes":[],"categories_segments":[],"categories_sizes":[],"default_left":[0,0,0,0,0,0,0,0,0],"id":73,"left_children":[1,-1,3,5,7,-1,-1,-1,-1],"loss_changes":[4.760437E1,0E0,5.9011803E0,2.3025703E-1,3.6192412E0,0E0,0E0,0E0,0E0],"parents":[2147483647,0,0,2,2,3,3,4,4],"right_children":[2,-1,4,6,8,-1,-1,-1,-1],"split_conditions":[-2.7307964E-4,-4.9190134E-2,1.33E0,1.7830653E-1,1.6737192E0,4.5625865E-2,8.578061E-3,1.8131941E-3,-1.7125506E-2],"split_indices":[3,0,1,3,4,0,0,0,0],"split_type":[0,0,0,0,0,0,0,0,0],"sum_hessian":[1.5045028E3,4.6392395E1,1.4581104E3,7.8655276E0,1.4502449E3,6.86226E0,1.0032678E0,1.4255579E3,2.4686956E1],"tree_param":{"num_deleted":"0","num_feature":"7","num_nodes":"9","size_leaf_vector":"1"}},{"base_weights":[9.952691E-3,-4.9135577E-2,4.0711068E-2,1.781263E-1,2.145938E-2,3.5157833E-2,4.7600865E-3,1.6666703E-3,-1.214635E-2],"categories":[],"categories_nodes":[],"categories_segments":[],"categories_sizes":[],"default_left":[0,0,0,0,0,0,0,0,0],"id":74,"left_children":[1,-1,3,5,7,-1,-1,-1,-1],"loss_changes":[4.6278305E1,0E0,3.8845775E0,7.790786E0,4.058934E0,0E0,0E0,0E0,0E0],"parents":[2147483647,0,0,2,2,3,3,4,4],"right_children":[2,-1,4,6,8,-1,-1,-1,-1],"split_conditions":[9.9942654E-1,-4.9135577E-2,1.64E0,6.412008E-1,6.8563724E-1,3.5157833E-2,4.7600865E-3,1.6666703E-3,-1.214635E-2],"split_indices":[4,0,1,0,0,0,0,0,0],"split_type":[0,0,0,0,0,0,0,0,0],"sum_hessian":[1.5133842E3,4.4553726E1,1.4688304E3,1.7948009E2,1.2893503E3,2.3460749E1,1.5601933E2,1.2347688E3,5.458157E1],"tree_param":{"num_deleted":"0","num_feature":"7","num_nodes":"9","size_leaf_vector":"1"}},{"base_weights":[-1.5811987E-2,-4.906639E-2,1.2940587E-2,8.795944E-3,8.0108315E-1,-2.232375E-3,2.988355E-3,7.1168668E-3,4.4974618E-2],"categories":[],"categories_nodes":[],"categories_segments":[],"categories_sizes":[],"default_left":[0,0,0,0,0,0,0,0,0],"id":75,"left_children":[1,-1,3,5,7,-1,-1,-1,-1],"loss_changes":[4.1585247E1,0E0,4.746446E0,3.9487422E0,3.647399E-1,0E0,0E0,0E0,0E0],"parents":[2147483647,0,0,2,2,3,3,4,4],"right_children":[2,-1,4,6,8,-1,-1,-1,-1],"split_conditions":[9.9942654E-1,-4.906639E-2,8.378378E-1,5.7020795E-1,1.31E0,-2.232375E-3,2.988355E-3,7.1168668E-3,4.4974618E-2],"split_indices":[4,0,5,0,1,0,0,0,0],"split_type":[0,0,0,0,0,0,0,0,0],"sum_hessian":[1.4965127E3,4.231857E1,1.4541941E3,1.4475928E3,6.6013646E0,7.067192E2,7.408736E2,1.175957E0,5.4254074E0],"tree_param":{"num_deleted":"0","num_feature":"7","num_nodes":"9","size_leaf_vector":"1"}},{"base_weights":[2.1631145E-3,-8.883632E-1,3.4464154E-2,-4.8992783E-2,-5.1732624E-1,-7.1949846E-1,3.9165404E-2,-2.9347468E-2,-1.922622E-3,5.8489204E-3,-4.4863783E-2,-4.9487535E-2,2.1069462E-3],"categories":[],"categories_nodes":[],"categories_segments":[],"categories_sizes":[],"default_left":[0,0,0,0,0,0,0,0,0,0,0,0,0],"id":76,"left_children":[1,3,5,-1,7,9,11,-1,-1,-1,-1,-1,-1],"loss_changes":[4.31851E1,1.2769928E0,5.16318E0,0E0,3.94629E-1,1.4476075E0,4.449438E0,0E0,0E0,0E0,0E0,0E0,0E0],"parents":[2147483647,0,0,1,1,2,2,4,4,5,5,6,6],"right_children":[2,4,6,-1,8,10,12,-1,-1,-1,-1,-1,-1],"split_conditions":[6.9194526E-4,-2.7307964E-4,1.875E-1,-4.8992783E-2,6.377815E-1,4.4247788E-1,2.5641027E-1,-2.9347468E-2,-1.922622E-3,5.8489204E-3,-4.4863783E-2,-4.9487535E-2,2.1069462E-3],"split_indices":[3,3,5,0,0,2,2,0,0,0,0,0,0],"split_type":[0,0,0,0,0,0,0,0,0,0,0,0,0],"sum_hessian":[1.4992466E3,5.1549366E1,1.4476973E3,4.003616E1,1.1513208E1,8.0288315E0,1.4396685E3,9.854748E0,1.6584611E0,1.4672276E0,6.561604E0,3.192307E0,1.4364761E3],"tree_param":{"num_deleted":"0","num_feature":"7","num_nodes":"13","size_leaf_vector":"1"}},{"base_weights":[1.160619E-2,-2.441935E-1,2.1961788E-2,-3.845759E-1,-5.946711E-2,-1.17994785E-1,3.9017364E-2,-4.599247E-2,-1.6061125E-2,4.552759E-2,-1.273968E-2,-1.4624204E-2,3.302263E-3,2.0293973E-2,1.634432E-3],"categories":[],"categories_nodes":[],"categories_segments":[],"categories_sizes":[],"default_left":[0,0,0,0,0,0,0,0,0,0,0,0,0,0,0],"id":77,"left_children":[1,3,5,7,9,11,13,-1,-1,-1,-1,-1,-1,-1,-1],"loss_changes":[4.0090027E0,1.504241E0,3.4741986E0,8.330045E-1,5.27399E0,5.0975933E0,2.9966183E0,0E0,0E0,0E0,0E0,0E0,0E0,0E0,0E0],"parents":[2147483647,0,0,1,1,2,2,3,3,4,4,5,5,6,6],"right_children":[2,4,6,8,10,12,14,-1,-1,-1,-1,-1,-1,-1,-1],"split_conditions":[2.987013E-1,2.66E0,4.4243473E-1,1.77E0,2.79E0,2.64E0,4.4991857E-1,-4.599247E-2,-1.6061125E-2,4.552759E-2,-1.273968E-2,-1.4624204E-2,3.302263E-3,2.0293973E-2,1.634432E-3],"split_indices":[5,1,0,1,1,1,0,0,0,0,0,0,0,0,0],"split_type":[0,0,0,0,0,0,0,0,0,0,0,0,0,0,0],"sum_hessian":[1.5104015E3,5.788828E1,1.4525132E3,3.227733E1,2.561095E1,1.571376E2,1.2953756E3,1.9851817E0,3.0292145E1,3.6789708E0,2.193198E1,8.035931E1,7.67783E1,2.0896887E1,1.2744788E3],"tree_param":{"num_deleted":"0","num_feature":"7","num_nodes":"15","size_leaf_vector":"1"}},{"base_weights":[1.3504777E-2,-4.8915487E-2,3.9872155E-2,3.609217E-2,8.725327E-1,-2.7603278E-2,2.061162E-3,5.0449353E-2,3.9436757E-3],"categories":[],"categories_nodes":[],"categories_segments":[],"categories_sizes":[],"default_left":[0,0,0,0,0,0,0,0,0],"id":78,"left_children":[1,-1,3,5,7,-1,-1,-1,-1],"loss_changes":[3.9296738E1,0E0,4.574004E0,4.421854E0,6.318784E-1,0E0,0E0,0E0,0E0],"parents":[2147483647,0,0,2,2,3,3,4,4],"right_children":[2,-1,4,6,8,-1,-1,-1,-1],"split_conditions":[-2.7307964E-4,-4.8915487E-2,8.378378E-1,2.3809524E-1,7.751938E-1,-2.7603278E-2,2.061162E-3,5.0449353E-2,3.9436757E-3],"split_indices":[3,0,5,5,2,0,0,0,0],"split_type":[0,0,0,0,0,0,0,0,0],"sum_hessian":[1.5001628E3,3.791407E1,1.4622488E3,1.4566793E3,5.569465E0,1.1676244E1,1.445003E3,4.5208783E0,1.0485871E0],"tree_param":{"num_deleted":"0","num_feature":"7","num_nodes":"9","size_leaf_vector":"1"}},{"base_weights":[3.6390037E-3,-4.8852645E-2,2.8852934E-2,4.8985088E-1,2.2845756E-2,3.7163522E-2,8.763094E-3,-3.715301E-2,1.2868125E-3],"categories":[],"categories_nodes":[],"categories_segments":[],"categories_sizes":[],"default_left":[0,0,0,0,0,0,0,0,0],"id":79,"left_children":[1,-1,3,5,7,-1,-1,-1,-1],"loss_changes":[3.686527E1,0E0,4.0136347E0,1.3562579E0,3.197605E0,0E0,0E0,0E0,0E0],"parents":[2147483647,0,0,2,2,3,3,4,4],"right_children":[2,-1,4,6,8,-1,-1,-1,-1],"split_conditions":[-2.7307964E-4,-4.8852645E-2,1.38E0,4.2475723E-2,1.41E0,3.7163522E-2,8.763094E-3,-3.715301E-2,1.2868125E-3],"split_indices":[3,0,1,3,1,0,0,0,0],"split_type":[0,0,0,0,0,0,0,0,0],"sum_hessian":[1.4887455E3,3.637049E1,1.452375E3,1.7646124E1,1.4347289E3,9.0185175E0,8.627606E0,4.431475E0,1.4302975E3],"tree_param":{"num_deleted":"0","num_feature":"7","num_nodes":"9","size_leaf_vector":"1"}},{"base_weights":[-1.1641471E-2,-4.8778582E-2,1.1933393E-2,-1.190514E-2,1.3167667E-1,-1.08155764E-4,-1.9245036E-2,1.6595507E-2,-2.5145272E-3],"categories":[],"categories_nodes":[],"categories_segments":[],"categories_sizes":[],"default_left":[0,0,0,0,0,0,0,0,0],"id":80,"left_children":[1,-1,3,5,7,-1,-1,-1,-1],"loss_changes":[3.3931282E1,0E0,4.163431E0,4.420867E0,8.839682E0,0E0,0E0,0E0,0E0],"parents":[2147483647,0,0,2,2,3,3,4,4],"right_children":[2,-1,4,6,8,-1,-1,-1,-1],"split_conditions":[-2.7307964E-4,-4.8778582E-2,6.5263593E-1,6.461114E-1,6.898141E-1,-1.08155764E-4,-1.9245036E-2,1.6595507E-2,-2.5145272E-3],"split_indices":[3,0,0,0,0,0,0,0,0],"split_type":[0,0,0,0,0,0,0,0,0],"sum_hessian":[1.4916449E3,3.4646233E1,1.4569988E3,1.2158479E3,2.4115082E2,1.1858805E3,2.9967428E1,1.14420525E2,1.267303E2],"tree_param":{"num_deleted":"0","num_feature":"7","num_nodes":"9","size_leaf_vector":"1"}},{"base_weights":[-4.4272672E-3,-4.870004E-2,1.8093452E-2,4.0661525E-3,2.1750419E-1,2.6196683E-5,4.6522923E-2,2.114293E-2,4.9749453E-4],"categories":[],"categories_nodes":[],"categories_segments":[],"categories_sizes":[],"default_left":[0,0,0,0,0,0,0,0,0],"id":81,"left_children":[1,-1,3,5,7,-1,-1,-1,-1],"loss_changes":[3.2663815E1,0E0,4.0890055E0,4.485519E0,4.09067E0,0E0,0E0,0E0,0E0],"parents":[2147483647,0,0,2,2,3,3,4,4],"right_children":[2,-1,4,6,8,-1,-1,-1,-1],"split_conditions":[9.9942654E-1,-4.870004E-2,6.666667E-1,7.5757575E-1,4.4752527E-2,2.6196683E-5,4.6522923E-2,2.114293E-2,4.9749453E-4],"split_indices":[4,0,5,2,3,0,0,0,0],"split_type":[0,0,0,0,0,0,0,0,0],"sum_hessian":[1.4940975E3,3.2957222E1,1.4611403E3,1.3660664E3,9.507385E1,1.3618596E3,4.2067375E0,4.7268757E1,4.780509E1],"tree_param":{"num_deleted":"0","num_feature":"7","num_nodes":"9","size_leaf_vector":"1"}},{"base_weights":[-2.0719857E-3,-4.8609655E-2,1.9123537E-2,5.844122E-2,-5.0685737E-2,2.1385595E-3,3.0342037E-2,-3.007959E-3,3.253088E-2],"categories":[],"categories_nodes":[],"categories_segments":[],"categories_sizes":[],"default_left":[0,0,0,0,0,0,0,0,0],"id":82,"left_children":[1,-1,3,5,7,-1,-1,-1,-1],"loss_changes":[3.0934278E1,0E0,4.044185E0,8.071974E0,3.567067E0,0E0,0E0,0E0,0E0],"parents":[2147483647,0,0,2,2,3,3,4,4],"right_children":[2,-1,4,6,8,-1,-1,-1,-1],"split_conditions":[-2.7307964E-4,-4.8609655E-2,7.499639E-2,7.179379E-2,8E-1,2.1385595E-3,3.0342037E-2,-3.007959E-3,3.253088E-2],"split_indices":[3,0,3,3,5,0,0,0,0],"split_type":[0,0,0,0,0,0,0,0,0],"sum_hessian":[1.5025186E3,3.11663E1,1.4713523E3,9.413385E2,5.3001385E2,9.1623584E2,2.5102646E1,5.238517E2,6.1621466E0],"tree_param":{"num_deleted":"0","num_feature":"7","num_nodes":"9","size_leaf_vector":"1"}},{"base_weights":[-8.0420315E-4,-4.854265E-2,1.96368E-2,1.470896E-2,5.66799E-1,5.4176146E-4,3.7402403E-2,-1.300094E-2,3.3223093E-2],"categories":[],"categories_nodes":[],"categories_segments":[],"categories_sizes":[],"default_left":[0,0,0,0,0,0,0,0,0],"id":83,"left_children":[1,-1,3,5,7,-1,-1,-1,-1],"loss_changes":[2.9775816E1,0E0,3.9571407E0,4.1354127E0,1.230629E0,0E0,0E0,0E0,0E0],"parents":[2147483647,0,0,2,2,3,3,4,4],"right_children":[2,-1,4,6,8,-1,-1,-1,-1],"split_conditions":[-2.7307964E-4,-4.854265E-2,7.8571427E-1,7.5757575E-1,6.9450885E-3,5.4176146E-4,3.7402403E-2,-1.300094E-2,3.3223093E-2],"split_indices":[3,0,5,2,3,0,0,0,0],"split_type":[0,0,0,0,0,0,0,0,0],"sum_hessian":[1.4996855E3,2.9989878E1,1.4696957E3,1.4575952E3,1.2100481E1,1.4509457E3,6.649584E0,1.1026862E0,1.0997795E1],"tree_param":{"num_deleted":"0","num_feature":"7","num_nodes":"9","size_leaf_vector":"1"}},{"base_weights":[-2.393889E-2,-4.8454907E-2,-4.820689E-3,-4.1714844E-1,1.1173186E-3,-5.1064487E-3,-2.6000727E-2,-8.808713E-5,3.3685576E-2],"categories":[],"categories_nodes":[],"categories_segments":[],"categories_sizes":[],"default_left":[0,0,0,0,0,0,0,0,0],"id":84,"left_children":[1,-1,3,5,7,-1,-1,-1,-1],"loss_changes":[2.6908104E1,0E0,3.5772417E0,6.19035E-1,2.7918231E0,0E0,0E0,0E0,0E0],"parents":[2147483647,0,0,2,2,3,3,4,4],"right_children":[2,-1,4,6,8,-1,-1,-1,-1],"split_conditions":[-2.7307964E-4,-4.8454907E-2,2.5E-1,5.691544E-2,8.378378E-1,-5.1064487E-3,-2.6000727E-2,-8.808713E-5,3.3685576E-2],"split_indices":[3,0,5,3,5,0,0,0,0],"split_type":[0,0,0,0,0,0,0,0,0],"sum_hessian":[1.4883833E3,2.8524189E1,1.4598591E3,1.97421E1,1.4401171E3,5.3502383E0,1.4391861E1,1.4349719E3,5.1450634E0],"tree_param":{"num_deleted":"0","num_feature":"7","num_nodes":"9","size_leaf_vector":"1"}},{"base_weights":[2.2317665E-2,-4.8365492E-2,4.1273847E-2,3.734917E-2,4.9451865E-2,-1.4506209E-2,2.1993297E-3],"categories":[],"categories_nodes":[],"categories_segments":[],"categories_sizes":[],"default_left":[0,0,0,0,0,0,0],"id":85,"left_children":[1,-1,3,5,-1,-1,-1],"loss_changes":[2.8098442E1,0E0,5.4255433E0,3.1938453E0,0E0,0E0,0E0],"parents":[2147483647,0,0,2,2,3,3],"right_children":[2,-1,4,6,-1,-1,-1],"split_conditions":[9.9942654E-1,-4.8365492E-2,8.378378E-1,1.0030472E0,4.9451865E-2,-1.4506209E-2,2.1993297E-3],"split_indices":[4,0,5,4,0,0,0],"split_type":[0,0,0,0,0,0,0],"sum_hessian":[1.4946917E3,2.715223E1,1.4675394E3,1.4625225E3,5.016889E0,2.8205912E1,1.4343167E3],"tree_param":{"num_deleted":"0","num_feature":"7","num_nodes":"7","size_leaf_vector":"1"}},{"base_weights":[8.466056E-3,-4.8285257E-2,2.6425889E-2,-3.2824847E-1,3.305499E-2,-1.9973053E-2,-2.862215E-3,1.4736655E-2,9.3738345E-4],"categories":[],"categories_nodes":[],"categories_segments":[],"categories_sizes":[],"default_left":[0,0,0,0,0,0,0,0,0],"id":86,"left_children":[1,-1,3,5,7,-1,-1,-1,-1],"loss_changes":[2.6130236E1,0E0,3.4576845E0,4.979992E-1,5.3857756E0,0E0,0E0,0E0,0E0],"parents":[2147483647,0,0,2,2,3,3,4,4],"right_children":[2,-1,4,6,8,-1,-1,-1,-1],"split_conditions":[9.9942654E-1,-4.8285257E-2,1.0030472E0,6.427181E-1,5.9998236E-3,-1.9973053E-2,-2.862215E-3,1.4736655E-2,9.3738345E-4],"split_indices":[4,0,4,0,3,0,0,0,0],"split_type":[0,0,0,0,0,0,0,0,0],"sum_hessian":[1.4910431E3,2.603602E1,1.4650071E3,2.5989393E1,1.4390177E3,2.0205841E1,5.7835526E0,7.358381E1,1.3654338E3],"tree_param":{"num_deleted":"0","num_feature":"7","num_nodes":"9","size_leaf_vector":"1"}},{"base_weights":[-3.42494E-3,-4.819176E-2,1.351939E-2,4.9049735E-2,-4.934363E-2,1.5212507E-3,3.1111905E-2,-1.9331763E-3,-3.9333828E-2],"categories":[],"categories_nodes":[],"categories_segments":[],"categories_sizes":[],"default_left":[0,0,0,0,0,0,0,0,0],"id":87,"left_children":[1,-1,3,5,7,-1,-1,-1,-1],"loss_changes":[2.4238422E1,0E0,3.271922E0,9.970397E0,4.136062E0,0E0,0E0,0E0,0E0],"parents":[2147483647,0,0,2,2,3,3,4,4],"right_children":[2,-1,4,6,8,-1,-1,-1,-1],"split_conditions":[9.9942654E-1,-4.819176E-2,7.499639E-2,7.179379E-2,3.45E0,1.5212507E-3,3.1111905E-2,-1.9331763E-3,-3.9333828E-2],"split_indices":[4,0,3,3,1,0,0,0,0],"split_type":[0,0,0,0,0,0,0,0,0],"sum_hessian":[1.4876398E3,2.4822277E1,1.4628175E3,9.3472705E2,5.2809045E2,9.0633057E2,2.8396496E1,5.215878E2,6.5026484E0],"tree_param":{"num_deleted":"0","num_feature":"7","num_nodes":"9","size_leaf_vector":"1"}},{"base_weights":[-9.211611E-3,-4.808165E-2,6.765749E-3,4.952516E-2,4.3562143E-3,-3.822226E-3,1.1704215E-3],"categories":[],"categories_nodes":[],"categories_segments":[],"categories_sizes":[],"default_left":[0,0,0,0,0,0,0],"id":88,"left_children":[1,-1,3,-1,5,-1,-1],"loss_changes":[2.260483E1,0E0,3.460057E0,0E0,2.2477887E0,0E0,0E0],"parents":[2147483647,0,0,2,2,4,4],"right_children":[2,-1,4,-1,6,-1,-1],"split_conditions":[9.9942654E-1,-4.808165E-2,3.1139007E-1,4.952516E-2,4.751611E-1,-3.822226E-3,1.1704215E-3],"split_indices":[4,0,0,0,0,0,0],"split_type":[0,0,0,0,0,0,0],"sum_hessian":[1.4840533E3,2.3508497E1,1.4605449E3,2.5666957E0,1.4579781E3,2.7761145E2,1.1803667E3],"tree_param":{"num_deleted":"0","num_feature":"7","num_nodes":"7","size_leaf_vector":"1"}},{"base_weights":[-1.6454039E-3,-4.7982734E-2,1.3698562E-2,-2.095574E-1,3.2218225E-2,-1.1647758E-2,3.4374263E-2,1.4381568E-3,4.0375125E-2],"categories":[],"categories_nodes":[],"categories_segments":[],"categories_sizes":[],"default_left":[0,0,0,0,0,0,0,0,0],"id":89,"left_children":[1,-1,3,5,7,-1,-1,-1,-1],"loss_changes":[2.1857264E1,0E0,6.058143E0,2.5159779E0,3.5992746E0,0E0,0E0,0E0,0E0],"parents":[2147483647,0,0,2,2,3,3,4,4],"right_children":[2,-1,4,6,8,-1,-1,-1,-1],"split_conditions":[9.9942654E-1,-4.7982734E-2,3.2E-1,1E0,8.378378E-1,-1.1647758E-2,3.4374263E-2,1.4381568E-3,4.0375125E-2],"split_indices":[4,0,5,6,5,0,0,0,0],"split_type":[0,0,0,0,0,0,0,0,0],"sum_hessian":[1.4850287E3,2.2439869E1,1.4625887E3,1.1124204E2,1.3513467E3,1.0913574E2,2.1063042E0,1.3463835E3,4.963123E0],"tree_param":{"num_deleted":"0","num_feature":"7","num_nodes":"9","size_leaf_vector":"1"}},{"base_weights":[-1.01095885E-2,-4.7878157E-2,4.4166967E-3,-6.889027E-1,8.577761E-3,-1.0812054E-2,-3.6998488E-2,2.6753588E-4,4.005162E-2],"categories":[],"categories_nodes":[],"categories_segments":[],"categories_sizes":[],"default_left":[0,0,0,0,0,0,0,0,0],"id":90,"left_children":[1,-1,3,5,7,-1,-1,-1,-1],"loss_changes":[2.0427761E1,0E0,4.225242E0,5.088997E-2,3.7160447E0,0E0,0E0,0E0,0E0],"parents":[2147483647,0,0,2,2,3,3,4,4],"right_children":[2,-1,4,6,8,-1,-1,-1,-1],"split_conditions":[-2.7307964E-4,-4.7878157E-2,1.875E-1,1.0501862E0,8.378378E-1,-1.0812054E-2,-3.6998488E-2,2.6753588E-4,4.005162E-2],"split_indices":[3,0,5,4,5,0,0,0,0],"split_type":[0,0,0,0,0,0,0,0,0],"sum_hessian":[1.4829469E3,2.141279E1,1.461534E3,7.7375603E0,1.4537965E3,1.2648586E0,6.4727015E0,1.4489031E3,4.8934894E0],"tree_param":{"num_deleted":"0","num_feature":"7","num_nodes":"9","size_leaf_vector":"1"}},{"base_weights":[7.549607E-3,-4.7755633E-2,2.1573199E-2,-6.222261E-1,2.4981614E-2,-1.0243486E-2,-4.4500265E-2,2.26754E-3,-3.152379E-3],"categories":[],"categories_nodes":[],"categories_segments":[],"categories_sizes":[],"default_left":[0,0,0,0,0,0,0,0,0],"id":91,"left_children":[1,-1,3,5,7,-1,-1,-1,-1],"loss_changes":[2.0009916E1,0E0,3.220172E0,6.815207E-1,2.6094272E0,0E0,0E0,0E0,0E0],"parents":[2147483647,0,0,2,2,3,3,4,4],"right_children":[2,-1,4,6,8,-1,-1,-1,-1],"split_conditions":[-2.7307964E-4,-4.7755633E-2,1.875E-1,7.68579E-2,1.17584735E-1,-1.0243486E-2,-4.4500265E-2,2.26754E-3,-3.152379E-3],"split_indices":[3,0,5,3,3,0,0,0,0],"split_type":[0,0,0,0,0,0,0,0,0],"sum_hessian":[1.4796918E3,2.0282372E1,1.4594094E3,6.7296085E0,1.4526798E3,3.3200696E0,3.409539E0,1.1800999E3,2.7257993E2],"tree_param":{"num_deleted":"0","num_feature":"7","num_nodes":"9","size_leaf_vector":"1"}},{"base_weights":[1.3338814E-2,-4.7651973E-2,2.6873033E-2,2.9855885E-2,-8.2532376E-1,-3.084294E-2,1.6640021E-3,-5.668713E-3,-4.8570078E-2],"categories":[],"categories_nodes":[],"categories_segments":[],"categories_sizes":[],"default_left":[0,0,0,0,0,0,0,0,0],"id":92,"left_children":[1,-1,3,5,7,-1,-1,-1,-1],"loss_changes":[1.9341505E1,0E0,3.7293627E0,3.2387943E0,4.2217755E-1,0E0,0E0,0E0,0E0],"parents":[2147483647,0,0,2,2,3,3,4,4],"right_children":[2,-1,4,6,8,-1,-1,-1,-1],"split_conditions":[9.9942654E-1,-4.7651973E-2,3.84E0,1.875E-1,1.3996111E0,-3.084294E-2,1.6640021E-3,-5.668713E-3,-4.8570078E-2],"split_indices":[4,0,1,5,4,0,0,0,0],"split_type":[0,0,0,0,0,0,0,0,0],"sum_hessian":[1.4758434E3,1.9425085E1,1.4564183E3,1.4522999E3,4.11836E0,6.705446E0,1.4455945E3,1.0035263E0,3.1148338E0],"tree_param":{"num_deleted":"0","num_feature":"7","num_nodes":"9","size_leaf_vector":"1"}},{"base_weights":[2.5811342E-3,-4.751481E-2,1.5415162E-2,1.7928267E-1,4.93763E-3,1.742037E-2,-1.4186771E-4,4.2186566E-2,1.4199433E-4],"categories":[],"categories_nodes":[],"categories_segments":[],"categories_sizes":[],"default_left":[0,0,0,0,0,0,0,0,0],"id":93,"left_children":[1,-1,3,5,7,-1,-1,-1,-1],"loss_changes":[1.784048E1,0E0,2.4702034E0,2.6642172E0,2.3796892E0,0E0,0E0,0E0,0E0],"parents":[2147483647,0,0,2,2,3,3,4,4],"right_children":[2,-1,4,6,8,-1,-1,-1,-1],"split_conditions":[-2.7307964E-4,-4.751481E-2,1.56E0,7.151122E-1,3.0618954E-1,1.742037E-2,-1.4186771E-4,4.2186566E-2,1.4199433E-4],"split_indices":[3,0,1,0,0,0,0,0,0],"split_type":[0,0,0,0,0,0,0,0,0],"sum_hessian":[1.4566384E3,1.838756E1,1.4382509E3,8.546566E1,1.3527852E3,4.384043E1,4.1625233E1,2.3738654E0,1.3504113E3],"tree_param":{"num_deleted":"0","num_feature":"7","num_nodes":"9","size_leaf_vector":"1"}},{"base_weights":[-5.198625E-3,-6.3675445E-1,1.4979289E-2,-4.741822E-2,-4.0614274E-1,4.2195848E-1,1.0175637E-2,-2.5151113E-2,-4.8392723E-4,3.019243E-2,-2.4574844E-2,-7.6204604E-5,6.7663337E-3],"categories":[],"categories_nodes":[],"categories_segments":[],"categories_sizes":[],"default_left":[0,0,0,0,0,0,0,0,0,0,0,0,0],"id":94,"left_children":[1,3,5,-1,7,9,11,-1,-1,-1,-1,-1,-1],"loss_changes":[1.8832417E1,2.9027023E0,2.7958457E0,0E0,1.0722442E0,3.0687878E0,2.0744722E0,0E0,0E0,0E0,0E0,0E0,0E0],"parents":[2147483647,0,0,1,1,2,2,4,4,5,5,6,6],"right_children":[2,4,6,-1,8,10,12,-1,-1,-1,-1,-1,-1],"split_conditions":[1.0030472E0,9.9942654E-1,1.38E0,-4.741822E-2,6.427181E-1,1.2368017E0,2.67E0,-2.5151113E-2,-4.8392723E-4,3.019243E-2,-2.4574844E-2,-7.6204604E-5,6.7663337E-3],"split_indices":[4,4,1,0,0,4,1,0,0,0,0,0,0],"split_type":[0,0,0,0,0,0,0,0,0,0,0,0,0],"sum_hessian":[1.4760598E3,4.4753296E1,1.4313065E3,1.7710247E1,2.7043047E1,1.5683858E1,1.4156227E3,2.1516523E1,5.526523E0,1.3362096E1,2.3217628E0,1.2955007E3,1.201219E2],"tree_param":{"num_deleted":"0","num_feature":"7","num_nodes":"13","size_leaf_vector":"1"}},{"base_weights":[-1.1320622E-2,-4.72916E-2,1.5245439E-4,-1.3966452E-2,1.7941551E-1,-4.4042524E-4,-2.3957208E-2,1.6456163E-2,7.4516726E-4],"categories":[],"categories_nodes":[],"categories_segments":[],"categories_sizes":[],"default_left":[0,0,0,0,0,0,0,0,0],"id":95,"left_children":[1,-1,3,5,7,-1,-1,-1,-1],"loss_changes":[1.5824079E1,0E0,3.6951737E0,3.2430377E0,2.620342E0,0E0,0E0,0E0,0E0],"parents":[2147483647,0,0,2,2,3,3,4,4],"right_children":[2,-1,4,6,8,-1,-1,-1,-1],"split_conditions":[-2.7307964E-4,-4.72916E-2,6.5625E-1,3.1264144E-1,4.862428E-2,-4.4042524E-4,-2.3957208E-2,1.6456163E-2,7.4516726E-4],"split_indices":[3,0,5,3,3,0,0,0,0],"split_type":[0,0,0,0,0,0,0,0,0],"sum_hessian":[1.4748765E3,1.6899868E1,1.4579767E3,1.3523839E3,1.0559278E2,1.3385607E3,1.382319E1,5.476001E1,5.083277E1],"tree_param":{"num_deleted":"0","num_feature":"7","num_nodes":"9","size_leaf_vector":"1"}},{"base_weights":[-1.1144186E-2,-1.2941849E-1,2.3985097E-2,-7.515567E-1,-1.1416384E-1,1.9929549E-2,3.820166E-2,-4.8516214E-2,4.545163E-3,-6.5387883E-3,1.3368863E-2,-1.8003777E-3,3.115112E-3],"categories":[],"categories_nodes":[],"categories_segments":[],"categories_sizes":[],"default_left":[0,0,0,0,0,0,0,0,0,0,0,0,0],"id":96,"left_children":[1,3,5,7,9,11,-1,-1,-1,-1,-1,-1,-1],"loss_changes":[6.140862E0,3.126186E0,3.4056377E0,1.5480304E0,2.1361928E0,2.6914997E0,0E0,0E0,0E0,0E0,0E0,0E0,0E0],"parents":[2147483647,0,0,1,1,2,2,3,3,4,4,5,5],"right_children":[2,4,6,8,10,12,-1,-1,-1,-1,-1,-1,-1],"split_conditions":[4.1666666E-1,1.875E-1,8.378378E-1,2.27E0,6.60889E-1,5.7020795E-1,3.820166E-2,-4.8516214E-2,4.545163E-3,-6.5387883E-3,1.3368863E-2,-1.8003777E-3,3.115112E-3],"split_indices":[5,5,5,1,0,0,0,0,0,0,0,0,0],"split_type":[0,0,0,0,0,0,0,0,0,0,0,0,0],"sum_hessian":[1.4762366E3,3.3744217E2,1.1387943E3,6.92079E0,3.3052136E2,1.133609E3,5.1853747E0,5.3736115E0,1.5471786E0,3.1736102E2,1.3160348E1,4.886637E2,6.449453E2],"tree_param":{"num_deleted":"0","num_feature":"7","num_nodes":"13","size_leaf_vector":"1"}},{"base_weights":[-1.7735807E-2,-6.4271617E-1,7.8515406E-4,-4.7155347E-2,-4.267233E-1,3.9588678E-1,-7.8097857E-3,-3.359094E-2,-4.7782054E-3,-4.1242946E-2,2.4327507E-2,-6.111359E-4,2.6669785E-2],"categories":[],"categories_nodes":[],"categories_segments":[],"categories_sizes":[],"default_left":[0,0,0,0,0,0,0,0,0,0,0,0,0],"id":97,"left_children":[1,3,5,-1,7,9,11,-1,-1,-1,-1,-1,-1],"loss_changes":[1.7221294E1,2.3758316E0,4.913209E0,0E0,2.105826E0,3.8105774E0,3.3886025E0,0E0,0E0,0E0,0E0,0E0,0E0],"parents":[2147483647,0,0,1,1,2,2,4,4,5,5,6,6],"right_children":[2,4,6,-1,8,10,12,-1,-1,-1,-1,-1,-1],"split_conditions":[1.0030472E0,9.9942654E-1,3.309129E-3,-4.7155347E-2,1.95E0,3.2786885E-1,7.8571427E-1,-3.359094E-2,-4.7782054E-3,-4.1242946E-2,2.4327507E-2,-6.111359E-4,2.6669785E-2],"split_indices":[4,4,3,0,1,5,5,0,0,0,0,0,0],"split_type":[0,0,0,0,0,0,0,0,0,0,0,0,0],"sum_hessian":[1.4867268E3,4.1820297E1,1.4449065E3,1.6084497E1,2.57358E1,2.9803555E1,1.4151029E3,1.4198561E1,1.1537238E1,1.5005955E0,2.830296E1,1.4046272E3,1.0475764E1],"tree_param":{"num_deleted":"0","num_feature":"7","num_nodes":"13","size_leaf_vector":"1"}},{"base_weights":[-5.838376E-4,-4.6982884E-2,9.870209E-3,2.3028994E-2,-1.2425451E-1,2.2073412E-4,8.716034E-3,1.3042042E-3,-1.3858934E-2],"categories":[],"categories_nodes":[],"categories_segments":[],"categories_sizes":[],"default_left":[0,0,0,0,0,0,0,0,0],"id":98,"left_children":[1,-1,3,5,7,-1,-1,-1,-1],"loss_changes":[1.4404957E1,0E0,2.5641646E0,3.7234068E0,2.991706E0,0E0,0E0,0E0,0E0],"parents":[2147483647,0,0,2,2,3,3,4,4],"right_children":[2,-1,4,6,8,-1,-1,-1,-1],"split_conditions":[9.9942654E-1,-4.6982884E-2,6.898141E-1,6.1290324E-1,1.58E0,2.2073412E-4,8.716034E-3,1.3042042E-3,-1.3858934E-2],"split_indices":[4,0,0,5,1,0,0,0,0],"split_type":[0,0,0,0,0,0,0,0,0],"sum_hessian":[1.4653853E3,1.51549015E1,1.4502303E3,1.3214164E3,1.2881398E2,1.177563E3,1.438534E2,6.537437E1,6.3439617E1],"tree_param":{"num_deleted":"0","num_feature":"7","num_nodes":"9","size_leaf_vector":"1"}},{"base_weights":[9.57771E-3,-4.6901267E-2,1.9772485E-2,2.2382712E-2,-7.864952E-1,5.065694E-3,-1.05440886E-4,-8.910839E-3,-4.6375882E-2],"categories":[],"categories_nodes":[],"categories_segments":[],"categories_sizes":[],"default_left":[0,0,0,0,0,0,0,0,0],"id":99,"left_children":[1,-1,3,5,7,-1,-1,-1,-1],"loss_changes":[1.4302267E1,0E0,3.0982246E0,2.822692E0,2.4227214E-1,0E0,0E0,0E0,0E0],"parents":[2147483647,0,0,2,2,3,3,4,4],"right_children":[2,-1,4,6,8,-1,-1,-1,-1],"split_conditions":[9.9942654E-1,-4.6901267E-2,3.84E0,1.0431746E0,1.4249018E0,5.065694E-3,-1.05440886E-4,-8.910839E-3,-4.6375882E-2],"split_indices":[4,0,1,4,4,0,0,0,0],"split_type":[0,0,0,0,0,0,0,0,0],"sum_hessian":[1.4775544E3,1.4758336E1,1.462796E3,1.4590448E3,3.7513027E0,3.4477362E2,1.1142711E3,1.1320648E0,2.619238E0],"tree_param":{"num_deleted":"0","num_feature":"7","num_nodes":"9","size_leaf_vector":"1"}},{"base_weights":[7.3363553E-3,-4.6723414E-2,1.6925158E-2,-3.8755774E-2,7.18825E-2,-1.6384292E-3,-3.9677154E-2,3.0163943E-3,3.382072E-2],"categories":[],"categories_nodes":[],"categories_segments":[],"categories_sizes":[],"default_left":[0,0,0,0,0,0,0,0,0],"id":100,"left_children":[1,-1,3,5,7,-1,-1,-1,-1],"loss_changes":[1.3384778E1,0E0,4.4902024E0,3.2687225E0,5.1167746E0,0E0,0E0,0E0,0E0],"parents":[2147483647,0,0,2,2,3,3,4,4],"right_children":[2,-1,4,6,8,-1,-1,-1,-1],"split_conditions":[9.9942654E-1,-4.6723414E-2,4.8623854E-1,4.857143E-1,2.74E0,-1.6384292E-3,-3.9677154E-2,3.0163943E-3,3.382072E-2],"split_indices":[4,0,5,5,1,0,0,0,0],"split_type":[0,0,0,0,0,0,0,0,0],"sum_hessian":[1.4793777E3,1.3938063E1,1.4654396E3,7.2807416E2,7.373655E2,7.233795E2,4.694639E0,7.246155E2,1.2750018E1],"tree_param":{"num_deleted":"0","num_feature":"7","num_nodes":"9","size_leaf_vector":"1"}},{"base_weights":[4.1103256E-3,-4.6530634E-2,1.3080427E-2,-2.7151307E-1,1.8495383E-2,-2.169062E-2,-9.3796104E-4,2.9478101E-2,8.0307585E-4],"categories":[],"categories_nodes":[],"categories_segments":[],"categories_sizes":[],"default_left":[0,0,0,0,0,0,0,0,0],"id":101,"left_children":[1,-1,3,5,7,-1,-1,-1,-1],"loss_changes":[1.2470276E1,0E0,2.2745445E0,1.1224895E0,2.0005193E0,0E0,0E0,0E0,0E0],"parents":[2147483647,0,0,2,2,3,3,4,4],"right_children":[2,-1,4,6,8,-1,-1,-1,-1],"split_conditions":[-2.7307964E-4,-4.6530634E-2,1.0030472E0,1.95E0,1.28E0,-2.169062E-2,-9.3796104E-4,2.9478101E-2,8.0307585E-4],"split_indices":[3,0,4,1,1,0,0,0,0],"split_type":[0,0,0,0,0,0,0,0,0],"sum_hessian":[1.4848384E3,1.3137224E1,1.4717012E3,2.6561636E1,1.4451395E3,1.5738939E1,1.0822697E1,5.109233E0,1.4400303E3],"tree_param":{"num_deleted":"0","num_feature":"7","num_nodes":"9","size_leaf_vector":"1"}},{"base_weights":[1.8826287E-3,-4.6399795E-2,1.0536504E-2,-1.8549142E-2,1.2476253E-1,6.896832E-4,-7.863034E-3,-1.03970915E-2,7.6924125E-3],"categories":[],"categories_nodes":[],"categories_segments":[],"categories_sizes":[],"default_left":[0,0,0,0,0,0,0,0,0],"id":102,"left_children":[1,-1,3,5,7,-1,-1,-1,-1],"loss_changes":[1.1908244E1,0E0,4.872751E0,5.2480855E0,2.912362E0,0E0,0E0,0E0,0E0],"parents":[2147483647,0,0,2,2,3,3,4,4],"right_children":[2,-1,4,6,8,-1,-1,-1,-1],"split_conditions":[-2.7307964E-4,-4.6399795E-2,5.915493E-1,6.205914E-1,6.9450885E-3,6.896832E-4,-7.863034E-3,-1.03970915E-2,7.6924125E-3],"split_indices":[3,0,5,0,3,0,0,0,0],"split_type":[0,0,0,0,0,0,0,0,0],"sum_hessian":[1.4776117E3,1.2644981E1,1.4649667E3,1.1683137E3,2.9665292E2,9.481403E2,2.2017348E2,2.3354721E1,2.7329822E2],"tree_param":{"num_deleted":"0","num_feature":"7","num_nodes":"9","size_leaf_vector":"1"}},{"base_weights":[7.752888E-4,-4.6252917E-2,9.142017E-3,5.239564E-2,6.9376216E-3,-1.3088702E-2,6.116833E-4],"categories":[],"categories_nodes":[],"categories_segments":[],"categories_sizes":[],"default_left":[0,0,0,0,0,0,0],"id":103,"left_children":[1,-1,3,-1,5,-1,-1],"loss_changes":[1.1356402E1,0E0,3.3195314E0,0E0,2.0678055E0,0E0,0E0],"parents":[2147483647,0,0,2,2,4,4],"right_children":[2,-1,4,-1,6,-1,-1],"split_conditions":[9.9942654E-1,-4.6252917E-2,3.0618954E-1,5.239564E-2,1.0030472E0,-1.3088702E-2,6.116833E-4],"split_indices":[4,0,0,0,4,0,0],"split_type":[0,0,0,0,0,0,0],"sum_hessian":[1.4639696E3,1.21301E1,1.4518395E3,2.0699053E0,1.4497695E3,2.7085247E1,1.4226843E3],"tree_param":{"num_deleted":"0","num_feature":"7","num_nodes":"7","size_leaf_vector":"1"}},{"base_weights":[-5.307663E-3,-6.9044197E-1,5.9112865E-3,-8.820929E-1,-2.7433866E-1,1.6324198E-3,7.820845E-1,-5.1304486E-2,-2.6644444E-2,4.662372E-2,-4.0372636E-2,2.0528048E-4,-3.8127284E-2,4.9165435E-2,4.7935615E-3],"categories":[],"categories_nodes":[],"categories_segments":[],"categories_sizes":[],"default_left":[0,0,0,0,0,0,0,0,0,0,0,0,0,0,0],"id":104,"left_children":[1,3,5,7,9,11,13,-1,-1,-1,-1,-1,-1,-1,-1],"loss_changes":[1.1238131E1,1.6364574E0,4.7777705E0,2.4145794E-1,6.465642E0,2.7097194E0,9.948096E-1,0E0,0E0,0E0,0E0,0E0,0E0,0E0,0E0],"parents":[2147483647,0,0,1,1,2,2,3,3,4,4,5,5,6,6],"right_children":[2,4,6,8,10,12,14,-1,-1,-1,-1,-1,-1,-1,-1],"split_conditions":[1.0012417E0,5.7752275E-1,8E-1,2.11E0,5.496183E-1,3.84E0,1.2893814E0,-5.1304486E-2,-2.6644444E-2,4.662372E-2,-4.0372636E-2,2.0528048E-4,-3.8127284E-2,4.9165435E-2,4.7935615E-3],"split_indices":[4,0,5,1,5,1,4,0,0,0,0,0,0,0,0],"split_type":[0,0,0,0,0,0,0,0,0,0,0,0,0,0,0],"sum_hessian":[1.4605322E3,2.255524E1,1.437977E3,1.4675866E1,7.8793736E0,1.4310898E3,6.8871694E0,9.01861E0,5.657256E0,2.1847146E0,5.694659E0,1.4274646E3,3.6252263E0,4.990743E0,1.8964264E0],"tree_param":{"num_deleted":"0","num_feature":"7","num_nodes":"15","size_leaf_vector":"1"}},{"base_weights":[-1.5320937E-2,-6.840137E-1,-4.2853868E-3,-4.5966063E-2,-4.0652084E-1,5.3481143E-2,-4.2552557E-2,-2.8675083E-2,-3.8980816E-3,8.1096834E-4,1.4153219E-2,-1.1266477E-2,-8.832767E-4],"categories":[],"categories_nodes":[],"categories_segments":[],"categories_sizes":[],"default_left":[0,0,0,0,0,0,0,0,0,0,0,0,0],"id":105,"left_children":[1,3,5,-1,7,9,11,-1,-1,-1,-1,-1,-1],"loss_changes":[1.0934832E1,1.1971464E0,3.2278078E0,0E0,6.592927E-1,4.9731913E0,3.9910612E0,0E0,0E0,0E0,0E0,0E0,0E0],"parents":[2147483647,0,0,1,1,2,2,4,4,5,5,6,6],"right_children":[2,4,6,-1,8,10,12,-1,-1,-1,-1,-1,-1],"split_conditions":[1.0012417E0,9.9942654E-1,1.0802544E0,-4.5966063E-2,5.755701E-1,6.2857145E-1,1.0978589E0,-2.8675083E-2,-3.8980816E-3,8.1096834E-4,1.4153219E-2,-1.1266477E-2,-8.832767E-4],"split_indices":[4,4,4,0,0,5,4,0,0,0,0,0,0],"split_type":[0,0,0,0,0,0,0,0,0,0,0,0,0],"sum_hessian":[1.4812036E3,2.305762E1,1.458146E3,1.122561E1,1.183201E1,5.808785E2,8.772675E2,7.3507147E0,4.481295E0,5.0068674E2,8.019173E1,1.0416892E2,7.730986E2],"tree_param":{"num_deleted":"0","num_feature":"7","num_nodes":"13",