{"learner":{"attributes":{"scikit_learn":"{\"_estimator_type\": \"classifier\"}"},"feature_names":["ModelProb","Over25Odds","Value_Delta","Odds_Bracket","TournamentId","TournamentStageId"],"feature_types":["float","float","float","int","float","float"],"gradient_booster":{"model":{"cats":{"enc":[],"feature_segments":[],"sorted_idx":[]},"gbtree_model_param":{"num_parallel_tree":"1","num_trees":"100"},"iteration_indptr":[0,1,2,3,4,5,6,7,8,9,10,11,12,13,14,15,16,17,18,19,20,21,22,23,24,25,26,27,28,29,30,31,32,33,34,35,36,37,38,39,40,41,42,43,44,45,46,47,48,49,50,51,52,53,54,55,56,57,58,59,60,61,62,63,64,65,66,67,68,69,70,71,72,73,74,75,76,77,78,79,80,81,82,83,84,85,86,87,88,89,90,91,92,93,94,95,96,97,98,99,100],"tree_info":[0,0,0,0,0,0,0,0,0,0,0,0,0,0,0,0,0,0,0,0,0,0,0,0,0,0,0,0,0,0,0,0,0,0,0,0,0,0,0,0,0,0,0,0,0,0,0,0,0,0,0,0,0,0,0,0,0,0,0,0,0,0,0,0,0,0,0,0,0,0,0,0,0,0,0,0,0,0,0,0,0,0,0,0,0,0,0,0,0,0,0,0,0,0,0,0,0,0,0,0],"trees":[{"base_weights":[1.7843005E-8,5.564766E-1,-2.8856146E-1,1.2258197E0,4.7921172E-1,-1.6110042E-1,-6.580892E-1,5.412302E-1,1.2957921E0,6.1589074E-1,3.3270645E-1,-4.0804088E-2,-2.9310548E-1,-6.115746E-1,-8.959171E-1,3.6196545E-2,-2.3426693E-2,6.646657E-2,4.184287E-2,2.841208E-2,4.3069117E-2,1.7635075E-2,-1.159563E-2,-2.7536536E-3,8.593054E-3,-1.8650843E-2,-1.1147727E-2,-2.3143547E-2,-3.2806225E-2,1.9697526E-2,-4.570731E-2],"categories":[],"categories_nodes":[],"categories_segments":[],"categories_sizes":[],"default_left":[0,0,0,0,0,0,0,0,0,0,0,0,0,0,0,0,0,0,0,0,0,0,0,0,0,0,0,0,0,0,0],"id":0,"left_children":[1,3,5,7,9,11,13,15,17,19,21,23,25,27,29,-1,-1,-1,-1,-1,-1,-1,-1,-1,-1,-1,-1,-1,-1,-1,-1],"loss_changes":[7.640093E2,8.34371E1,1.474675E2,7.322159E0,2.8994629E1,3.7002735E1,8.337799E0,3.521469E0,1.2155609E0,8.321411E0,8.052048E0,3.7137554E0,6.146187E0,4.167862E0,3.3991165E0,0E0,0E0,0E0,0E0,0E0,0E0,0E0,0E0,0E0,0E0,0E0,0E0,0E0,0E0,0E0,0E0],"parents":[2147483647,0,0,1,1,2,2,3,3,4,4,5,5,6,6,7,7,8,8,9,9,10,10,11,11,12,12,13,13,14,14],"right_children":[2,4,6,8,10,12,14,16,18,20,22,24,26,28,30,-1,-1,-1,-1,-1,-1,-1,-1,-1,-1,-1,-1,-1,-1,-1,-1],"split_conditions":[1.69E0,1.28E0,2.34E0,5.787239E-1,1.53E0,2E0,2.97E0,5.725366E-1,1.27E0,6.938822E-1,9.274391E-2,6.54455E-1,4.634565E-1,2.41E0,-1.0238289E-1,3.6196545E-2,-2.3426693E-2,6.646657E-2,4.184287E-2,2.841208E-2,4.3069117E-2,1.7635075E-2,-1.159563E-2,-2.7536536E-3,8.593054E-3,-1.8650843E-2,-1.1147727E-2,-2.3143547E-2,-3.2806225E-2,1.9697526E-2,-4.570731E-2],"split_indices":[1,1,1,0,1,1,1,0,1,0,2,0,0,1,2,0,0,0,0,0,0,0,0,0,0,0,0,0,0,0,0],"split_type":[0,0,0,0,0,0,0,0,0,0,0,0,0,0,0,0,0,0,0,0,0,0,0,0,0,0,0,0,0,0,0],"sum_hessian":[4.755879E3,1.6237086E3,3.1321702E3,1.6649576E2,1.4572129E3,2.3299407E3,8.0222955E2,1.6249586E1,1.5024617E2,7.5223083E2,7.0498206E2,1.219719E3,1.1102218E3,6.7398285E2,1.2824673E2,1.3999643E1,2.2499428E0,1.3824648E2,1.1999695E1,6.327339E2,1.19496956E2,6.8123267E2,2.3749395E1,1.143721E3,7.599806E1,5.169868E2,5.932349E2,1.5799597E2,5.159869E2,1.4999619E0,1.2674677E2],"tree_param":{"num_deleted":"0","num_feature":"6","num_nodes":"31","size_leaf_vector":"1"}},{"base_weights":[2.152951E-5,5.28985E-1,-2.7417302E-1,1.1667718E0,4.554364E-1,-1.2535563E-1,-5.608399E-1,5.1512945E-1,1.2334372E0,5.8542925E-1,3.1613144E-1,-3.875888E-2,-2.5045818E-1,-3.9414942E-1,-6.7010146E-1,3.452415E-2,-2.2616064E-2,6.325921E-2,3.993606E-2,2.7212894E-2,4.2225834E-2,1.6757464E-2,-1.1039001E-2,-2.6160642E-3,8.169491E-3,-2.9252348E-2,-1.1555173E-2,-1.26594E-2,-2.1711065E-2,-3.2874983E-2,-7.558702E-2],"categories":[],"categories_nodes":[],"categories_segments":[],"categories_sizes":[],"default_left":[0,0,0,0,0,0,0,0,0,0,0,0,0,0,0,0,0,0,0,0,0,0,0,0,0,0,0,0,0,0,0],"id":1,"left_children":[1,3,5,7,9,11,13,15,17,19,21,23,25,27,29,-1,-1,-1,-1,-1,-1,-1,-1,-1,-1,-1,-1,-1,-1,-1,-1],"loss_changes":[6.899772E2,7.565161E1,1.335911E2,6.6316833E0,2.6213684E1,2.234756E1,1.9230682E1,3.2374234E0,1.0739441E0,7.571869E0,7.2815323E0,3.3553228E0,5.330387E0,2.2977142E0,5.8485413E0,0E0,0E0,0E0,0E0,0E0,0E0,0E0,0E0,0E0,0E0,0E0,0E0,0E0,0E0,0E0,0E0],"parents":[2147483647,0,0,1,1,2,2,3,3,4,4,5,5,6,6,7,7,8,8,9,9,10,10,11,11,12,12,13,13,14,14],"right_children":[2,4,6,8,10,12,14,16,18,20,22,24,26,28,30,-1,-1,-1,-1,-1,-1,-1,-1,-1,-1,-1,-1,-1,-1,-1,-1],"split_conditions":[1.69E0,1.28E0,2.23E0,5.787239E-1,1.53E0,2E0,2.41E0,5.725366E-1,1.27E0,7.01463E-1,9.274391E-2,6.54455E-1,-1.22319534E-1,3.7689096E-1,3.84E0,3.452415E-2,-2.2616064E-2,6.325921E-2,3.993606E-2,2.7212894E-2,4.2225834E-2,1.6757464E-2,-1.1039001E-2,-2.6160642E-3,8.169491E-3,-2.9252348E-2,-1.1555173E-2,-1.26594E-2,-2.1711065E-2,-3.2874983E-2,-7.558702E-2],"split_indices":[1,1,1,0,1,1,1,0,1,0,2,0,2,0,1,0,0,0,0,0,0,0,0,0,0,0,0,0,0,0,0],"split_type":[0,0,0,0,0,0,0,0,0,0,0,0,0,0,0,0,0,0,0,0,0,0,0,0,0,0,0,0,0,0,0],"sum_hessian":[4.7551865E3,1.6230822E3,3.1321047E3,1.6628194E2,1.4568002E3,2.0627212E3,1.0693834E3,1.6242403E1,1.5003954E2,7.5193115E2,7.048691E2,1.2197279E3,8.429933E2,4.2524045E2,6.4414294E2,1.3992503E1,2.2498999E0,1.3804762E2,1.1991912E1,6.5150214E2,1.0042902E2,6.811191E2,2.3749987E1,1.1437346E3,7.599337E1,4.4499187E1,7.984941E2,9.5747246E1,3.294932E2,6.3639545E2,7.7475433E0],"tree_param":{"num_deleted":"0","num_feature":"6","num_nodes":"31","size_leaf_vector":"1"}},{"base_weights":[2.6563555E-5,5.030812E-1,-2.6057267E-1,1.1125588E0,4.3296975E-1,-1.4524859E-1,-5.9514695E-1,4.9053133E-1,1.1763428E0,5.870305E-1,3.2518744E-1,-3.681618E-2,-2.6424488E-1,-5.51775E-1,-8.1718266E-1,3.2947585E-2,-2.1837512E-2,6.032824E-2,3.8144644E-2,2.6796315E-2,4.357462E-2,1.720769E-2,-1.2524984E-2,-2.4853486E-3,7.767051E-3,-1.6966455E-2,-9.917812E-3,-2.1037467E-2,-2.9551167E-2,-3.825308E-2,-7.242116E-2],"categories":[],"categories_nodes":[],"categories_segments":[],"categories_sizes":[],"default_left":[0,0,0,0,0,0,0,0,0,0,0,0,0,0,0,0,0,0,0,0,0,0,0,0,0,0,0,0,0,0,0],"id":2,"left_children":[1,3,5,7,9,11,13,15,17,19,21,23,25,27,29,-1,-1,-1,-1,-1,-1,-1,-1,-1,-1,-1,-1,-1,-1,-1,-1],"loss_changes":[6.233944E2,6.8860565E1,1.2077997E2,6.0399323E0,2.4002106E1,3.0065605E1,7.278717E0,2.9781036E0,9.607086E-1,8.233307E0,9.470604E0,3.0315409E0,5.429718E0,3.2202911E0,3.138939E0,0E0,0E0,0E0,0E0,0E0,0E0,0E0,0E0,0E0,0E0,0E0,0E0,0E0,0E0,0E0,0E0],"parents":[2147483647,0,0,1,1,2,2,3,3,4,4,5,5,6,6,7,7,8,8,9,9,10,10,11,11,12,12,13,13,14,14],"right_children":[2,4,6,8,10,12,14,16,18,20,22,24,26,28,30,-1,-1,-1,-1,-1,-1,-1,-1,-1,-1,-1,-1,-1,-1,-1,-1],"split_conditions":[1.69E0,1.28E0,2.34E0,5.787239E-1,1.49E0,2E0,2.97E0,5.725366E-1,1.27E0,7.01463E-1,9.274391E-2,6.54455E-1,4.634565E-1,2.41E0,3.84E0,3.2947585E-2,-2.1837512E-2,6.032824E-2,3.8144644E-2,2.6796315E-2,4.357462E-2,1.720769E-2,-1.2524984E-2,-2.4853486E-3,7.767051E-3,-1.6966455E-2,-9.917812E-3,-2.1037467E-2,-2.9551167E-2,-3.825308E-2,-7.242116E-2],"split_indices":[1,1,1,0,1,1,1,0,1,0,2,0,0,1,1,0,0,0,0,0,0,0,0,0,0,0,0,0,0,0,0],"split_type":[0,0,0,0,0,0,0,0,0,0,0,0,0,0,0,0,0,0,0,0,0,0,0,0,0,0,0,0,0,0,0],"sum_hessian":[4.7532637E3,1.6217483E3,3.1315151E3,1.6577768E2,1.4559706E3,2.3298691E3,8.016462E2,1.622644E1,1.4955124E2,5.9749005E2,8.584805E2,1.2197299E3,1.1101392E3,6.735595E2,1.2808664E2,1.3977167E1,2.2492733E0,1.3757652E2,1.1974714E1,5.0894162E2,8.854843E1,8.3148883E2,2.6991684E1,1.1437437E3,7.59863E1,5.16923E2,5.932162E2,1.5795793E2,5.1560156E2,1.2036056E2,7.7260904E0],"tree_param":{"num_deleted":"0","num_feature":"6","num_nodes":"31","size_leaf_vector":"1"}},{"base_weights":[3.0112862E-5,4.7863168E-1,-2.4768995E-1,8.2284737E-1,3.6531407E-1,-1.1273333E-1,-5.079828E-1,1.0848806E0,6.581519E-1,4.618402E-1,2.6409832E-1,-3.4970973E-2,-2.2509904E-1,-3.5814688E-1,-6.063297E-1,2.2067813E-2,5.763268E-2,2.799278E-2,4.9503203E-2,3.478967E-2,2.127317E-2,1.4242944E-2,-8.458192E-3,-2.3611707E-3,7.3846304E-3,-2.7012154E-2,-1.0344587E-2,-1.1111447E-2,-1.9842742E-2,-2.9733261E-2,-6.955011E-2],"categories":[],"categories_nodes":[],"categories_segments":[],"categories_sizes":[],"default_left":[0,0,0,0,0,0,0,0,0,0,0,0,0,0,0,0,0,0,0,0,0,0,0,0,0,0,0,0,0,0,0],"id":3,"left_children":[1,3,5,7,9,11,13,15,17,19,21,23,25,27,29,-1,-1,-1,-1,-1,-1,-1,-1,-1,-1,-1,-1,-1,-1,-1,-1],"loss_changes":[5.634271E2,6.2920563E1,1.099456E2,1.65755E1,1.1809006E1,1.8022816E1,1.5534668E1,6.1676483E0,7.5548553E0,5.0122833E0,5.4311028E0,2.7390501E0,4.729862E0,2.1532059E0,5.0664215E0,0E0,0E0,0E0,0E0,0E0,0E0,0E0,0E0,0E0,0E0,0E0,0E0,0E0,0E0,0E0,0E0],"parents":[2147483647,0,0,1,1,2,2,3,3,4,4,5,5,6,6,7,7,8,8,9,9,10,10,11,11,12,12,13,13,14,14],"right_children":[2,4,6,8,10,12,14,16,18,20,22,24,26,28,30,-1,-1,-1,-1,-1,-1,-1,-1,-1,-1,-1,-1,-1,-1,-1,-1],"split_conditions":[1.69E0,1.37E0,2.23E0,1.27E0,1.56E0,2E0,2.41E0,5.787239E-1,7.01463E-1,5.412514E-1,8.370871E-2,6.54455E-1,-1.22319534E-1,3.7689096E-1,3.84E0,2.2067813E-2,5.763268E-2,2.799278E-2,4.9503203E-2,3.478967E-2,2.127317E-2,1.4242944E-2,-8.458192E-3,-2.3611707E-3,7.3846304E-3,-2.7012154E-2,-1.0344587E-2,-1.1111447E-2,-1.9842742E-2,-2.9733261E-2,-6.955011E-2],"split_indices":[1,1,1,1,1,1,1,0,0,0,2,0,2,0,1,0,0,0,0,0,0,0,0,0,0,0,0,0,0,0,0],"split_type":[0,0,0,0,0,0,0,0,0,0,0,0,0,0,0,0,0,0,0,0,0,0,0,0,0,0,0,0,0,0,0],"sum_hessian":[4.7502847E3,1.6198195E3,3.1304653E3,3.9963116E2,1.2201882E3,2.062522E3,1.0679432E3,1.5208081E2,2.4755035E2,6.227392E2,5.9744904E2,1.2197258E3,8.4279626E2,4.2503113E2,6.429121E2,1.5206153E1,1.3687466E2,1.9306158E2,5.4488777E1,8.1359276E1,5.4137994E2,5.7045703E2,2.6991991E1,1.1437485E3,7.597723E1,4.4466637E1,7.9832965E2,9.570761E1,3.2932352E2,6.3522705E2,7.6850386E0],"tree_param":{"num_deleted":"0","num_feature":"6","num_nodes":"31","size_leaf_vector":"1"}},{"base_weights":[4.5822522E-5,4.555427E-1,-2.3547113E-1,1.0162337E0,3.9158463E-1,-1.0712289E-1,-4.832839E-1,4.466688E-1,1.0751432E0,5.327842E-1,2.929752E-1,-3.3218842E-2,-2.1393533E-1,-3.404807E-1,-5.7712185E-1,3.044957E-2,-2.184542E-2,5.513933E-2,3.4940664E-2,2.4283914E-2,3.979442E-2,1.5520185E-2,-1.1768079E-2,2.8576722E-2,-1.8338241E-3,-2.5714988E-2,-9.829753E-3,-1.5991403E-2,-2.9349703E-2,-2.8293593E-2,-6.6930294E-2],"categories":[],"categories_nodes":[],"categories_segments":[],"categories_sizes":[],"default_left":[0,0,0,0,0,0,0,0,0,0,0,0,0,0,0,0,0,0,0,0,0,0,0,0,0,0,0,0,0,0,0],"id":4,"left_children":[1,3,5,7,9,11,13,15,17,19,21,23,25,27,29,-1,-1,-1,-1,-1,-1,-1,-1,-1,-1,-1,-1,-1,-1,-1,-1],"loss_changes":[5.0939874E2,5.7639038E1,9.95031E1,5.0587006E0,2.0093277E1,1.6280579E1,1.4111099E1,2.7307525E0,7.7835083E-1,7.0099792E0,7.9784546E0,2.5735044E0,4.2927856E0,1.9802055E0,4.749832E0,0E0,0E0,0E0,0E0,0E0,0E0,0E0,0E0,0E0,0E0,0E0,0E0,0E0,0E0,0E0,0E0],"parents":[2147483647,0,0,1,1,2,2,3,3,4,4,5,5,6,6,7,7,8,8,9,9,10,10,11,11,12,12,13,13,14,14],"right_children":[2,4,6,8,10,12,14,16,18,20,22,24,26,28,30,-1,-1,-1,-1,-1,-1,-1,-1,-1,-1,-1,-1,-1,-1,-1,-1],"split_conditions":[1.69E0,1.28E0,2.23E0,5.787239E-1,1.49E0,2E0,2.41E0,5.725366E-1,1.27E0,7.01463E-1,9.274391E-2,2.9100314E-1,-1.22319534E-1,1.5830223E-1,3.84E0,3.044957E-2,-2.184542E-2,5.513933E-2,3.4940664E-2,2.4283914E-2,3.979442E-2,1.5520185E-2,-1.1768079E-2,2.8576722E-2,-1.8338241E-3,-2.5714988E-2,-9.829753E-3,-1.5991403E-2,-2.9349703E-2,-2.8293593E-2,-6.6930294E-2],"split_indices":[1,1,1,0,1,1,1,0,1,0,2,0,2,2,1,0,0,0,0,0,0,0,0,0,0,0,0,0,0,0,0],"split_type":[0,0,0,0,0,0,0,0,0,0,0,0,0,0,0,0,0,0,0,0,0,0,0,0,0,0,0,0,0,0,0],"sum_hessian":[4.7464326E3,1.6173994E3,3.1290334E3,1.6408168E2,1.4533177E3,2.0623333E3,1.0667001E3,1.61845E1,1.4789719E2,5.9579364E2,8.5752405E2,1.2197164E3,8.426169E2,4.2482574E2,6.418743E2,1.3935217E1,2.2492826E0,1.3597852E2,1.1918668E1,5.0773514E2,8.805852E1,8.305391E2,2.698495E1,6E0,1.2137164E3,4.4425667E1,7.981912E2,3.9410544E2,3.0720293E1,6.342472E2,7.627127E0],"tree_param":{"num_deleted":"0","num_feature":"6","num_nodes":"31","size_leaf_vector":"1"}},{"base_weights":[5.3003783E-5,4.336647E-1,-2.23877E-1,7.511726E-1,3.2975274E-1,-1.24318905E-1,-5.138109E-1,9.932654E-1,6.0035473E-1,4.1862923E-1,2.3669851E-1,-3.1535886E-2,-2.2621979E-1,-4.7371462E-1,-7.1992195E-1,1.16150975E-2,5.211558E-2,2.5453225E-2,4.5512382E-2,3.2193083E-2,1.918366E-2,1.2772691E-2,-7.716924E-3,-2.1595876E-3,7.1114446E-3,-1.4803293E-2,-8.249532E-3,-2.2597974E-2,-3.310093E-2,2.3012523E-2,-3.687426E-2],"categories":[],"categories_nodes":[],"categories_segments":[],"categories_sizes":[],"default_left":[0,0,0,0,0,0,0,0,0,0,0,0,0,0,0,0,0,0,0,0,0,0,0,0,0,0,0,0,0,0,0],"id":5,"left_children":[1,3,5,7,9,11,13,15,17,19,21,23,25,27,29,-1,-1,-1,-1,-1,-1,-1,-1,-1,-1,-1,-1,-1,-1,-1,-1],"loss_changes":[4.6061987E2,5.305368E1,9.023506E1,1.3919785E1,9.982193E0,2.202213E1,6.264633E0,5.3964844E0,6.5382385E0,4.6515427E0,4.423641E0,2.4785576E0,4.6993446E0,2.4539337E0,2.9976807E0,0E0,0E0,0E0,0E0,0E0,0E0,0E0,0E0,0E0,0E0,0E0,0E0,0E0,0E0,0E0,0E0],"parents":[2147483647,0,0,1,1,2,2,3,3,4,4,5,5,6,6,7,7,8,8,9,9,10,10,11,11,12,12,13,13,14,14],"right_children":[2,4,6,8,10,12,14,16,18,20,22,24,26,28,30,-1,-1,-1,-1,-1,-1,-1,-1,-1,-1,-1,-1,-1,-1,-1,-1],"split_conditions":[1.69E0,1.37E0,2.34E0,1.27E0,1.56E0,2E0,2.97E0,5.505347E-1,7.01463E-1,5.412514E-1,8.370871E-2,6.54455E-1,4.634565E-1,5.5237186E-1,-1.0238289E-1,1.16150975E-2,5.211558E-2,2.5453225E-2,4.5512382E-2,3.2193083E-2,1.918366E-2,1.2772691E-2,-7.716924E-3,-2.1595876E-3,7.1114446E-3,-1.4803293E-2,-8.249532E-3,-2.2597974E-2,-3.310093E-2,2.3012523E-2,-3.687426E-2],"split_indices":[1,1,1,1,1,1,1,0,0,0,2,0,0,0,2,0,0,0,0,0,0,0,0,0,0,0,0,0,0,0,0],"split_type":[0,0,0,0,0,0,0,0,0,0,0,0,0,0,0,0,0,0,0,0,0,0,0,0,0,0,0,0,0,0,0],"sum_hessian":[4.741833E3,1.6145424E3,3.1272908E3,3.965713E2,1.2179711E3,2.3289873E3,7.983035E2,1.5007887E2,2.464924E2,6.211804E2,5.9679065E2,1.219717E3,1.1092701E3,6.7105646E2,1.2724707E2,9.434636E0,1.4064424E2,1.9244377E2,5.404863E1,8.111466E1,5.4006573E2,5.698077E2,2.6982985E1,1.1437477E3,7.5969345E1,5.1638153E2,5.928886E2,6.0460516E2,6.645127E1,1.4963036E0,1.2575077E2],"tree_param":{"num_deleted":"0","num_feature":"6","num_nodes":"31","size_leaf_vector":"1"}},{"base_weights":[7.865441E-5,4.1294733E-1,-2.128546E-1,9.3228674E-1,3.5441214E-1,-9.6341014E-2,-4.384408E-1,4.010921E-1,9.8798114E-1,4.596635E-1,2.4214149E-1,-2.6308913E-2,-1.8767105E-1,-3.0768284E-1,-5.2460736E-1,2.8089324E-2,-2.2888398E-2,6.5132685E-2,4.730778E-2,2.1111477E-2,3.2703735E-2,1.2847436E-2,-8.745383E-3,7.640439E-4,-3.5872054E-3,-2.4559168E-2,-8.586918E-3,-8.886056E-3,-1.7240815E-2,-2.569115E-2,-6.3247055E-2],"categories":[],"categories_nodes":[],"categories_segments":[],"categories_sizes":[],"default_left":[0,0,0,0,0,0,0,0,0,0,0,0,0,0,0,0,0,0,0,0,0,0,0,0,0,0,0,0,0,0,0],"id":6,"left_children":[1,3,5,7,9,11,13,15,17,19,21,23,25,27,29,-1,-1,-1,-1,-1,-1,-1,-1,-1,-1,-1,-1,-1,-1,-1,-1],"loss_changes":[4.1659128E2,4.868463E1,8.2128815E1,4.417404E0,1.7030487E1,1.3188873E1,1.1832092E1,2.6205347E0,6.967468E-1,5.164688E0,4.3925705E0,2.209523E0,4.2441845E0,1.9909515E0,4.4617004E0,0E0,0E0,0E0,0E0,0E0,0E0,0E0,0E0,0E0,0E0,0E0,0E0,0E0,0E0,0E0,0E0],"parents":[2147483647,0,0,1,1,2,2,3,3,4,4,5,5,6,6,7,7,8,8,9,9,10,10,11,11,12,12,13,13,14,14],"right_children":[2,4,6,8,10,12,14,16,18,20,22,24,26,28,30,-1,-1,-1,-1,-1,-1,-1,-1,-1,-1,-1,-1,-1,-1,-1,-1],"split_conditions":[1.69E0,1.28E0,2.23E0,5.787239E-1,1.53E0,1.98E0,2.41E0,5.725366E-1,1.09E0,6.938822E-1,9.274391E-2,5.3953505E-1,3.4887138E-1,3.7689096E-1,3.84E0,2.8089324E-2,-2.2888398E-2,6.5132685E-2,4.730778E-2,2.1111477E-2,3.2703735E-2,1.2847436E-2,-8.745383E-3,7.640439E-4,-3.5872054E-3,-2.4559168E-2,-8.586918E-3,-8.886056E-3,-1.7240815E-2,-2.569115E-2,-6.3247055E-2],"split_indices":[1,1,1,0,1,1,1,0,1,0,2,0,0,0,1,0,0,0,0,0,0,0,0,0,0,0,0,0,0,0,0],"split_type":[0,0,0,0,0,0,0,0,0,0,0,0,0,0,0,0,0,0,0,0,0,0,0,0,0,0,0,0,0,0,0],"sum_hessian":[4.7366514E3,1.6113573E3,3.125294E3,1.6170879E2,1.4496486E3,2.061811E3,1.0634829E3,1.6124111E1,1.4558467E2,7.4661676E2,7.030318E2,1.1677021E3,8.941088E2,4.2425146E2,6.3923145E2,1.3874127E1,2.2499833E0,1.3543791E1,1.3204088E2,6.2872687E2,1.1788986E2,6.792974E2,2.3734371E1,6.099964E2,5.5770575E2,4.310698E1,8.510019E2,9.556692E1,3.2868454E2,6.317232E2,7.5082493E0],"tree_param":{"num_deleted":"0","num_feature":"6","num_nodes":"31","size_leaf_vector":"1"}},{"base_weights":[8.615031E-5,3.9328724E-1,-2.0241223E-1,6.879633E-1,2.9756993E-1,-9.155492E-2,-4.1740808E-1,9.13996E-1,5.4871505E-1,3.7836912E-1,2.1313973E-1,-7.836724E-3,-1.6069476E-1,-2.9260102E-1,-4.9979338E-1,9.856089E-3,4.804974E-2,2.3543825E-2,4.3776747E-2,2.9792074E-2,1.7234838E-2,1.1510077E-2,-7.1091144E-3,-1.2121145E-3,9.335688E-3,-1.1931855E-2,-5.443745E-3,-8.449844E-3,-1.6396793E-2,-2.4468215E-2,-6.1123427E-2],"categories":[],"categories_nodes":[],"categories_segments":[],"categories_sizes":[],"default_left":[0,0,0,0,0,0,0,0,0,0,0,0,0,0,0,0,0,0,0,0,0,0,0,0,0,0,0,0,0,0,0],"id":7,"left_children":[1,3,5,7,9,11,13,15,17,19,21,23,25,27,29,-1,-1,-1,-1,-1,-1,-1,-1,-1,-1,-1,-1,-1,-1,-1,-1],"loss_changes":[3.7685132E2,4.5175186E1,7.442053E1,1.1890335E1,8.216049E0,1.1937176E1,1.0779175E1,4.8166733E0,5.8489914E0,4.335968E0,3.6521225E0,2.9854577E0,4.536289E0,1.8003922E0,4.2150726E0,0E0,0E0,0E0,0E0,0E0,0E0,0E0,0E0,0E0,0E0,0E0,0E0,0E0,0E0,0E0,0E0],"parents":[2147483647,0,0,1,1,2,2,3,3,4,4,5,5,6,6,7,7,8,8,9,9,10,10,11,11,12,12,13,13,14,14],"right_children":[2,4,6,8,10,12,14,16,18,20,22,24,26,28,30,-1,-1,-1,-1,-1,-1,-1,-1,-1,-1,-1,-1,-1,-1,-1,-1],"split_conditions":[1.69E0,1.37E0,2.23E0,1.27E0,1.56E0,1.92E0,2.41E0,5.505347E-1,7.104915E-1,5.412514E-1,8.370871E-2,1.91E0,4.634565E-1,3.7689096E-1,3.84E0,9.856089E-3,4.804974E-2,2.3543825E-2,4.3776747E-2,2.9792074E-2,1.7234838E-2,1.1510077E-2,-7.1091144E-3,-1.2121145E-3,9.335688E-3,-1.1931855E-2,-5.443745E-3,-8.449844E-3,-1.6396793E-2,-2.4468215E-2,-6.1123427E-2],"split_indices":[1,1,1,1,1,1,1,0,0,0,2,1,0,0,1,0,0,0,0,0,0,0,0,0,0,0,0,0,0,0,0],"split_type":[0,0,0,0,0,0,0,0,0,0,0,0,0,0,0,0,0,0,0,0,0,0,0,0,0,0,0,0,0,0,0],"sum_hessian":[4.73097E3,1.6078965E3,3.123074E3,3.927097E2,1.2151868E3,2.0615251E3,1.061549E3,1.4758337E2,2.4512633E2,6.1916656E2,5.9602014E2,9.3296045E2,1.1285646E3,4.2391052E2,6.3763837E2,9.39994E0,1.3818344E2,1.9994603E2,4.5180294E1,8.077668E1,5.383899E2,5.6904785E2,2.6972324E1,8.6121356E2,7.1746864E1,4.4924677E2,6.793179E2,9.552807E1,3.2838245E2,6.302207E2,7.4176826E0],"tree_param":{"num_deleted":"0","num_feature":"6","num_nodes":"31","size_leaf_vector":"1"}},{"base_weights":[1.0068731E-4,3.7462997E-1,-1.924856E-1,6.5769905E-1,2.8308943E-1,-1.0641312E-1,-4.4462788E-1,8.771558E-1,5.233431E-1,3.601694E-1,2.0263135E-1,-2.6266804E-2,-1.9454546E-1,-4.0744573E-1,-6.368345E-1,9.41971E-3,4.613624E-2,2.2429405E-2,4.1934002E-2,2.84072E-2,1.640073E-2,1.0869007E-2,-8.5438E-3,2.7685357E-2,-1.4793535E-3,-1.2891406E-2,-6.956789E-3,-1.9332701E-2,-2.9412398E-2,2.3847396E-2,-3.2695025E-2],"categories":[],"categories_nodes":[],"categories_segments":[],"categories_sizes":[],"default_left":[0,0,0,0,0,0,0,0,0,0,0,0,0,0,0,0,0,0,0,0,0,0,0,0,0,0,0,0,0,0,0],"id":8,"left_children":[1,3,5,7,9,11,13,15,17,19,21,23,25,27,29,-1,-1,-1,-1,-1,-1,-1,-1,-1,-1,-1,-1,-1,-1,-1,-1],"loss_changes":[3.4094635E2,4.1408173E1,6.7701096E1,1.1084305E1,7.460266E0,1.6442642E1,5.4158783E0,4.4457626E0,5.4064407E0,3.9537125E0,3.3237648E0,2.3670244E0,3.8523483E0,2.2843628E0,2.7248306E0,0E0,0E0,0E0,0E0,0E0,0E0,0E0,0E0,0E0,0E0,0E0,0E0,0E0,0E0,0E0,0E0],"parents":[2147483647,0,0,1,1,2,2,3,3,4,4,5,5,6,6,7,7,8,8,9,9,10,10,11,11,12,12,13,13,14,14],"right_children":[2,4,6,8,10,12,14,16,18,20,22,24,26,28,30,-1,-1,-1,-1,-1,-1,-1,-1,-1,-1,-1,-1,-1,-1,-1,-1],"split_conditions":[1.69E0,1.37E0,2.34E0,1.27E0,1.56E0,2E0,2.97E0,5.505347E-1,7.104915E-1,5.412514E-1,9.274391E-2,2.9100314E-1,4.634565E-1,5.5237186E-1,-1.0238289E-1,9.41971E-3,4.613624E-2,2.2429405E-2,4.1934002E-2,2.84072E-2,1.640073E-2,1.0869007E-2,-8.5438E-3,2.7685357E-2,-1.4793535E-3,-1.2891406E-2,-6.956789E-3,-1.9332701E-2,-2.9412398E-2,2.3847396E-2,-3.2695025E-2],"split_indices":[1,1,1,1,1,1,1,0,0,0,2,0,0,0,2,0,0,0,0,0,0,0,0,0,0,0,0,0,0,0,0],"split_type":[0,0,0,0,0,0,0,0,0,0,0,0,0,0,0,0,0,0,0,0,0,0,0,0,0,0,0,0,0,0,0],"sum_hessian":[4.7248843E3,1.6041982E3,3.1206858E3,3.9049457E2,1.2137037E3,2.3275608E3,7.931251E2,1.4618607E2,2.443085E2,6.180891E2,5.9561456E2,1.21969E3,1.1078707E3,6.6717975E2,1.2594534E2,9.390211E0,1.3679587E2,1.9944896E2,4.4859547E1,8.053384E1,5.375553E2,5.733909E2,2.2223642E1,5.9992123E0,1.2136908E3,5.15487E2,5.923838E2,6.0118396E2,6.5995804E1,1.4940141E0,1.24451324E2],"tree_param":{"num_deleted":"0","num_feature":"6","num_nodes":"31","size_leaf_vector":"1"}},{"base_weights":[1.271634E-4,3.569037E-1,-1.8303429E-1,8.238307E-1,3.0544764E-1,-8.233911E-2,-3.7904194E-1,3.3920443E-1,8.759538E-1,4.214615E-1,2.2499377E-1,-6.052197E-3,-1.453792E-1,-2.6449242E-1,-4.549324E-1,2.5124362E-2,-2.5374476E-2,5.973936E-2,4.172252E-2,5.8705032E-2,2.030166E-2,1.1972004E-2,-1.0554288E-2,2.2888046E-3,-3.1617295E-3,-7.0467046E-3,-4.7728773E-2,-1.2258984E-2,-2.485042E-2,-2.8158564E-2,-1.9568477E-2],"categories":[],"categories_nodes":[],"categories_segments":[],"categories_sizes":[],"default_left":[0,0,0,0,0,0,0,0,0,0,0,0,0,0,0,0,0,0,0,0,0,0,0,0,0,0,0,0,0,0,0],"id":9,"left_children":[1,3,5,7,9,11,13,15,17,19,21,23,25,27,29,-1,-1,-1,-1,-1,-1,-1,-1,-1,-1,-1,-1,-1,-1,-1,-1],"loss_changes":[3.0847202E2,3.8221832E1,6.1531784E1,3.7031174E0,1.338266E1,9.914866E0,9.079742E0,2.6066787E0,8.866806E-1,6.376129E0,5.435524E0,2.7708218E0,3.9261017E0,1.7826786E0,4.1496277E0,0E0,0E0,0E0,0E0,0E0,0E0,0E0,0E0,0E0,0E0,0E0,0E0,0E0,0E0,0E0,0E0],"parents":[2147483647,0,0,1,1,2,2,3,3,4,4,5,5,6,6,7,7,8,8,9,9,10,10,11,11,12,12,13,13,14,14],"right_children":[2,4,6,8,10,12,14,16,18,20,22,24,26,28,30,-1,-1,-1,-1,-1,-1,-1,-1,-1,-1,-1,-1,-1,-1,-1,-1],"split_conditions":[1.69E0,1.28E0,2.23E0,5.787239E-1,1.49E0,1.92E0,2.41E0,5.725366E-1,1.09E0,4.5814428E-1,9.274391E-2,5.4694784E-1,8.387062E-1,1.5830223E-1,3.5850114E-1,2.5124362E-2,-2.5374476E-2,5.973936E-2,4.172252E-2,5.8705032E-2,2.030166E-2,1.1972004E-2,-1.0554288E-2,2.2888046E-3,-3.1617295E-3,-7.0467046E-3,-4.7728773E-2,-1.2258984E-2,-2.485042E-2,-2.8158564E-2,-1.9568477E-2],"split_indices":[1,1,1,0,1,1,1,0,1,0,2,0,0,2,0,0,0,0,0,0,0,0,0,0,0,0,0,0,0,0,0],"split_type":[0,0,0,0,0,0,0,0,0,0,0,0,0,0,0,0,0,0,0,0,0,0,0,0,0,0,0,0,0,0,0],"sum_hessian":[4.7184727E3,1.6003107E3,3.118162E3,1.5736113E2,1.4429496E3,2.0608567E3,1.0573054E3,1.6010214E1,1.413509E2,5.8915454E2,8.5379504E2,9.329541E2,1.1279026E3,4.2312415E2,6.341813E2,1.3762651E1,2.247563E0,1.3080129E1,1.2827078E2,1.0325905E1,5.788286E2,8.2685425E2,2.694082E1,4.894929E2,4.434612E2,1.1229083E3,4.9942527E0,3.925717E2,3.055246E1,2.3172505E2,4.0245624E2],"tree_param":{"num_deleted":"0","num_feature":"6","num_nodes":"31","size_leaf_vector":"1"}},{"base_weights":[1.3617954E-4,3.4004575E-1,-1.7407961E-1,6.0386914E-1,2.5550506E-1,-9.601024E-2,-4.0383625E-1,8.1029385E-1,4.7922713E-1,3.263834E-1,1.8169016E-1,-2.3021493E-2,-1.7634727E-1,-3.687415E-1,-5.860214E-1,7.890316E-3,4.2718597E-2,1.9959042E-2,3.7805893E-2,2.617064E-2,1.4800957E-2,1.0253388E-3,1.0755884E-2,-1.7157657E-3,7.2615864E-3,-1.1834746E-2,-6.1776796E-3,-3.8212102E-2,-1.7950667E-2,2.3980482E-2,-3.013339E-2],"categories":[],"categories_nodes":[],"categories_segments":[],"categories_sizes":[],"default_left":[0,0,0,0,0,0,0,0,0,0,0,0,0,0,0,0,0,0,0,0,0,0,0,0,0,0,0,0,0,0,0],"id":10,"left_children":[1,3,5,7,9,11,13,15,17,19,21,23,25,27,29,-1,-1,-1,-1,-1,-1,-1,-1,-1,-1,-1,-1,-1,-1,-1,-1],"loss_changes":[2.7914862E2,3.547296E1,5.586329E1,9.56662E0,6.278839E0,1.3643602E1,4.835617E0,4.013008E0,5.0993996E0,3.534935E0,3.205124E0,2.3245182E0,3.5002365E0,2.2849274E0,2.5227127E0,0E0,0E0,0E0,0E0,0E0,0E0,0E0,0E0,0E0,0E0,0E0,0E0,0E0,0E0,0E0,0E0],"parents":[2147483647,0,0,1,1,2,2,3,3,4,4,5,5,6,6,7,7,8,8,9,9,10,10,11,11,12,12,13,13,14,14],"right_children":[2,4,6,8,10,12,14,16,18,20,22,24,26,28,30,-1,-1,-1,-1,-1,-1,-1,-1,-1,-1,-1,-1,-1,-1,-1,-1],"split_conditions":[1.69E0,1.37E0,2.34E0,1.27E0,1.56E0,2E0,2.97E0,5.505347E-1,7.01463E-1,5.412514E-1,1.58E0,6.54455E-1,4.634565E-1,-1.8814965E-1,-1.0238289E-1,7.890316E-3,4.2718597E-2,1.9959042E-2,3.7805893E-2,2.617064E-2,1.4800957E-2,1.0253388E-3,1.0755884E-2,-1.7157657E-3,7.2615864E-3,-1.1834746E-2,-6.1776796E-3,-3.8212102E-2,-1.7950667E-2,2.3980482E-2,-3.013339E-2],"split_indices":[1,1,1,1,1,1,1,0,0,0,1,0,0,2,2,0,0,0,0,0,0,0,0,0,0,0,0,0,0,0,0],"split_type":[0,0,0,0,0,0,0,0,0,0,0,0,0,0,0,0,0,0,0,0,0,0,0,0,0,0,0,0,0,0,0],"sum_hessian":[4.711946E3,1.5963608E3,3.1155852E3,3.859127E2,1.2104481E3,2.3264834E3,7.891017E2,1.4321974E2,2.4269296E2,6.157615E2,5.9468665E2,1.2196654E3,1.1068181E3,6.641827E2,1.24919044E2,9.35265E0,1.3386708E2,1.90161E2,5.2531967E1,8.005542E1,5.3570605E2,1.0242404E2,4.9226263E2,1.1436923E3,7.597308E1,5.1483484E2,5.919832E2,1.4082879E1,6.500998E2,1.4936002E0,1.23425446E2],"tree_param":{"num_deleted":"0","num_feature":"6","num_nodes":"31","size_leaf_vector":"1"}},{"base_weights":[1.5466765E-4,3.308158E-1,-1.6219184E-1,7.605506E-1,2.8281412E-1,-7.0916936E-2,-3.4432068E-1,3.0423424E-1,8.1055075E-1,3.8366288E-1,2.0937437E-1,-9.341901E-4,-1.3146783E-1,-2.3899871E-1,-4.1437122E-1,2.328722E-2,-2.5986075E-2,5.653147E-2,3.8472977E-2,5.553605E-2,1.8444154E-2,1.1059326E-2,-7.8061493E-3,-2.682269E-2,3.066633E-4,-6.3593662E-3,-4.565347E-2,-5.8889296E-3,-1.3691288E-2,-2.0217914E-2,-5.649044E-2],"categories":[],"categories_nodes":[],"categories_segments":[],"categories_sizes":[],"default_left":[0,0,0,0,0,0,0,0,0,0,0,0,0,0,0,0,0,0,0,0,0,0,0,0,0,0,0,0,0,0,0],"id":11,"left_children":[1,3,5,7,9,11,13,15,17,19,21,23,25,27,29,-1,-1,-1,-1,-1,-1,-1,-1,-1,-1,-1,-1,-1,-1,-1,-1],"loss_changes":[2.5268742E2,3.1759415E1,5.245842E1,3.2933655E0,1.0258133E1,8.917171E0,7.675194E0,2.4940832E0,9.612503E-1,5.897911E0,3.5311737E0,3.7016218E0,3.6584492E0,1.7546482E0,4.0667267E0,0E0,0E0,0E0,0E0,0E0,0E0,0E0,0E0,0E0,0E0,0E0,0E0,0E0,0E0,0E0,0E0],"parents":[2147483647,0,0,1,1,2,2,3,3,4,4,5,5,6,6,7,7,8,8,9,9,10,10,11,11,12,12,13,13,14,14],"right_children":[2,4,6,8,10,12,14,16,18,20,22,24,26,28,30,-1,-1,-1,-1,-1,-1,-1,-1,-1,-1,-1,-1,-1,-1,-1,-1],"split_conditions":[1.68E0,1.28E0,2.23E0,5.787239E-1,1.49E0,1.92E0,2.41E0,5.725366E-1,1.09E0,4.5814428E-1,9.274391E-2,-2.0414048E-1,8.387062E-1,3.7689096E-1,3.84E0,2.328722E-2,-2.5986075E-2,5.653147E-2,3.8472977E-2,5.553605E-2,1.8444154E-2,1.1059326E-2,-7.8061493E-3,-2.682269E-2,3.066633E-4,-6.3593662E-3,-4.565347E-2,-5.8889296E-3,-1.3691288E-2,-2.0217914E-2,-5.649044E-2],"split_indices":[1,1,1,0,1,1,1,0,1,0,2,2,0,0,1,0,0,0,0,0,0,0,0,0,0,0,0,0,0,0,0],"split_type":[0,0,0,0,0,0,0,0,0,0,0,0,0,0,0,0,0,0,0,0,0,0,0,0,0,0,0,0,0,0,0],"sum_hessian":[4.705145E3,1.5490538E3,3.1560913E3,1.5415329E2,1.3949006E3,2.1033667E3,1.0527246E3,1.59227E1,1.3823059E2,5.8598755E2,8.08913E2,9.761639E2,1.1272028E3,4.22261E2,6.304636E2,1.3676589E1,2.2461114E0,1.2710157E1,1.2552043E2,1.0197422E1,5.7579016E2,7.839715E2,2.4941547E1,1.1739331E1,9.6442456E2,1.1222195E3,4.9832144E0,9.52194E1,3.2704156E2,6.2330536E2,7.1583195E0],"tree_param":{"num_deleted":"0","num_feature":"6","num_nodes":"31","size_leaf_vector":"1"}},{"base_weights":[1.521423E-4,3.0886278E-1,-1.5754032E-1,5.550036E-1,2.307616E-1,-8.6716674E-2,-3.6700517E-1,7.4974614E-1,4.3915322E-1,2.9568666E-1,1.6331963E-1,-2.0350058E-2,-1.5983742E-1,-3.4747615E-1,-6.6979784E-1,6.5090354E-3,3.9627336E-2,1.8466294E-2,3.6927026E-2,2.4124557E-2,1.3350208E-2,4.257131E-3,1.1515509E-2,2.7387042E-2,-1.1803353E-3,-1.0874636E-2,-5.472263E-3,-2.1999516E-2,-1.5175915E-2,-2.467411E-2,-4.6767045E-2],"categories":[],"categories_nodes":[],"categories_segments":[],"categories_sizes":[],"default_left":[0,0,0,0,0,0,0,0,0,0,0,0,0,0,0,0,0,0,0,0,0,0,0,0,0,0,0,0,0,0,0],"id":12,"left_children":[1,3,5,7,9,11,13,15,17,19,21,23,25,27,29,-1,-1,-1,-1,-1,-1,-1,-1,-1,-1,-1,-1,-1,-1,-1,-1],"loss_changes":[2.2881729E2,3.0422333E1,4.6121826E1,8.290894E0,5.241623E0,1.1285795E1,4.4139557E0,3.6385193E0,4.785927E0,3.1626396E0,3.0954409E0,2.271167E0,3.191534E0,2.8769684E0,1.7170792E0,0E0,0E0,0E0,0E0,0E0,0E0,0E0,0E0,0E0,0E0,0E0,0E0,0E0,0E0,0E0,0E0],"parents":[2147483647,0,0,1,1,2,2,3,3,4,4,5,5,6,6,7,7,8,8,9,9,10,10,11,11,12,12,13,13,14,14],"right_children":[2,4,6,8,10,12,14,16,18,20,22,24,26,28,30,-1,-1,-1,-1,-1,-1,-1,-1,-1,-1,-1,-1,-1,-1,-1,-1],"split_conditions":[1.69E0,1.37E0,2.34E0,1.27E0,1.56E0,2E0,3.28E0,5.505347E-1,7.104915E-1,5.412514E-1,1.61E0,2.9100314E-1,4.634565E-1,3.5850114E-1,3.8154647E-1,6.5090354E-3,3.9627336E-2,1.8466294E-2,3.6927026E-2,2.4124557E-2,1.3350208E-2,4.257131E-3,1.1515509E-2,2.7387042E-2,-1.1803353E-3,-1.0874636E-2,-5.472263E-3,-2.1999516E-2,-1.5175915E-2,-2.467411E-2,-4.6767045E-2],"split_indices":[1,1,1,1,1,1,1,0,0,0,1,0,0,0,0,0,0,0,0,0,0,0,0,0,0,0,0,0,0,0,0],"split_type":[0,0,0,0,0,0,0,0,0,0,0,0,0,0,0,0,0,0,0,0,0,0,0,0,0,0,0,0,0,0,0],"sum_hessian":[4.6983086E3,1.58819E3,3.1101187E3,3.8108136E2,1.2071086E3,2.3253064E3,7.848121E2,1.4010146E2,2.4097989E2,6.133063E2,5.938023E2,1.2196205E3,1.105686E3,7.3927893E2,4.5533157E1,9.314178E0,1.3078728E2,1.9721599E2,4.37639E1,7.9528465E1,5.337778E2,2.7507022E2,3.187321E2,5.998786E0,1.2136216E3,5.1413354E2,5.9155255E2,2.3522101E2,5.040579E2,2.9081781E1,1.6451376E1],"tree_param":{"num_deleted":"0","num_feature":"6","num_nodes":"31","size_leaf_vector":"1"}},{"base_weights":[1.6310798E-4,3.0063996E-1,-1.4683942E-1,7.028981E-1,2.565157E-1,-6.39545E-2,-3.1292114E-1,2.7267745E-1,7.509737E-1,3.493604E-1,1.8914998E-1,-3.8451384E-4,-1.18991055E-1,-2.1605542E-1,-3.7761325E-1,2.161991E-2,-2.6469115E-2,5.367328E-2,3.5508685E-2,5.268539E-2,1.6759388E-2,1.0019531E-2,-7.879395E-3,-2.5931666E-2,3.227224E-4,-5.743718E-3,-4.3677296E-2,-9.865892E-3,-2.2160629E-2,-1.8403297E-2,-5.3724278E-2],"categories":[],"categories_nodes":[],"categories_segments":[],"categories_sizes":[],"default_left":[0,0,0,0,0,0,0,0,0,0,0,0,0,0,0,0,0,0,0,0,0,0,0,0,0,0,0,0,0,0,0],"id":13,"left_children":[1,3,5,7,9,11,13,15,17,19,21,23,25,27,29,-1,-1,-1,-1,-1,-1,-1,-1,-1,-1,-1,-1,-1,-1,-1,-1],"loss_changes":[2.0730879E2,2.718599E1,4.336277E1,2.9356003E0,8.633919E0,7.3597126E0,6.491501E0,2.3851001E0,1.0270996E0,5.4736404E0,3.1819057E0,3.4665463E0,3.4018621E0,1.7102661E0,3.7799377E0,0E0,0E0,0E0,0E0,0E0,0E0,0E0,0E0,0E0,0E0,0E0,0E0,0E0,0E0,0E0,0E0],"parents":[2147483647,0,0,1,1,2,2,3,3,4,4,5,5,6,6,7,7,8,8,9,9,10,10,11,11,12,12,13,13,14,14],"right_children":[2,4,6,8,10,12,14,16,18,20,22,24,26,28,30,-1,-1,-1,-1,-1,-1,-1,-1,-1,-1,-1,-1,-1,-1,-1,-1],"split_conditions":[1.68E0,1.28E0,2.23E0,5.787239E-1,1.49E0,1.92E0,2.41E0,5.725366E-1,1.09E0,4.5814428E-1,9.274391E-2,-2.0414048E-1,8.387062E-1,1.5830223E-1,3.84E0,2.161991E-2,-2.6469115E-2,5.367328E-2,3.5508685E-2,5.268539E-2,1.6759388E-2,1.0019531E-2,-7.879395E-3,-2.5931666E-2,3.227224E-4,-5.743718E-3,-4.3677296E-2,-9.865892E-3,-2.2160629E-2,-1.8403297E-2,-5.3724278E-2],"split_indices":[1,1,1,0,1,1,1,0,1,0,2,2,0,2,1,0,0,0,0,0,0,0,0,0,0,0,0,0,0,0,0],"split_type":[0,0,0,0,0,0,0,0,0,0,0,0,0,0,0,0,0,0,0,0,0,0,0,0,0,0,0,0,0,0,0],"sum_hessian":[4.6913394E3,1.54082E3,3.1505195E3,1.5083202E2,1.3899879E3,2.1025857E3,1.0479337E3,1.5831397E1,1.3500061E2,5.8270575E2,8.0728217E2,9.761224E2,1.1264634E3,4.213587E2,6.26575E2,1.3586662E1,2.2447338E0,1.2318923E1,1.22681694E2,1.0046974E1,5.7265875E2,7.8234204E2,2.4940088E1,1.1738742E1,9.6438367E2,1.121497E3,4.966418E0,3.909767E2,3.0382E1,6.196143E2,6.9606924E0],"tree_param":{"num_deleted":"0","num_feature":"6","num_nodes":"31","size_leaf_vector":"1"}},{"base_weights":[1.5596615E-4,2.8651255E-1,-1.3968639E-1,6.759808E-1,2.4418893E-1,-6.0802847E-2,-2.980971E-1,2.5953025E-1,7.2296584E-1,3.3298677E-1,1.7987941E-1,-8.542757E-3,-1.21741205E-1,-2.0555125E-1,-3.6003938E-1,3.5554174E-2,-1.5363848E-3,5.2132893E-2,3.41424E-2,5.0836306E-2,1.596704E-2,9.529204E-3,-7.5017973E-3,-1.022385E-2,5.088883E-5,-1.9018244E-2,-5.444662E-3,-4.3765972E-3,-1.1978412E-2,-1.753964E-2,-5.2200764E-2],"categories":[],"categories_nodes":[],"categories_segments":[],"categories_sizes":[],"default_left":[0,0,0,0,0,0,0,0,0,0,0,0,0,0,0,0,0,0,0,0,0,0,0,0,0,0,0,0,0,0,0],"id":14,"left_children":[1,3,5,7,9,11,13,15,17,19,21,23,25,27,29,-1,-1,-1,-1,-1,-1,-1,-1,-1,-1,-1,-1,-1,-1,-1,-1],"loss_changes":[1.8766544E2,2.5181519E1,3.9328197E1,2.7504501E0,7.869316E0,6.69705E0,5.9248886E0,2.2215943E0,1.0113907E0,5.105942E0,2.8803062E0,2.123184E0,3.1847591E0,1.6728706E0,3.5900497E0,0E0,0E0,0E0,0E0,0E0,0E0,0E0,0E0,0E0,0E0,0E0,0E0,0E0,0E0,0E0,0E0],"parents":[2147483647,0,0,1,1,2,2,3,3,4,4,5,5,6,6,7,7,8,8,9,9,10,10,11,11,12,12,13,13,14,14],"right_children":[2,4,6,8,10,12,14,16,18,20,22,24,26,28,30,-1,-1,-1,-1,-1,-1,-1,-1,-1,-1,-1,-1,-1,-1,-1,-1],"split_conditions":[1.68E0,1.28E0,2.23E0,5.787239E-1,1.49E0,1.97E0,2.41E0,5.3953505E-1,1.09E0,4.5814428E-1,9.274391E-2,3.9394292E-1,3.4887138E-1,3.7689096E-1,3.84E0,3.5554174E-2,-1.5363848E-3,5.2132893E-2,3.41424E-2,5.0836306E-2,1.596704E-2,9.529204E-3,-7.5017973E-3,-1.022385E-2,5.088883E-5,-1.9018244E-2,-5.444662E-3,-4.3765972E-3,-1.1978412E-2,-1.753964E-2,-5.2200764E-2],"split_indices":[1,1,1,0,1,1,1,0,1,0,2,0,0,0,1,0,0,0,0,0,0,0,0,0,0,0,0,0,0,0,0],"split_type":[0,0,0,0,0,0,0,0,0,0,0,0,0,0,0,0,0,0,0,0,0,0,0,0,0,0,0,0,0,0,0],"sum_hessian":[4.6843896E3,1.5366753E3,3.1477144E3,1.4915523E2,1.3875201E3,2.1022458E3,1.0454685E3,1.5783371E1,1.3337186E2,5.810439E2,8.0647626E2,1.1323202E3,9.699256E2,4.2091385E2,6.2455457E2,5.6084666E0,1.0174905E1,1.2084309E1,1.2128755E2,9.931121E0,5.7111273E2,7.8154016E2,2.4936098E1,5.1732067E1,1.0805881E3,4.454996E1,9.253757E2,9.4975784E1,3.2593808E2,6.177166E2,6.8379664E0],"tree_param":{"num_deleted":"0","num_feature":"6","num_nodes":"31","size_leaf_vector":"1"}},{"base_weights":[1.6841553E-4,2.6750064E-1,-1.3568662E-1,4.9067572E-1,1.9774301E-1,-7.444477E-2,-3.1820413E-1,6.691873E-1,3.8695744E-1,2.5483254E-1,1.3867493E-1,-1.6963098E-2,-1.3787568E-1,-2.8676406E-1,-4.833705E-1,4.4200867E-3,3.553704E-2,1.5588223E-2,3.2598134E-2,2.1517282E-2,1.1402174E-2,3.134145E-3,1.0194182E-2,1.183859E-3,-3.1379454E-3,-9.622785E-3,-4.5118607E-3,-7.4212775E-3,-1.5723066E-2,2.5665322E-2,-2.498868E-2],"categories":[],"categories_nodes":[],"categories_segments":[],"categories_sizes":[],"default_left":[0,0,0,0,0,0,0,0,0,0,0,0,0,0,0,0,0,0,0,0,0,0,0,0,0,0,0,0,0,0,0],"id":15,"left_children":[1,3,5,7,9,11,13,15,17,19,21,23,25,27,29,-1,-1,-1,-1,-1,-1,-1,-1,-1,-1,-1,-1,-1,-1,-1,-1],"loss_changes":[1.6994916E2,2.4449951E1,3.4657127E1,6.6805115E0,4.0211754E0,8.4729395E0,3.907692E0,3.2282143E0,4.5678673E0,2.7724304E0,2.9278126E0,2.2731364E0,2.8555164E0,2.4709206E0,2.2698212E0,0E0,0E0,0E0,0E0,0E0,0E0,0E0,0E0,0E0,0E0,0E0,0E0,0E0,0E0,0E0,0E0],"parents":[2147483647,0,0,1,1,2,2,3,3,4,4,5,5,6,6,7,7,8,8,9,9,10,10,11,11,12,12,13,13,14,14],"right_children":[2,4,6,8,10,12,14,16,18,20,22,24,26,28,30,-1,-1,-1,-1,-1,-1,-1,-1,-1,-1,-1,-1,-1,-1,-1,-1],"split_conditions":[1.69E0,1.37E0,2.34E0,1.27E0,1.56E0,2E0,2.97E0,5.505347E-1,7.01463E-1,5.412514E-1,1.61E0,5.3953505E-1,4.634565E-1,3.2534614E-1,-1.0238289E-1,4.4200867E-3,3.553704E-2,1.5588223E-2,3.2598134E-2,2.1517282E-2,1.1402174E-2,3.134145E-3,1.0194182E-2,1.183859E-3,-3.1379454E-3,-9.622785E-3,-4.5118607E-3,-7.4212775E-3,-1.5723066E-2,2.5665322E-2,-2.498868E-2],"split_indices":[1,1,1,1,1,1,1,0,0,0,1,0,0,0,2,0,0,0,0,0,0,0,0,0,0,0,0,0,0,0,0],"split_type":[0,0,0,0,0,0,0,0,0,0,0,0,0,0,0,0,0,0,0,0,0,0,0,0,0,0,0,0,0,0,0],"sum_hessian":[4.67742E3,1.5757427E3,3.101677E3,3.738031E2,1.2019396E3,2.323469E3,7.78208E2,1.353675E2,2.384356E2,6.09521E2,5.9241864E2,1.2195599E3,1.1039092E3,6.5606055E2,1.22147484E2,9.247297E0,1.261202E2,1.8743028E2,5.1005318E1,7.87186E1,5.3080237E2,2.7449393E2,3.179247E2,6.4640656E2,5.731534E2,5.130552E2,5.9085394E2,1.1050154E2,5.4555896E2,1.487238E0,1.2066025E2],"tree_param":{"num_deleted":"0","num_feature":"6","num_nodes":"31","size_leaf_vector":"1"}},{"base_weights":[1.8661098E-4,2.604304E-1,-1.264507E-1,6.437463E-1,2.232279E-1,-5.484341E-2,-2.7086547E-1,8.44696E-2,6.8424195E-1,3.056049E-1,1.6255912E-1,4.6364727E-4,-1.0277244E-1,-1.8561792E-1,-3.281627E-1,3.0222386E-2,-2.7367929E-2,5.1076826E-2,3.1952363E-2,4.9139317E-2,1.461298E-2,-9.122378E-3,8.63908E-3,-2.4368996E-2,3.449796E-4,2.2443276E-2,-5.3906897E-3,-8.385069E-3,-2.019404E-2,-2.1543112E-2,-1.341373E-2],"categories":[],"categories_nodes":[],"categories_segments":[],"categories_sizes":[],"default_left":[0,0,0,0,0,0,0,0,0,0,0,0,0,0,0,0,0,0,0,0,0,0,0,0,0,0,0,0,0,0,0],"id":16,"left_children":[1,3,5,7,9,11,13,15,17,19,21,23,25,27,29,-1,-1,-1,-1,-1,-1,-1,-1,-1,-1,-1,-1,-1,-1,-1,-1],"loss_changes":[1.5398769E2,2.1666359E1,3.248758E1,2.9946136E0,6.9253845E0,5.573172E0,5.026718E0,3.6952643E0,1.2608223E0,5.0518417E0,2.8736553E0,3.0711286E0,3.1807528E0,1.5785294E0,3.7076416E0,0E0,0E0,0E0,0E0,0E0,0E0,0E0,0E0,0E0,0E0,0E0,0E0,0E0,0E0,0E0,0E0],"parents":[2147483647,0,0,1,1,2,2,3,3,4,4,5,5,6,6,7,7,8,8,9,9,10,10,11,11,12,12,13,13,14,14],"right_children":[2,4,6,8,10,12,14,16,18,20,22,24,26,28,30,-1,-1,-1,-1,-1,-1,-1,-1,-1,-1,-1,-1,-1,-1,-1,-1],"split_conditions":[1.68E0,1.27E0,2.23E0,5.505347E-1,1.49E0,1.92E0,2.41E0,5.3953505E-1,1.09E0,4.5814428E-1,4.331109E-1,-2.0414048E-1,-2.271986E-1,1.5830223E-1,3.5850114E-1,3.0222386E-2,-2.7367929E-2,5.1076826E-2,3.1952363E-2,4.9139317E-2,1.461298E-2,-9.122378E-3,8.63908E-3,-2.4368996E-2,3.449796E-4,2.2443276E-2,-5.3906897E-3,-8.385069E-3,-2.019404E-2,-2.1543112E-2,-1.341373E-2],"split_indices":[1,1,1,0,1,1,1,0,1,0,0,2,2,2,0,0,0,0,0,0,0,0,0,0,0,0,0,0,0,0,0],"split_type":[0,0,0,0,0,0,0,0,0,0,0,0,0,0,0,0,0,0,0,0,0,0,0,0,0,0,0,0,0,0,0],"sum_hessian":[4.670443E3,1.5284244E3,3.1420186E3,1.3377457E2,1.3946499E3,2.1014202E3,1.0405983E3,9.240601E0,1.24533966E2,5.897887E2,8.048612E2,9.7607825E2,1.1253419E3,4.1998257E2,6.206157E2,5.092742E0,4.147859E0,1.2162257E1,1.1237171E2,9.994501E0,5.797942E2,2.2676796E1,7.821844E2,1.1736359E1,9.6434186E2,9.393961E0,1.115948E3,3.8975693E2,3.022563E1,2.263181E2,3.9429764E2],"tree_param":{"num_deleted":"0","num_feature":"6","num_nodes":"31","size_leaf_vector":"1"}},{"base_weights":[1.9981526E-4,2.2103342E-1,-1.3543758E-1,4.5166174E-1,1.6021086E-1,-7.911794E-2,-2.8910565E-1,6.1962956E-1,3.556485E-1,2.3071069E-1,1.06381044E-1,-2.9079767E-2,-1.2500586E-1,-2.817638E-1,-9.9243814E-1,1.0889889E-2,3.3750392E-2,1.4503536E-2,3.2122266E-2,1.9900998E-2,1.0264141E-2,-1.2467994E-3,6.2813982E-3,6.052571E-4,-4.58091E-3,-8.8615175E-3,-3.9732466E-3,-1.845528E-2,-1.1880631E-2,-1.3152683E-2,-5.3560745E-2],"categories":[],"categories_nodes":[],"categories_segments":[],"categories_sizes":[],"default_left":[0,0,0,0,0,0,0,0,0,0,0,0,0,0,0,0,0,0,0,0,0,0,0,0,0,0,0,0,0,0,0],"id":17,"left_children":[1,3,5,7,9,11,13,15,17,19,21,23,25,27,29,-1,-1,-1,-1,-1,-1,-1,-1,-1,-1,-1,-1,-1,-1,-1,-1],"loss_changes":[1.3975266E2,2.4830437E1,2.49921E1,5.745613E0,5.312584E0,4.8562813E0,3.7214584E0,2.8171158E0,4.2847843E0,2.5051003E0,2.023367E0,2.612273E0,2.611044E0,2.8747787E0,1.5537167E-1,0E0,0E0,0E0,0E0,0E0,0E0,0E0,0E0,0E0,0E0,0E0,0E0,0E0,0E0,0E0,0E0],"parents":[2147483647,0,0,1,1,2,2,3,3,4,4,5,5,6,6,7,7,8,8,9,9,10,10,11,11,12,12,13,13,14,14],"right_children":[2,4,6,8,10,12,14,16,18,20,22,24,26,28,30,-1,-1,-1,-1,-1,-1,-1,-1,-1,-1,-1,-1,-1,-1,-1,-1],"split_conditions":[1.74E0,1.37E0,2.34E0,1.27E0,1.56E0,2E0,3.84E0,5.844573E-1,7.104915E-1,5.412514E-1,1.58E0,5.5237186E-1,4.634565E-1,3.5850114E-1,2.727759E-1,1.0889889E-2,3.3750392E-2,1.4503536E-2,3.2122266E-2,1.9900998E-2,1.0264141E-2,-1.2467994E-3,6.2813982E-3,6.052571E-4,-4.58091E-3,-8.8615175E-3,-3.9732466E-3,-1.845528E-2,-1.1880631E-2,-1.3152683E-2,-5.3560745E-2],"split_indices":[1,1,1,1,1,1,1,0,0,0,1,0,0,0,0,0,0,0,0,0,0,0,0,0,0,0,0,0,0,0,0],"split_type":[0,0,0,0,0,0,0,0,0,0,0,0,0,0,0,0,0,0,0,0,0,0,0,0,0,0,0,0,0,0,0],"sum_hessian":[4.663686E3,1.7742953E3,2.8893906E3,3.6893472E2,1.4053605E3,2.1155518E3,7.738389E2,1.322027E2,2.3673204E2,6.070428E2,7.9831775E2,1.01279254E3,1.1027592E3,7.6723065E2,6.6082487E0,1.6610157E1,1.1559254E2,1.9431271E2,4.2419327E1,7.815423E1,5.2888855E2,1.02012955E2,6.963048E2,6.111343E2,4.0165826E2,5.123385E2,5.9042065E2,2.5514055E2,5.120901E2,1.0671226E0,5.5411263E0],"tree_param":{"num_deleted":"0","num_feature":"6","num_nodes":"31","size_leaf_vector":"1"}},{"base_weights":[1.9800442E-4,2.3708376E-1,-1.1467317E-1,5.961771E-1,2.029253E-1,-4.9749088E-2,-2.4616103E-1,7.097508E-2,6.351197E-1,2.6354295E-1,1.3423818E-1,2.8667717E-5,-9.291292E-2,-2.2141956E-1,-4.3079022E-1,2.8690258E-2,-2.6649741E-2,4.883783E-2,2.9501531E-2,1.1653389E-2,2.1063915E-2,-1.1557979E-2,7.321375E-3,-2.339926E-2,3.1007273E-4,-4.4472865E-3,-4.130389E-2,-5.6412625E-3,-1.2178862E-2,-1.9605014E-2,-4.8372358E-2],"categories":[],"categories_nodes":[],"categories_segments":[],"categories_sizes":[],"default_left":[0,0,0,0,0,0,0,0,0,0,0,0,0,0,0,0,0,0,0,0,0,0,0,0,0,0,0,0,0,0,0],"id":18,"left_children":[1,3,5,7,9,11,13,15,17,19,21,23,25,27,29,-1,-1,-1,-1,-1,-1,-1,-1,-1,-1,-1,-1,-1,-1,-1,-1],"loss_changes":[1.26775925E2,1.8541153E1,2.677171E1,2.647293E0,5.7554398E0,4.515602E0,4.64093E0,3.4073908E0,1.3095436E0,3.4482346E0,2.9469156E0,2.8255367E0,3.2004557E0,2.177517E0,2.1427212E0,0E0,0E0,0E0,0E0,0E0,0E0,0E0,0E0,0E0,0E0,0E0,0E0,0E0,0E0,0E0,0E0],"parents":[2147483647,0,0,1,1,2,2,3,3,4,4,5,5,6,6,7,7,8,8,9,9,10,10,11,11,12,12,13,13,14,14],"right_children":[2,4,6,8,10,12,14,16,18,20,22,24,26,28,30,-1,-1,-1,-1,-1,-1,-1,-1,-1,-1,-1,-1,-1,-1,-1,-1],"split_conditions":[1.68E0,1.27E0,2.23E0,5.505347E-1,1.53E0,1.92E0,2.97E0,5.3953505E-1,1.09E0,6.938822E-1,4.331109E-1,-2.0414048E-1,8.387062E-1,-6.400759E-2,3.84E0,2.8690258E-2,-2.6649741E-2,4.883783E-2,2.9501531E-2,1.1653389E-2,2.1063915E-2,-1.1557979E-2,7.321375E-3,-2.339926E-2,3.1007273E-4,-4.4472865E-3,-4.130389E-2,-5.6412625E-3,-1.2178862E-2,-1.9605014E-2,-4.8372358E-2],"split_indices":[1,1,1,0,1,1,1,0,1,0,0,2,0,2,1,0,0,0,0,0,0,0,0,0,0,0,0,0,0,0,0],"split_type":[0,0,0,0,0,0,0,0,0,0,0,0,0,0,0,0,0,0,0,0,0,0,0,0,0,0,0,0,0,0,0],"sum_hessian":[4.6569375E3,1.520441E3,3.1364966E3,1.3063876E2,1.3898022E3,2.1006487E3,1.035848E3,9.212759E0,1.21426E2,7.3676044E2,6.5304175E2,9.7604517E2,1.1246035E3,9.1538055E2,1.2046746E2,5.0545664E0,4.1581926E0,1.1748167E1,1.0967784E2,6.195401E2,1.1722037E2,2.0501648E1,6.325401E2,1.1731891E1,9.643133E2,1.1196663E3,4.937245E0,1.5615584E2,7.592247E2,1.1398073E2,6.486735E0],"tree_param":{"num_deleted":"0","num_feature":"6","num_nodes":"31","size_leaf_vector":"1"}},{"base_weights":[1.8331256E-4,2.0092705E-1,-1.2279416E-1,4.155756E-1,1.4493422E-1,-7.821355E-2,-2.8686923E-1,5.738428E-1,3.2656312E-1,2.0838481E-1,9.663628E-2,-2.6417026E-2,-1.1991673E-1,-3.5016197E-1,-1.956372E-1,9.6797785E-3,3.1368237E-2,1.28965555E-2,2.8644357E-2,1.8537203E-2,9.189886E-3,-1.5301579E-3,5.7650707E-3,2.812382E-2,-1.5240017E-3,-5.7197264E-3,-2.7624404E-2,-5.2880542E-3,-2.0096555E-2,-2.1754843E-3,-1.6896665E-2],"categories":[],"categories_nodes":[],"categories_segments":[],"categories_sizes":[],"default_left":[0,0,0,0,0,0,0,0,0,0,0,0,0,0,0,0,0,0,0,0,0,0,0,0,0,0,0,0,0,0,0],"id":19,"left_children":[1,3,5,7,9,11,13,15,17,19,21,23,25,27,29,-1,-1,-1,-1,-1,-1,-1,-1,-1,-1,-1,-1,-1,-1,-1,-1],"loss_changes":[1.14852486E2,2.1181381E1,2.1079987E1,4.956249E0,4.2801857E0,4.900141E0,3.4886017E0,2.5264473E0,3.842083E0,2.3494759E0,1.9002266E0,2.4427052E0,2.9399834E0,4.543171E0,5.4963512E0,0E0,0E0,0E0,0E0,0E0,0E0,0E0,0E0,0E0,0E0,0E0,0E0,0E0,0E0,0E0,0E0],"parents":[2147483647,0,0,1,1,2,2,3,3,4,4,5,5,6,6,7,7,8,8,9,9,10,10,11,11,12,12,13,13,14,14],"right_children":[2,4,6,8,10,12,14,16,18,20,22,24,26,28,30,-1,-1,-1,-1,-1,-1,-1,-1,-1,-1,-1,-1,-1,-1,-1,-1],"split_conditions":[1.74E0,1.37E0,2.41E0,1.27E0,1.56E0,2E0,3.690006E-2,5.844573E-1,7.01463E-1,5.412514E-1,1.58E0,2.9100314E-1,7.01463E-1,-7.284843E-2,9.5041595E-2,9.6797785E-3,3.1368237E-2,1.28965555E-2,2.8644357E-2,1.8537203E-2,9.189886E-3,-1.5301579E-3,5.7650707E-3,2.812382E-2,-1.5240017E-3,-5.7197264E-3,-2.7624404E-2,-5.2880542E-3,-2.0096555E-2,-2.1754843E-3,-1.6896665E-2],"split_indices":[1,1,1,1,1,1,2,0,0,0,1,0,0,2,2,0,0,0,0,0,0,0,0,0,0,0,0,0,0,0,0],"split_type":[0,0,0,0,0,0,0,0,0,0,0,0,0,0,0,0,0,0,0,0,0,0,0,0,0,0,0,0,0,0,0],"sum_hessian":[4.6503555E3,1.7663687E3,2.8839868E3,3.641143E2,1.4022544E3,2.268966E3,6.1502075E2,1.2910834E2,2.3500594E2,6.0462463E2,7.976297E2,1.0127434E3,1.2562225E3,3.6143506E2,2.535857E2,1.6500109E1,1.1260823E2,1.8539685E2,4.960909E1,7.766833E1,5.269563E2,1.0195652E2,6.9567316E2,5.99769E0,1.0067457E3,1.2416364E3,1.4586265E1,6.370905E1,2.97726E2,1.2319006E2,1.3039563E2],"tree_param":{"num_deleted":"0","num_feature":"6","num_nodes":"31","size_leaf_vector":"1"}},{"base_weights":[1.9243895E-4,2.1580887E-1,-1.0400683E-1,5.520533E-1,1.8445681E-1,-5.595198E-2,-2.5169325E-1,9.8918736E-1,4.973053E-1,2.5389123E-1,1.3371179E-1,-1.152807E-2,-1.0683947E-1,-2.4481504E-1,-9.3402815E-1,3.6008412E-3,5.5346668E-2,9.0587203E-4,2.8305754E-2,4.593388E-2,1.2052202E-2,7.198032E-3,-8.944083E-3,1.2231155E-3,-2.9886933E-3,-7.848311E-3,-3.159298E-3,-1.642952E-2,-1.0130168E-2,-1.1266093E-2,-5.073346E-2],"categories":[],"categories_nodes":[],"categories_segments":[],"categories_sizes":[],"default_left":[0,0,0,0,0,0,0,0,0,0,0,0,0,0,0,0,0,0,0,0,0,0,0,0,0,0,0,0,0,0,0],"id":20,"left_children":[1,3,5,7,9,11,13,15,17,19,21,23,25,27,29,-1,-1,-1,-1,-1,-1,-1,-1,-1,-1,-1,-1,-1,-1,-1,-1],"loss_changes":[1.0437886E2,1.5855202E1,2.2215225E1,2.5857086E0,4.8498E0,5.344048E0,3.3789062E0,1.356842E0,3.824339E0,4.7675476E0,2.5981007E0,2.1954803E0,2.4014072E0,2.6293488E0,1.8948841E-1,0E0,0E0,0E0,0E0,0E0,0E0,0E0,0E0,0E0,0E0,0E0,0E0,0E0,0E0,0E0,0E0],"parents":[2147483647,0,0,1,1,2,2,3,3,4,4,5,5,6,6,7,7,8,8,9,9,10,10,11,11,12,12,13,13,14,14],"right_children":[2,4,6,8,10,12,14,16,18,20,22,24,26,28,30,-1,-1,-1,-1,-1,-1,-1,-1,-1,-1,-1,-1,-1,-1,-1,-1],"split_conditions":[1.68E0,1.27E0,2.34E0,1.09E0,1.49E0,2E0,3.84E0,1.03E0,5.844573E-1,4.5814428E-1,9.274391E-2,5.5237186E-1,4.634565E-1,3.5850114E-1,2.727759E-1,3.6008412E-3,5.5346668E-2,9.0587203E-4,2.8305754E-2,4.593388E-2,1.2052202E-2,7.198032E-3,-8.944083E-3,1.2231155E-3,-2.9886933E-3,-7.848311E-3,-3.159298E-3,-1.642952E-2,-1.0130168E-2,-1.1266093E-2,-5.073346E-2],"split_indices":[1,1,1,1,1,1,1,1,0,0,2,0,0,0,0,0,0,0,0,0,0,0,0,0,0,0,0,0,0,0,0],"split_type":[0,0,0,0,0,0,0,0,0,0,0,0,0,0,0,0,0,0,0,0,0,0,0,0,0,0,0,0,0,0,0],"sum_hessian":[4.64386E3,1.5126687E3,3.1311914E3,1.27598045E2,1.3850707E3,2.3635183E3,7.6767303E2,1.2302332E1,1.15295715E2,5.8314716E2,8.019235E2,1.2625555E3,1.1009628E3,7.6135706E2,6.315992E0,1.5830386E0,1.0719293E1,1.4635823E1,1.0065989E2,9.719076E0,5.7342804E2,7.769882E2,2.4935297E1,7.2340393E2,5.391516E2,5.1127582E2,5.8968695E2,2.5281798E2,5.085391E2,1.0328679E0,5.283124E0],"tree_param":{"num_deleted":"0","num_feature":"6","num_nodes":"31","size_leaf_vector":"1"}},{"base_weights":[1.9703724E-4,1.7586073E-1,-1.1595904E-1,3.8264534E-1,1.2561627E-1,-7.504471E-2,-2.6152223E-1,9.640061E-1,3.5979888E-1,1.8847573E-1,8.261841E-2,-5.499762E-2,-1.5559307E-1,-3.2015693E-1,-1.7431064E-1,3.494059E-3,5.406321E-2,1.6520854E-2,3.7189644E-2,7.6417415E-3,1.4670188E-2,7.6658647E-3,1.826025E-3,-6.183679E-3,4.275557E-5,-9.686743E-3,5.467332E-4,-4.240287E-3,-1.8468676E-2,-1.0838455E-3,-1.5597135E-2],"categories":[],"categories_nodes":[],"categories_segments":[],"categories_sizes":[],"default_left":[0,0,0,0,0,0,0,0,0,0,0,0,0,0,0,0,0,0,0,0,0,0,0,0,0,0,0,0,0,0,0],"id":21,"left_children":[1,3,5,7,9,11,13,15,17,19,21,23,25,27,29,-1,-1,-1,-1,-1,-1,-1,-1,-1,-1,-1,-1,-1,-1,-1,-1],"loss_changes":[9.466512E1,1.91386E1,1.6612988E1,4.441387E0,4.004019E0,3.5139017E0,3.0755043E0,1.2911787E0,3.685814E0,2.2113113E0,2.8783145E0,6.7058935E0,2.7598495E0,4.1961823E0,5.2109714E0,0E0,0E0,0E0,0E0,0E0,0E0,0E0,0E0,0E0,0E0,0E0,0E0,0E0,0E0,0E0,0E0],"parents":[2147483647,0,0,1,1,2,2,3,3,4,4,5,5,6,6,7,7,8,8,9,9,10,10,11,11,12,12,13,13,14,14],"right_children":[2,4,6,8,10,12,14,16,18,20,22,24,26,28,30,-1,-1,-1,-1,-1,-1,-1,-1,-1,-1,-1,-1,-1,-1,-1,-1],"split_conditions":[1.76E0,1.37E0,2.41E0,1.09E0,1.56E0,7.548404E-2,3.8125705E-2,1.03E0,2.672668E-3,6.574896E-1,5.570326E-1,4.5814428E-1,6.5593636E-1,-7.284843E-2,9.5041595E-2,3.494059E-3,5.406321E-2,1.6520854E-2,3.7189644E-2,7.6417415E-3,1.4670188E-2,7.6658647E-3,1.826025E-3,-6.183679E-3,4.275557E-5,-9.686743E-3,5.467332E-4,-4.240287E-3,-1.8468676E-2,-1.0838455E-3,-1.5597135E-2],"split_indices":[1,1,1,1,1,2,2,1,2,0,0,0,0,2,2,0,0,0,0,0,0,0,0,0,0,0,0,0,0,0,0],"split_type":[0,0,0,0,0,0,0,0,0,0,0,0,0,0,0,0,0,0,0,0,0,0,0,0,0,0,0,0,0,0,0],"sum_hessian":[4.637446E3,1.8456865E3,2.7917593E3,3.5950464E2,1.4861819E3,2.180413E3,6.113464E2,1.2036013E1,3.4746863E2,6.0229333E2,8.838885E2,1.7472385E3,4.3317456E2,3.6396915E2,2.4737721E2,1.5804673E0,1.0455545E1,3.244996E2,2.2969038E1,4.514171E2,1.5087622E2,3.4793927E2,5.359492E2,7.831145E2,9.6412396E2,3.523161E2,8.085844E1,6.342016E1,3.0054898E2,1.178449E2,1.295323E2],"tree_param":{"num_deleted":"0","num_feature":"6","num_nodes":"31","size_leaf_vector":"1"}},{"base_weights":[2.0951318E-4,1.9650398E-1,-9.4353646E-2,5.155974E-1,1.6725148E-1,-4.0532842E-2,-2.0421682E-1,9.3989635E-1,4.6365806E-1,2.297016E-1,1.21792026E-1,-2.6202524E-1,-3.3562202E-2,-1.8180999E-1,-3.7320197E-1,3.3904375E-3,5.2839335E-2,9.210783E-5,2.6559908E-2,4.4154763E-2,1.0861751E-2,-9.697187E-3,6.5607815E-3,1.0767155E-2,-2.3633728E-2,1.836082E-3,-2.8097215E-3,-3.2479123E-3,-1.0051156E-2,-1.6818115E-2,-4.5208678E-2],"categories":[],"categories_nodes":[],"categories_segments":[],"categories_sizes":[],"default_left":[0,0,0,0,0,0,0,0,0,0,0,0,0,0,0,0,0,0,0,0,0,0,0,0,0,0,0,0,0,0,0],"id":22,"left_children":[1,3,5,7,9,11,13,15,17,19,21,23,25,27,29,-1,-1,-1,-1,-1,-1,-1,-1,-1,-1,-1,-1,-1,-1,-1,-1],"loss_changes":[8.600755E1,1.3975178E1,1.8481714E1,2.3414726E0,3.8937607E0,3.2336302E0,3.824417E0,1.2301645E0,3.562664E0,4.5392838E0,2.4104538E0,6.530321E0,3.2425387E0,2.0289803E0,2.0313473E0,0E0,0E0,0E0,0E0,0E0,0E0,0E0,0E0,0E0,0E0,0E0,0E0,0E0,0E0,0E0,0E0],"parents":[2147483647,0,0,1,1,2,2,3,3,4,4,5,5,6,6,7,7,8,8,9,9,10,10,11,11,12,12,13,13,14,14],"right_children":[2,4,6,8,10,12,14,16,18,20,22,24,26,28,30,-1,-1,-1,-1,-1,-1,-1,-1,-1,-1,-1,-1,-1,-1,-1,-1],"split_conditions":[1.68E0,1.27E0,2.23E0,1.09E0,1.49E0,3.525615E-1,2.97E0,1.03E0,5.844573E-1,4.5814428E-1,4.331109E-1,2.9100314E-1,-5.858399E-2,3.2534614E-1,3.84E0,3.3904375E-3,5.2839335E-2,9.210783E-5,2.6559908E-2,4.4154763E-2,1.0861751E-2,-9.697187E-3,6.5607815E-3,1.0767155E-2,-2.3633728E-2,1.836082E-3,-2.8097215E-3,-3.2479123E-3,-1.0051156E-2,-1.6818115E-2,-4.5208678E-2],"split_indices":[1,1,1,1,1,0,1,1,0,0,0,0,2,0,1,0,0,0,0,0,0,0,0,0,0,0,0,0,0,0,0],"split_type":[0,0,0,0,0,0,0,0,0,0,0,0,0,0,0,0,0,0,0,0,0,0,0,0,0,0,0,0,0,0,0],"sum_hessian":[4.6314736E3,1.5054268E3,3.126047E3,1.2502267E2,1.380404E3,2.0990928E3,1.0269542E3,1.1770667E1,1.13252E2,5.7982056E2,8.005835E2,6.2929043E1,2.0361637E3,9.0855853E2,1.1839572E2,1.5779692E0,1.0192698E1,1.4580791E1,9.86712E1,9.548176E0,5.702724E2,2.2634624E1,7.7794885E2,1.9260065E1,4.3668976E1,4.9581122E2,1.5403525E3,1.2891222E2,7.7964636E2,1.1224169E2,6.154026E0],"tree_param":{"num_deleted":"0","num_feature":"6","num_nodes":"31","size_leaf_vector":"1"}},{"base_weights":[2.1330988E-4,1.6009176E-1,-1.0528535E-1,3.5213417E-1,1.1388779E-1,-6.780349E-2,-2.392966E-1,9.167492E-1,3.306309E-1,8.995376E-2,2.1309263E-1,-4.894697E-2,-1.4360401E-1,-3.3243066E-1,-1.854369E-1,3.2898448E-3,5.16687E-2,1.5106255E-2,3.535958E-2,5.3414106E-3,-1.6412795E-2,2.014052E-2,6.271658E-3,-5.6982515E-3,1.9398764E-4,-8.984573E-3,6.877426E-4,-8.901171E-3,-2.8663177E-2,-8.5375225E-3,-5.2259315E-2],"categories":[],"categories_nodes":[],"categories_segments":[],"categories_sizes":[],"default_left":[0,0,0,0,0,0,0,0,0,0,0,0,0,0,0,0,0,0,0,0,0,0,0,0,0,0,0,0,0,0,0],"id":23,"left_children":[1,3,5,7,9,11,13,15,17,19,21,23,25,27,29,-1,-1,-1,-1,-1,-1,-1,-1,-1,-1,-1,-1,-1,-1,-1,-1],"loss_changes":[7.805233E1,1.6283234E1,1.3987324E1,4.0226326E0,3.5052261E0,3.10886E0,2.992859E0,1.1732578E0,3.4872894E0,8.486406E0,4.735361E0,6.001566E0,2.465599E0,8.147947E0,4.7216406E0,0E0,0E0,0E0,0E0,0E0,0E0,0E0,0E0,0E0,0E0,0E0,0E0,0E0,0E0,0E0,0E0],"parents":[2147483647,0,0,1,1,2,2,3,3,4,4,5,5,6,6,7,7,8,8,9,9,10,10,11,11,12,12,13,13,14,14],"right_children":[2,4,6,8,10,12,14,16,18,20,22,24,26,28,30,-1,-1,-1,-1,-1,-1,-1,-1,-1,-1,-1,-1,-1,-1,-1,-1],"split_conditions":[1.76E0,1.37E0,2.41E0,1.09E0,6.5285087E-1,7.548404E-2,3.5850114E-1,1.03E0,2.672668E-3,6.462522E-1,6.6776067E-1,4.5814428E-1,6.5593636E-1,3.2534614E-1,3.55E0,3.2898448E-3,5.16687E-2,1.5106255E-2,3.535958E-2,5.3414106E-3,-1.6412795E-2,2.014052E-2,6.271658E-3,-5.6982515E-3,1.9398764E-4,-8.984573E-3,6.877426E-4,-8.901171E-3,-2.8663177E-2,-8.5375225E-3,-5.2259315E-2],"split_indices":[1,1,1,1,0,2,0,1,2,0,0,0,0,0,1,0,0,0,0,0,0,0,0,0,0,0,0,0,0,0,0],"split_type":[0,0,0,0,0,0,0,0,0,0,0,0,0,0,0,0,0,0,0,0,0,0,0,0,0,0,0,0,0,0,0],"sum_hessian":[4.625529E3,1.8386382E3,2.7868906E3,3.5528955E2,1.4833486E3,2.1789592E3,6.079313E2,1.1507304E1,3.4378223E2,1.196572E3,2.867766E2,1.7462094E3,4.3274997E2,2.2085577E2,3.870755E2,1.5755413E0,9.931763E0,3.2126468E2,2.2517544E1,1.1508795E3,4.56926E1,8.949377E1,1.9728284E2,7.82261E2,9.639483E2,3.5190494E2,8.084504E1,1.3563448E2,8.52213E1,3.817529E2,5.322598E0],"tree_param":{"num_deleted":"0","num_feature":"6","num_nodes":"31","size_leaf_vector":"1"}},{"base_weights":[2.070292E-4,1.7912087E-1,-8.573263E-2,4.815839E-1,1.5185432E-1,-4.5955043E-2,-2.0910724E-1,1.3288744E-2,5.186364E-1,1.9849414E-1,9.955768E-2,-8.780341E-3,-8.861335E-2,-2.0283197E-1,-8.6342615E-1,2.5158918E-2,-2.7801085E-2,4.209302E-2,2.392391E-2,1.7599916E-2,8.665378E-3,-1.1806499E-2,5.5418247E-3,2.6922166E-2,-5.9089414E-4,-4.1508176E-3,-2.43222E-2,-3.0506706E-2,-9.7244E-3,-1.7982198E-2,-5.2171167E-2],"categories":[],"categories_nodes":[],"categories_segments":[],"categories_sizes":[],"default_left":[0,0,0,0,0,0,0,0,0,0,0,0,0,0,0,0,0,0,0,0,0,0,0,0,0,0,0,0,0,0,0],"id":24,"left_children":[1,3,5,7,9,11,13,15,17,19,21,23,25,27,29,-1,-1,-1,-1,-1,-1,-1,-1,-1,-1,-1,-1,-1,-1,-1,-1],"loss_changes":[7.106628E1,1.2295349E1,1.5312857E1,2.137024E0,3.3393097E0,3.7453632E0,2.9493065E0,3.0926628E0,1.0830517E0,2.7495747E0,2.4918027E0,2.1063817E0,2.4087286E0,2.4472733E0,2.523713E-1,0E0,0E0,0E0,0E0,0E0,0E0,0E0,0E0,0E0,0E0,0E0,0E0,0E0,0E0,0E0,0E0],"parents":[2147483647,0,0,1,1,2,2,3,3,4,4,5,5,6,6,7,7,8,8,9,9,10,10,11,11,12,12,13,13,14,14],"right_children":[2,4,6,8,10,12,14,16,18,20,22,24,26,28,30,-1,-1,-1,-1,-1,-1,-1,-1,-1,-1,-1,-1,-1,-1,-1,-1],"split_conditions":[1.68E0,1.27E0,2.34E0,5.505347E-1,1.53E0,2E0,3.84E0,5.3953505E-1,1.09E0,5.5380166E-1,4.331109E-1,2.9100314E-1,7.01463E-1,-1.8814965E-1,3.561735E-1,2.5158918E-2,-2.7801085E-2,4.209302E-2,2.392391E-2,1.7599916E-2,8.665378E-3,-1.1806499E-2,5.5418247E-3,2.6922166E-2,-5.9089414E-4,-4.1508176E-3,-2.43222E-2,-3.0506706E-2,-9.7244E-3,-1.7982198E-2,-5.2171167E-2],"split_indices":[1,1,1,0,1,1,1,0,1,0,0,0,0,2,0,0,0,0,0,0,0,0,0,0,0,0,0,0,0,0,0],"split_type":[0,0,0,0,0,0,0,0,0,0,0,0,0,0,0,0,0,0,0,0,0,0,0,0,0,0,0,0,0,0,0],"sum_hessian":[4.619959E3,1.4987324E3,3.1212266E3,1.22557846E2,1.3761746E3,2.3612888E3,7.599379E2,9.085665E0,1.1347218E2,7.2595197E2,6.502226E2,1.2623854E3,1.0989033E3,7.540165E2,5.921444E0,4.945898E0,4.139766E0,1.0333871E1,1.0313831E2,1.004945E2,6.2545746E2,2.0488678E1,6.2973395E2,5.9955955E0,1.2563898E3,1.0848495E3,1.4053877E1,1.3688822E1,7.4032764E2,2.3479567E0,3.5734873E0],"tree_param":{"num_deleted":"0","num_feature":"6","num_nodes":"31","size_leaf_vector":"1"}},{"base_weights":[1.9410062E-4,1.7062514E-1,-8.154639E-2,4.4910675E-1,1.4317644E-1,-4.8535585E-2,-2.1851707E-1,8.7527007E-1,4.0375367E-1,1.1462988E-1,2.3841491E-1,-8.320466E-3,-8.904714E-2,-2.7593037E-1,-1.3620512E-1,1.9408691E-3,4.974098E-2,5.750724E-3,2.425324E-2,8.107695E-3,9.722427E-4,1.39046E-2,2.9044037E-3,2.5784397E-2,-5.6137337E-4,-4.190636E-3,-2.508694E-2,-1.257626E-2,-3.6417816E-2,-4.527979E-3,-2.7078485E-2],"categories":[],"categories_nodes":[],"categories_segments":[],"categories_sizes":[],"default_left":[0,0,0,0,0,0,0,0,0,0,0,0,0,0,0,0,0,0,0,0,0,0,0,0,0,0,0,0,0,0,0],"id":25,"left_children":[1,3,5,7,9,11,13,15,17,19,21,23,25,27,29,-1,-1,-1,-1,-1,-1,-1,-1,-1,-1,-1,-1,-1,-1,-1,-1],"loss_changes":[6.430971E1,1.1373692E1,1.4096149E1,2.23242E0,3.6798153E0,4.097143E0,2.8244133E0,1.1625652E0,2.8266888E0,4.7512503E0,2.2270985E0,1.9302822E0,2.6645412E0,3.7452602E0,4.591918E0,0E0,0E0,0E0,0E0,0E0,0E0,0E0,0E0,0E0,0E0,0E0,0E0,0E0,0E0,0E0,0E0],"parents":[2147483647,0,0,1,1,2,2,3,3,4,4,5,5,6,6,7,7,8,8,9,9,10,10,11,11,12,12,13,13,14,14],"right_children":[2,4,6,8,10,12,14,16,18,20,22,24,26,28,30,-1,-1,-1,-1,-1,-1,-1,-1,-1,-1,-1,-1,-1,-1,-1,-1],"split_conditions":[1.68E0,1.28E0,2.41E0,1.09E0,6.574896E-1,2E0,3.690006E-2,1.03E0,-2.1878488E-1,-5.096191E-2,1.58E0,2.9100314E-1,7.01463E-1,3.1061232E-2,3.28E0,1.9408691E-3,4.974098E-2,5.750724E-3,2.425324E-2,8.107695E-3,9.722427E-4,1.39046E-2,2.9044037E-3,2.5784397E-2,-5.6137337E-4,-4.190636E-3,-2.508694E-2,-1.257626E-2,-3.6417816E-2,-4.527979E-3,-2.7078485E-2],"split_indices":[1,1,1,1,0,1,2,1,2,2,1,0,0,2,1,0,0,0,0,0,0,0,0,0,0,0,0,0,0,0,0],"split_type":[0,0,0,0,0,0,0,0,0,0,0,0,0,0,0,0,0,0,0,0,0,0,0,0,0,0,0,0,0,0,0],"sum_hessian":[4.614265E3,1.4953448E3,3.1189202E3,1.3278714E2,1.3625577E3,2.5143098E3,6.046103E2,1.1012105E1,1.2177503E2,1.0500283E3,3.1252942E2,1.2623761E3,1.2519337E3,3.5478934E2,2.4982094E2,1.5427362E0,9.469369E0,2.728816E1,9.448687E1,6.998857E2,3.5014264E2,2.5572125E2,5.6808167E1,5.991377E0,1.2563848E3,1.2374415E3,1.4492155E1,3.381068E2,1.668252E1,2.2563681E2,2.4184132E1],"tree_param":{"num_deleted":"0","num_feature":"6","num_nodes":"31","size_leaf_vector":"1"}},{"base_weights":[1.9272693E-4,1.3901596E-1,-9.115447E-2,3.112327E-1,9.81668E-2,-5.862233E-2,-2.083193E-1,8.54298E-1,2.9151106E-1,1.4683749E-1,5.423242E-2,3.490337E-2,-6.0317058E-2,-2.0094466E-1,-8.323799E-1,1.8830693E-3,4.8689764E-2,1.3193654E-2,3.3086594E-2,6.401632E-3,3.2148648E-2,-6.170039E-4,8.770818E-3,-1.0669309E-2,-2.5820413E-3,-1.3072329E-2,-5.504928E-3,-1.682547E-2,-5.071327E-2],"categories":[],"categories_nodes":[],"categories_segments":[],"categories_sizes":[],"default_left":[0,0,0,0,0,0,0,0,0,0,0,0,0,0,0,0,0,0,0,0,0,0,0,0,0,0,0,0,0],"id":26,"left_children":[1,3,5,7,9,11,13,15,17,19,21,-1,23,25,27,-1,-1,-1,-1,-1,-1,-1,-1,-1,-1,-1,-1,-1,-1],"loss_changes":[5.846848E1,1.28421135E1,1.0587332E1,3.5033073E0,3.157755E0,2.8350143E0,2.612215E0,1.1108818E0,3.3001804E0,6.465212E0,6.2922535E0,0E0,2.8761344E0,3.2591763E0,2.6615953E-1,0E0,0E0,0E0,0E0,0E0,0E0,0E0,0E0,0E0,0E0,0E0,0E0,0E0,0E0],"parents":[2147483647,0,0,1,1,2,2,3,3,4,4,5,5,6,6,7,7,8,8,9,9,10,10,12,12,13,13,14,14],"right_children":[2,4,6,8,10,12,14,16,18,20,22,-1,24,26,28,-1,-1,-1,-1,-1,-1,-1,-1,-1,-1,-1,-1,-1,-1],"split_conditions":[1.76E0,1.37E0,2.41E0,1.09E0,-5.096191E-2,-3.1102127E-1,3.84E0,1.03E0,2.672668E-3,6.366054E-1,6.5285087E-1,3.490337E-2,-1.3199894E-1,3.8125705E-2,3.561735E-1,1.8830693E-3,4.8689764E-2,1.3193654E-2,3.3086594E-2,6.401632E-3,3.2148648E-2,-6.170039E-4,8.770818E-3,-1.0669309E-2,-2.5820413E-3,-1.3072329E-2,-5.504928E-3,-1.682547E-2,-5.071327E-2],"split_indices":[1,1,1,1,2,2,1,1,2,0,0,0,2,2,0,0,0,0,0,0,0,0,0,0,0,0,0,0,0],"split_type":[0,0,0,0,0,0,0,0,0,0,0,0,0,0,0,0,0,0,0,0,0,0,0,0,0,0,0,0,0],"sum_hessian":[4.6086753E3,1.828827E3,2.7798481E3,3.49355E2,1.479472E3,2.176906E3,6.0294214E2,1.0759447E1,3.3859558E2,7.007909E2,7.786811E2,3.9464E0,2.1729595E3,5.9720685E2,5.735313E0,1.5413213E0,9.218125E0,3.1666818E2,2.192739E1,6.764112E2,2.437971E1,5.031651E2,2.7551602E2,1.1529474E2,2.0576648E3,3.5734406E2,2.398628E2,2.3040228E0,3.4312901E0],"tree_param":{"num_deleted":"0","num_feature":"6","num_nodes":"29","size_leaf_vector":"1"}},{"base_weights":[2.034773E-4,1.3237894E-1,-8.6689286E-2,2.9761153E-1,9.336763E-2,-5.5693652E-2,-1.9859704E-1,8.3398926E-1,2.784607E-1,1.3971992E-1,5.1556192E-2,-3.4223986E-1,-5.1261596E-2,-1.9142587E-1,-8.1454587E-1,1.8269754E-3,4.7674004E-2,1.2590746E-2,3.1932242E-2,6.087991E-3,3.0815724E-2,-5.5459985E-3,4.9320925E-3,-5.730299E-2,-1.3384329E-2,-4.2197542E-4,-4.090945E-3,-1.24631105E-2,-5.2378825E-3,-1.6333617E-2,-4.9810346E-2],"categories":[],"categories_nodes":[],"categories_segments":[],"categories_sizes":[],"default_left":[0,0,0,0,0,0,0,0,0,0,0,0,0,0,0,0,0,0,0,0,0,0,0,0,0,0,0,0,0,0,0],"id":27,"left_children":[1,3,5,7,9,11,13,15,17,19,21,23,25,27,29,-1,-1,-1,-1,-1,-1,-1,-1,-1,-1,-1,-1,-1,-1,-1,-1],"loss_changes":[5.2894997E1,1.1747475E1,9.62751E0,3.3471985E0,2.8597803E0,2.7477822E0,2.5045757E0,1.0620537E0,3.0826302E0,5.9250727E0,5.9730854E0,1.6702008E0,2.8066936E0,2.9648762E0,2.6168966E-1,0E0,0E0,0E0,0E0,0E0,0E0,0E0,0E0,0E0,0E0,0E0,0E0,0E0,0E0,0E0,0E0],"parents":[2147483647,0,0,1,1,2,2,3,3,4,4,5,5,6,6,7,7,8,8,9,9,10,10,11,11,12,12,13,13,14,14],"right_children":[2,4,6,8,10,12,14,16,18,20,22,24,26,28,30,-1,-1,-1,-1,-1,-1,-1,-1,-1,-1,-1,-1,-1,-1,-1,-1],"split_conditions":[1.76E0,1.37E0,2.41E0,1.09E0,-5.096191E-2,1.77E0,3.84E0,1.03E0,2.672668E-3,6.366054E-1,5.916139E-1,3.9799863E-1,2E0,3.8125705E-2,3.561735E-1,1.8269754E-3,4.7674004E-2,1.2590746E-2,3.1932242E-2,6.087991E-3,3.0815724E-2,-5.5459985E-3,4.9320925E-3,-5.730299E-2,-1.3384329E-2,-4.2197542E-4,-4.090945E-3,-1.24631105E-2,-5.2378825E-3,-1.6333617E-2,-4.9810346E-2],"split_indices":[1,1,1,1,2,1,1,1,2,0,0,0,1,2,0,0,0,0,0,0,0,0,0,0,0,0,0,0,0,0,0],"split_type":[0,0,0,0,0,0,0,0,0,0,0,0,0,0,0,0,0,0,0,0,0,0,0,0,0,0,0,0,0,0,0],"sum_hessian":[4.6035366E3,1.8257716E3,2.7777651E3,3.4746268E2,1.478309E3,2.1764426E3,6.013223E2,1.0511353E1,3.3695132E2,6.9997394E2,7.78335E2,3.1989687E1,2.1444531E3,5.956977E2,5.62461E0,1.5399475E0,8.971405E0,3.153234E2,2.1627949E1,6.757638E2,2.4210161E1,1.7457657E2,6.037585E2,1.4952979E0,3.0494389E1,8.9354364E2,1.2509093E3,3.5615118E2,2.3954654E2,2.2853272E0,3.3392825E0],"tree_param":{"num_deleted":"0","num_feature":"6","num_nodes":"31","size_leaf_vector":"1"}},{"base_weights":[1.9000516E-4,1.4790204E-1,-7.036416E-2,4.2042708E-1,1.2408883E-1,-2.914151E-2,-1.5540099E-1,-2.6166042E-2,4.5708558E-1,1.0681773E-1,2.3197488E-1,-2.3401976E-1,-2.2721253E-2,-1.3843189E-1,-3.2799113E-1,2.2557473E-2,-2.8262693E-2,1.7480373E-2,2.8412456E-2,7.89192E-3,2.9271091E-3,1.8584862E-2,7.0939804E-3,1.0379988E-2,-2.1488443E-2,2.0988493E-3,-2.178162E-3,-1.0204077E-3,-7.917569E-3,-2.456549E-2,-5.887482E-3],"categories":[],"categories_nodes":[],"categories_segments":[],"categories_sizes":[],"default_left":[0,0,0,0,0,0,0,0,0,0,0,0,0,0,0,0,0,0,0,0,0,0,0,0,0,0,0,0,0,0,0],"id":28,"left_children":[1,3,5,7,9,11,13,15,17,19,21,23,25,27,29,-1,-1,-1,-1,-1,-1,-1,-1,-1,-1,-1,-1,-1,-1,-1,-1],"loss_changes":[4.794394E1,9.598457E0,1.0909067E1,1.9614601E0,2.5260754E0,2.7544408E0,2.93087E0,2.8227553E0,1.1167774E0,2.9019117E0,2.3146343E0,5.590878E0,2.7464979E0,2.1761208E0,3.0407515E0,0E0,0E0,0E0,0E0,0E0,0E0,0E0,0E0,0E0,0E0,0E0,0E0,0E0,0E0,0E0,0E0],"parents":[2147483647,0,0,1,1,2,2,3,3,4,4,5,5,6,6,7,7,8,8,9,9,10,10,11,11,12,12,13,13,14,14],"right_children":[2,4,6,8,10,12,14,16,18,20,22,24,26,28,30,-1,-1,-1,-1,-1,-1,-1,-1,-1,-1,-1,-1,-1,-1,-1,-1],"split_conditions":[1.68E0,1.27E0,2.23E0,5.505347E-1,6.829078E-1,3.525615E-1,3.02E0,5.3953505E-1,1.21E0,-7.585543E-2,1.39E0,2.9100314E-1,-5.858399E-2,3.2534614E-1,5.4344438E-2,2.2557473E-2,-2.8262693E-2,1.7480373E-2,2.8412456E-2,7.89192E-3,2.9271091E-3,1.8584862E-2,7.0939804E-3,1.0379988E-2,-2.1488443E-2,2.0988493E-3,-2.178162E-3,-1.0204077E-3,-7.917569E-3,-2.456549E-2,-5.887482E-3],"split_indices":[1,1,1,0,0,0,1,0,1,2,1,0,2,0,2,0,0,0,0,0,0,0,0,0,0,0,0,0,0,0,0],"split_type":[0,0,0,0,0,0,0,0,0,0,0,0,0,0,0,0,0,0,0,0,0,0,0,0,0,0,0,0,0,0,0],"sum_hessian":[4.598397E3,1.4860693E3,3.1123274E3,1.18079475E2,1.3679899E3,2.0970833E3,1.01524426E3,8.978981E0,1.09100494E2,1.1809291E3,1.8706076E2,6.2642246E1,2.0344409E3,9.2600165E2,8.9242615E1,4.8488603E0,4.1301203E0,5.757718E1,5.1523315E1,5.7303723E2,6.0789185E2,7.2108E1,1.1495277E2,1.9220139E1,4.3422108E1,4.9544708E2,1.5389939E3,1.3401022E2,7.9199146E2,4.947378E1,3.9768833E1],"tree_param":{"num_deleted":"0","num_feature":"6","num_nodes":"31","size_leaf_vector":"1"}},{"base_weights":[1.8904384E-4,1.2042469E-1,-7.8712314E-2,4.039671E-1,1.0073926E-1,-5.0311744E-2,-1.8168251E-1,8.062021E-1,3.5850483E-1,7.305253E-2,1.9455045E-1,-3.2941844E-2,-1.2020921E-1,-1.74711E-1,-7.920961E-1,1.2513286E-3,4.6360698E-2,9.081734E-3,2.5973314E-2,4.476266E-3,-1.5242449E-2,1.651263E-2,7.111147E-3,-4.6045985E-3,7.505461E-4,-7.759557E-3,1.599817E-3,-1.1556087E-2,-4.6615335E-3,-1.5360208E-2,-4.884323E-2],"categories":[],"categories_nodes":[],"categories_segments":[],"categories_sizes":[],"default_left":[0,0,0,0,0,0,0,0,0,0,0,0,0,0,0,0,0,0,0,0,0,0,0,0,0,0,0,0,0,0,0],"id":29,"left_children":[1,3,5,7,9,11,13,15,17,19,21,23,25,27,29,-1,-1,-1,-1,-1,-1,-1,-1,-1,-1,-1,-1,-1,-1,-1,-1],"loss_changes":[4.359531E1,1.0122192E1,8.104994E0,1.8664284E0,4.41136E0,2.6381516E0,2.4125843E0,1.032587E0,2.97186E0,8.227087E0,2.705925E0,4.949208E0,2.3092356E0,2.708538E0,2.8100443E-1,0E0,0E0,0E0,0E0,0E0,0E0,0E0,0E0,0E0,0E0,0E0,0E0,0E0,0E0,0E0,0E0],"parents":[2147483647,0,0,1,1,2,2,3,3,4,4,5,5,6,6,7,7,8,8,9,9,10,10,11,11,12,12,13,13,14,14],"right_children":[2,4,6,8,10,12,14,16,18,20,22,24,26,28,30,-1,-1,-1,-1,-1,-1,-1,-1,-1,-1,-1,-1,-1,-1,-1,-1],"split_conditions":[1.76E0,1.27E0,2.41E0,1.09E0,6.5285087E-1,7.548404E-2,3.84E0,1.03E0,1.21E0,6.462522E-1,6.6776067E-1,4.5814428E-1,6.5593636E-1,3.690006E-2,3.561735E-1,1.2513286E-3,4.6360698E-2,9.081734E-3,2.5973314E-2,4.476266E-3,-1.5242449E-2,1.651263E-2,7.111147E-3,-4.6045985E-3,7.505461E-4,-7.759557E-3,1.599817E-3,-1.1556087E-2,-4.6615335E-3,-1.5360208E-2,-4.884323E-2],"split_indices":[1,1,1,1,0,2,1,1,1,0,0,0,0,2,0,0,0,0,0,0,0,0,0,0,0,0,0,0,0,0,0],"split_type":[0,0,0,0,0,0,0,0,0,0,0,0,0,0,0,0,0,0,0,0,0,0,0,0,0,0,0,0,0,0,0],"sum_hessian":[4.593387E3,1.8197671E3,2.77362E3,1.16871216E2,1.7028959E3,2.175168E3,5.984521E2,1.0168682E1,1.0670253E2,1.3162164E3,3.8667953E2,1.7433959E3,4.3177206E2,5.9296606E2,5.486032E0,1.5258137E0,8.642869E0,5.1853024E1,5.4849506E1,1.26197E3,5.4246395E1,1.06132484E2,2.8054703E2,7.8015186E2,9.632441E2,3.5106577E2,8.0706276E1,3.493006E2,2.4366547E2,2.2483318E0,3.2377002E0],"tree_param":{"num_deleted":"0","num_feature":"6","num_nodes":"31","size_leaf_vector":"1"}},{"base_weights":[1.832954E-4,1.3482982E-1,-6.397397E-2,3.882896E-1,1.13064356E-1,-2.6659874E-2,-1.4119364E-1,6.418538E-2,4.3855634E-1,9.6870504E-2,2.1452874E-1,6.126871E-1,-2.8460337E-2,-1.3029087E-1,-3.8897443E-1,4.750168E-2,-6.015625E-3,2.531804E-2,1.4295562E-2,7.289644E-3,2.5323837E-3,1.7841544E-2,6.6061094E-3,4.3157466E-2,9.19773E-3,-1.49604445E-2,-1.0327286E-3,-1.2003165E-3,-7.54596E-3,-1.0826785E-2,-3.3560943E-2],"categories":[],"categories_nodes":[],"categories_segments":[],"categories_sizes":[],"default_left":[0,0,0,0,0,0,0,0,0,0,0,0,0,0,0,0,0,0,0,0,0,0,0,0,0,0,0,0,0,0,0],"id":30,"left_children":[1,3,5,7,9,11,13,15,17,19,21,23,25,27,29,-1,-1,-1,-1,-1,-1,-1,-1,-1,-1,-1,-1,-1,-1,-1,-1],"loss_changes":[3.9657448E1,8.129105E0,8.95515E0,1.8739128E0,2.223299E0,2.4319243E0,2.685213E0,2.8678136E0,8.995743E-1,2.660099E0,2.147521E0,4.7848392E-1,4.416269E0,2.1264744E0,1.907556E0,0E0,0E0,0E0,0E0,0E0,0E0,0E0,0E0,0E0,0E0,0E0,0E0,0E0,0E0,0E0,0E0],"parents":[2147483647,0,0,1,1,2,2,3,3,4,4,5,5,6,6,7,7,8,8,9,9,10,10,11,11,12,12,13,13,14,14],"right_children":[2,4,6,8,10,12,14,16,18,20,22,24,26,28,30,-1,-1,-1,-1,-1,-1,-1,-1,-1,-1,-1,-1,-1,-1,-1,-1],"split_conditions":[1.68E0,1.27E0,2.23E0,5.844573E-1,6.829078E-1,1.9757885E-1,3.28E0,1.12E0,7.3074365E-1,-7.585543E-2,1.38E0,2.14E0,3.525615E-1,-6.400759E-2,3.8154647E-1,4.750168E-2,-6.015625E-3,2.531804E-2,1.4295562E-2,7.289644E-3,2.5323837E-3,1.7841544E-2,6.6061094E-3,4.3157466E-2,9.19773E-3,-1.49604445E-2,-1.0327286E-3,-1.2003165E-3,-7.54596E-3,-1.0826785E-2,-3.3560943E-2],"split_indices":[1,1,1,0,0,0,1,1,0,2,1,1,0,2,0,0,0,0,0,0,0,0,0,0,0,0,0,0,0,0,0],"split_type":[0,0,0,0,0,0,0,0,0,0,0,0,0,0,0,0,0,0,0,0,0,0,0,0,0,0,0,0,0,0,0],"sum_hessian":[4.5887524E3,1.4805106E3,3.1082417E3,1.1575061E2,1.36476E3,2.0965107E3,1.0117309E3,1.5847537E1,9.9903076E1,1.1786074E3,1.8615253E2,4.9345937E0,2.0915762E3,9.7055084E2,4.1180065E1,2.0164518E0,1.3831085E1,6.7571014E1,3.2332058E1,5.7153705E2,6.070704E2,6.704576E1,1.1910677E2,2.47529E0,2.4593036E0,5.756488E1,2.0340112E3,1.5810443E2,8.124464E2,2.6659496E1,1.4520568E1],"tree_param":{"num_deleted":"0","num_feature":"6","num_nodes":"31","size_leaf_vector":"1"}},{"base_weights":[1.9842898E-4,1.1405653E-1,-6.866595E-2,3.7329978E-1,9.5411964E-2,-4.2949203E-2,-1.6603327E-1,7.7508384E-1,3.287527E-1,6.9966316E-2,1.7791936E-1,-2.6597096E-2,-1.10525995E-1,-2.489646E-1,-1.18512794E-1,5.637696E-4,4.489732E-2,-4.608214E-3,1.956458E-2,4.0426445E-3,-2.0653455E-2,8.195358E-3,4.046801E-2,-1.6400882E-3,2.0495947E-2,-1.5243364E-2,-4.2336225E-3,-4.9793427E-3,-2.4217837E-2,-5.291438E-3,-4.6796795E-2],"categories":[],"categories_nodes":[],"categories_segments":[],"categories_sizes":[],"default_left":[0,0,0,0,0,0,0,0,0,0,0,0,0,0,0,0,0,0,0,0,0,0,0,0,0,0,0,0,0,0,0],"id":31,"left_children":[1,3,5,7,9,11,13,15,17,19,21,23,25,27,29,-1,-1,-1,-1,-1,-1,-1,-1,-1,-1,-1,-1,-1,-1,-1,-1],"loss_changes":[3.595812E1,8.318499E0,7.148366E0,1.8146057E0,3.3755798E0,2.4965563E0,2.322132E0,1.0036879E0,2.8215714E0,6.52794E0,3.227172E0,4.949725E0,2.186854E0,7.563095E0,3.8539166E0,0E0,0E0,0E0,0E0,0E0,0E0,0E0,0E0,0E0,0E0,0E0,0E0,0E0,0E0,0E0,0E0],"parents":[2147483647,0,0,1,1,2,2,3,3,4,4,5,5,6,6,7,7,8,8,9,9,10,10,11,11,12,12,13,13,14,14],"right_children":[2,4,6,8,10,12,14,16,18,20,22,24,26,28,30,-1,-1,-1,-1,-1,-1,-1,-1,-1,-1,-1,-1,-1,-1,-1,-1],"split_conditions":[1.74E0,1.27E0,2.41E0,1.09E0,6.5285087E-1,7.548404E-2,3.5850114E-1,1.03E0,1.14E0,6.492111E-1,1.73E0,7.2134964E-2,8.370871E-2,3.2534614E-1,3.55E0,5.637696E-4,4.489732E-2,-4.608214E-3,1.956458E-2,4.0426445E-3,-2.0653455E-2,8.195358E-3,4.046801E-2,-1.6400882E-3,2.0495947E-2,-1.5243364E-2,-4.2336225E-3,-4.9793427E-3,-2.4217837E-2,-5.291438E-3,-4.6796795E-2],"split_indices":[1,1,1,1,0,2,0,1,1,0,1,2,2,0,1,0,0,0,0,0,0,0,0,0,0,0,0,0,0,0,0],"split_type":[0,0,0,0,0,0,0,0,0,0,0,0,0,0,0,0,0,0,0,0,0,0,0,0,0,0,0,0,0,0,0],"sum_hessian":[4.5840464E3,1.7273865E3,2.8566602E3,1.1462077E2,1.6127657E3,2.2609397E3,5.9572046E2,9.803224E0,1.0481755E2,1.2340325E3,3.787332E2,1.8215563E3,4.3938336E2,2.1546252E2,3.802579E2,1.5096779E0,8.293546E0,1.3497715E1,9.131983E1,1.2076473E3,2.6385147E1,3.7174347E2,6.989722E0,1.7969393E3,2.4616964E1,5.0321827E1,3.8906152E2,1.3268492E2,8.2777596E1,3.7555978E2,4.6981297E0],"tree_param":{"num_deleted":"0","num_feature":"6","num_nodes":"31","size_leaf_vector":"1"}},{"base_weights":[1.9230315E-4,1.2290476E-1,-5.814198E-2,3.585462E-1,1.0300392E-1,-2.4065644E-2,-1.2887183E-1,1.4883667E-1,4.3471408E-1,1.3680412E-1,6.1563298E-2,5.921147E-1,-2.5802404E-2,-1.2489876E-1,-7.502678E-1,2.9751677E-2,1.9306934E-3,2.6585385E-2,1.3002775E-2,1.4460452E-2,5.5229273E-3,2.5314317E-4,7.1298624E-3,4.1692097E-2,8.922941E-3,-1.4182826E-2,-9.191762E-4,-9.975464E-3,-4.76738E-3,-1.4309475E-2,-4.6728615E-2],"categories":[],"categories_nodes":[],"categories_segments":[],"categories_sizes":[],"default_left":[0,0,0,0,0,0,0,0,0,0,0,0,0,0,0,0,0,0,0,0,0,0,0,0,0,0,0,0,0,0,0],"id":32,"left_children":[1,3,5,7,9,11,13,15,17,19,21,23,25,27,29,-1,-1,-1,-1,-1,-1,-1,-1,-1,-1,-1,-1,-1,-1,-1,-1],"loss_changes":[3.2798256E1,6.886072E0,7.481902E0,1.7652721E0,1.9003439E0,2.2594428E0,2.3985786E0,1.5530306E0,1.2766314E0,2.9783783E0,2.8104026E0,4.447298E-1,3.9969597E0,2.195241E0,2.640078E-1,0E0,0E0,0E0,0E0,0E0,0E0,0E0,0E0,0E0,0E0,0E0,0E0,0E0,0E0,0E0,0E0],"parents":[2147483647,0,0,1,1,2,2,3,3,4,4,5,5,6,6,7,7,8,8,9,9,10,10,11,11,12,12,13,13,14,14],"right_children":[2,4,6,8,10,12,14,16,18,20,22,24,26,28,30,-1,-1,-1,-1,-1,-1,-1,-1,-1,-1,-1,-1,-1,-1,-1,-1],"split_conditions":[1.68E0,1.27E0,2.23E0,-2.1878488E-1,1.54E0,1.9757885E-1,3.84E0,1.09E0,-1.132349E-1,5.5380166E-1,1.62E0,2.14E0,3.525615E-1,3.5850114E-1,3.561735E-1,2.9751677E-2,1.9306934E-3,2.6585385E-2,1.3002775E-2,1.4460452E-2,5.5229273E-3,2.5314317E-4,7.1298624E-3,4.1692097E-2,8.922941E-3,-1.4182826E-2,-9.191762E-4,-9.975464E-3,-4.76738E-3,-1.4309475E-2,-4.6728615E-2],"split_indices":[1,1,1,2,1,0,1,1,2,0,1,1,0,0,0,0,0,0,0,0,0,0,0,0,0,0,0,0,0,0,0],"split_type":[0,0,0,0,0,0,0,0,0,0,0,0,0,0,0,0,0,0,0,0,0,0,0,0,0,0,0,0,0,0,0],"sum_hessian":[4.5798237E3,1.4752885E3,3.1045352E3,1.13565704E2,1.3617227E3,2.0960413E3,1.0084939E3,3.1044998E1,8.2520706E1,7.487327E2,6.129899E2,4.935845E0,2.0911055E3,1.00328015E3,5.213746E0,5.2784905E0,2.5766508E1,5.1742264E1,3.0778442E1,1.08883255E2,6.398495E2,3.6179382E2,2.511961E2,2.4742098E0,2.4616354E0,5.7440544E1,2.0336649E3,2.8300363E2,7.2027655E2,2.207663E0,3.006083E0],"tree_param":{"num_deleted":"0","num_feature":"6","num_nodes":"31","size_leaf_vector":"1"}},{"base_weights":[1.9788032E-4,9.983254E-2,-6.4987026E-2,2.3350029E-1,6.90514E-2,-4.1256685E-2,-1.5171222E-1,2.0742008E-1,5.917393E-1,1.10431015E-1,3.1828787E-2,-3.2234395E-1,-3.691055E-2,-1.4540264E-1,-7.3487806E-1,3.551049E-2,9.54479E-3,3.465337E-2,-3.860132E-2,4.653971E-3,2.8739233E-2,-5.7590273E-3,3.7295711E-3,-5.5105638E-2,-1.2526723E-2,3.2043856E-2,-1.9229765E-3,-9.865104E-3,-3.4091081E-3,-1.3889173E-2,-4.5974623E-2],"categories":[],"categories_nodes":[],"categories_segments":[],"categories_sizes":[],"default_left":[0,0,0,0,0,0,0,0,0,0,0,0,0,0,0,0,0,0,0,0,0,0,0,0,0,0,0,0,0,0,0],"id":33,"left_children":[1,3,5,7,9,11,13,15,17,19,21,23,25,27,29,-1,-1,-1,-1,-1,-1,-1,-1,-1,-1,-1,-1,-1,-1,-1,-1],"loss_changes":[2.9729248E1,7.432499E0,5.688528E0,3.0392761E0,2.265161E0,2.6439633E0,2.0792198E0,2.498232E0,3.634204E0,5.5632772E0,4.892036E0,1.5702043E0,2.2735229E0,2.3470984E0,2.6039934E-1,0E0,0E0,0E0,0E0,0E0,0E0,0E0,0E0,0E0,0E0,0E0,0E0,0E0,0E0,0E0,0E0],"parents":[2147483647,0,0,1,1,2,2,3,3,4,4,5,5,6,6,7,7,8,8,9,9,10,10,11,11,12,12,13,13,14,14],"right_children":[2,4,6,8,10,12,14,16,18,20,22,24,26,28,30,-1,-1,-1,-1,-1,-1,-1,-1,-1,-1,-1,-1,-1,-1,-1,-1],"split_conditions":[1.76E0,1.37E0,2.41E0,2.672668E-3,-5.096191E-2,1.77E0,3.84E0,1.09E0,2.4193592E-1,6.366054E-1,5.916139E-1,3.9799863E-1,-3.1102127E-1,3.8125705E-2,3.561735E-1,3.551049E-2,9.54479E-3,3.465337E-2,-3.860132E-2,4.653971E-3,2.8739233E-2,-5.7590273E-3,3.7295711E-3,-5.5105638E-2,-1.2526723E-2,3.2043856E-2,-1.9229765E-3,-9.865104E-3,-3.4091081E-3,-1.3889173E-2,-4.5974623E-2],"split_indices":[1,1,1,2,2,1,1,1,2,0,0,0,2,2,0,0,0,0,0,0,0,0,0,0,0,0,0,0,0,0,0],"split_type":[0,0,0,0,0,0,0,0,0,0,0,0,0,0,0,0,0,0,0,0,0,0,0,0,0,0,0,0,0,0,0],"sum_hessian":[4.575481E3,1.8093583E3,2.7661228E3,3.374385E2,1.4719198E3,2.1730059E3,5.931169E2,3.160115E2,2.1427004E1,6.9610614E2,7.7581366E2,3.1973085E1,2.1410327E3,5.880043E2,5.1125984E0,8.719536E0,3.0729196E2,2.0402866E1,1.0241387E0,6.721888E2,2.391737E1,1.7443788E2,6.013758E2,1.4862611E0,3.0486824E1,3.9407382E0,2.137092E3,3.5072742E2,2.3727687E2,2.1914244E0,2.9211738E0],"tree_param":{"num_deleted":"0","num_feature":"6","num_nodes":"31","size_leaf_vector":"1"}},{"base_weights":[1.8219455E-4,9.502214E-2,-6.181713E-2,2.8859106E-1,7.525367E-2,-3.9217528E-2,-1.4457795E-1,7.267602E-1,2.5838187E-1,5.339005E-2,1.5459365E-1,-3.0843848E-1,-3.505642E-2,-1.3844594E-1,-7.199017E-1,-1.3262103E-3,4.2773005E-2,7.6169823E-4,1.5685854E-2,3.4383442E-3,-1.5161901E-2,-4.463781E-2,8.165443E-3,-5.3638905E-2,-1.1923444E-2,3.0755525E-2,-1.827158E-3,-9.444873E-3,-3.301812E-3,-1.3480789E-2,-4.5244884E-2],"categories":[],"categories_nodes":[],"categories_segments":[],"categories_sizes":[],"default_left":[0,0,0,0,0,0,0,0,0,0,0,0,0,0,0,0,0,0,0,0,0,0,0,0,0,0,0,0,0,0,0],"id":34,"left_children":[1,3,5,7,9,11,13,15,17,19,21,23,25,27,29,-1,-1,-1,-1,-1,-1,-1,-1,-1,-1,-1,-1,-1,-1,-1,-1],"loss_changes":[2.6891335E1,6.8961887E0,5.1667814E0,2.0249949E0,2.83953E0,2.4242492E0,1.9917307E0,1.0144982E0,2.1202354E0,7.087061E0,3.3783207E0,1.5067217E0,2.0927167E0,2.134882E0,2.5697613E-1,0E0,0E0,0E0,0E0,0E0,0E0,0E0,0E0,0E0,0E0,0E0,0E0,0E0,0E0,0E0,0E0],"parents":[2147483647,0,0,1,1,2,2,3,3,4,4,5,5,6,6,7,7,8,8,9,9,10,10,11,11,12,12,13,13,14,14],"right_children":[2,4,6,8,10,12,14,16,18,20,22,24,26,28,30,-1,-1,-1,-1,-1,-1,-1,-1,-1,-1,-1,-1,-1,-1,-1,-1],"split_conditions":[1.76E0,1.3E0,2.41E0,1.09E0,6.5285087E-1,1.77E0,3.84E0,1.03E0,-2.1878488E-1,6.462522E-1,-1.0931822E-1,3.9799863E-1,-3.1102127E-1,3.690006E-2,3.561735E-1,-1.3262103E-3,4.2773005E-2,7.6169823E-4,1.5685854E-2,3.4383442E-3,-1.5161901E-2,-4.463781E-2,8.165443E-3,-5.3638905E-2,-1.1923444E-2,3.0755525E-2,-1.827158E-3,-9.444873E-3,-3.301812E-3,-1.3480789E-2,-4.5244884E-2],"split_indices":[1,1,1,1,0,1,1,1,2,0,2,0,2,2,0,0,0,0,0,0,0,0,0,0,0,0,0,0,0,0,0],"split_type":[0,0,0,0,0,0,0,0,0,0,0,0,0,0,0,0,0,0,0,0,0,0,0,0,0,0,0,0,0,0,0],"sum_hessian":[4.571347E3,1.8068651E3,2.7644822E3,1.6616937E2,1.6406958E3,2.172664E3,5.918182E2,9.230339E0,1.5693904E2,1.2875579E3,3.5313788E2,3.1956776E1,2.1407073E3,5.8680444E2,5.0137362E0,1.4627466E0,7.7675924E0,2.933106E1,1.2760798E2,1.2351105E3,5.2447453E1,2.0771737E0,3.5106073E2,1.4781018E0,3.0478674E1,3.9423604E0,2.136765E3,3.4489194E2,2.4191249E2,2.1756215E0,2.8381147E0],"tree_param":{"num_deleted":"0","num_feature":"6","num_nodes":"31","size_leaf_vector":"1"}},{"base_weights":[1.5370137E-4,1.0659804E-1,-5.0280645E-2,3.226346E-1,8.8719E-2,-1.7190751E-1,-3.4369E-2,-7.843797E-2,3.5768038E-1,7.4745305E-2,1.768793E-1,-7.520117E-2,-3.301581E-1,4.8661847E-2,-5.2704096E-2,1.9281575E-2,-2.9049233E-2,4.985512E-2,1.6707016E-2,5.9532863E-3,1.650879E-3,1.0500046E-2,-7.0012845E-3,-1.2455645E-2,2.540761E-3,-3.574484E-2,-1.2291829E-2,-7.9480995E-4,1.295504E-2,-6.3777254E-3,-1.3577588E-3],"categories":[],"categories_nodes":[],"categories_segments":[],"categories_sizes":[],"default_left":[0,0,0,0,0,0,0,0,0,0,0,0,0,0,0,0,0,0,0,0,0,0,0,0,0,0,0,0,0,0,0],"id":35,"left_children":[1,3,5,7,9,11,13,15,17,19,21,23,25,27,29,-1,-1,-1,-1,-1,-1,-1,-1,-1,-1,-1,-1,-1,-1,-1,-1],"loss_changes":[2.4531334E1,5.6455936E0,5.994431E0,1.6009817E0,1.6599035E0,5.4607162E0,4.1785316E0,2.512521E0,1.2185793E0,2.1673512E0,1.9721313E0,4.9169273E0,4.225425E0,6.751835E0,4.2942853E0,0E0,0E0,0E0,0E0,0E0,0E0,0E0,0E0,0E0,0E0,0E0,0E0,0E0,0E0,0E0,0E0],"parents":[2147483647,0,0,1,1,2,2,3,3,4,4,5,5,6,6,7,7,8,8,9,9,10,10,11,11,12,12,13,13,14,14],"right_children":[2,4,6,8,10,12,14,16,18,20,22,24,26,28,30,-1,-1,-1,-1,-1,-1,-1,-1,-1,-1,-1,-1,-1,-1,-1,-1],"split_conditions":[1.68E0,1.27E0,3.5850114E-1,5.505347E-1,6.829078E-1,-6.1417714E-2,-5.9480824E-2,5.3953505E-1,5.681641E-1,-7.585543E-2,1.61E0,-1.3199894E-1,2.61E0,-7.178373E-2,4.608953E-1,1.9281575E-2,-2.9049233E-2,4.985512E-2,1.6707016E-2,5.9532863E-3,1.650879E-3,1.0500046E-2,-7.0012845E-3,-1.2455645E-2,2.540761E-3,-3.574484E-2,-1.2291829E-2,-7.9480995E-4,1.295504E-2,-6.3777254E-3,-1.3577588E-3],"split_indices":[1,1,0,0,0,2,2,0,0,2,1,2,1,2,0,0,0,0,0,0,0,0,0,0,0,0,0,0,0,0,0],"split_type":[0,0,0,0,0,0,0,0,0,0,0,0,0,0,0,0,0,0,0,0,0,0,0,0,0,0,0,0,0,0,0],"sum_hessian":[4.5675386E3,1.468043E3,3.0994956E3,1.1090513E2,1.3571378E3,3.5744235E2,2.7420532E3,8.812661E0,1.0209247E2,1.173053E3,1.8408492E2,2.2277847E2,1.3466386E2,4.9568414E2,2.246369E3,4.7026825E0,4.109979E0,2.156532E0,9.9935936E1,5.6795526E2,6.0509766E2,1.6697113E2,1.7113798E1,9.319113E1,1.2958734E2,2.2863781E1,1.1180009E2,3.8002524E2,1.1565893E2,5.706243E2,1.6757446E3],"tree_param":{"num_deleted":"0","num_feature":"6","num_nodes":"31","size_leaf_vector":"1"}},{"base_weights":[1.4987423E-4,1.0148708E-1,-4.781273E-2,3.0968976E-1,8.438333E-2,-1.6387154E-1,-3.2659683E-2,7.013054E-1,2.6856297E-1,3.6346307E-1,8.012471E-2,-6.9129325E-2,-3.1182948E-1,-3.0993555E-2,-4.405964E-2,-1.932339E-3,4.161447E-2,4.8744855E-3,2.1395126E-2,1.9556754E-3,3.8320087E-2,-2.0395873E-2,4.2918273E-3,-4.6952322E-2,-2.179493E-3,-2.7798748E-2,-1.0450982E-2,2.3123142E-3,-2.404609E-3],"categories":[],"categories_nodes":[],"categories_segments":[],"categories_sizes":[],"default_left":[0,0,0,0,0,0,0,0,0,0,0,0,0,0,0,0,0,0,0,0,0,0,0,0,0,0,0,0,0],"id":36,"left_children":[1,3,5,7,9,11,13,15,17,19,21,23,25,27,-1,-1,-1,-1,-1,-1,-1,-1,-1,-1,-1,-1,-1,-1,-1],"loss_changes":[2.2190338E1,5.196785E0,5.444444E0,1.5988617E0,1.5833254E0,4.9915724E0,3.8495705E0,9.941478E-1,2.7397828E0,2.5981088E0,3.7637453E0,4.831398E0,3.3807983E0,3.618155E0,0E0,0E0,0E0,0E0,0E0,0E0,0E0,0E0,0E0,0E0,0E0,0E0,0E0,0E0,0E0],"parents":[2147483647,0,0,1,1,2,2,3,3,4,4,5,5,6,6,7,7,8,8,9,9,10,10,11,11,12,12,13,13],"right_children":[2,4,6,8,10,12,14,16,18,20,22,24,26,28,-1,-1,-1,-1,-1,-1,-1,-1,-1,-1,-1,-1,-1,-1,-1],"split_conditions":[1.68E0,1.27E0,3.5850114E-1,1.09E0,-2.5308606E-1,-6.400759E-2,3.55E0,1.03E0,1.21E0,4.151794E-1,4.331109E-1,1.84E0,-4.5411702E-2,-5.9480824E-2,-4.405964E-2,-1.932339E-3,4.161447E-2,4.8744855E-3,2.1395126E-2,1.9556754E-3,3.8320087E-2,-2.0395873E-2,4.2918273E-3,-4.6952322E-2,-2.179493E-3,-2.7798748E-2,-1.0450982E-2,2.3123142E-3,-2.404609E-3],"split_indices":[1,1,0,1,2,2,1,1,1,0,0,1,2,2,0,0,0,0,0,0,0,0,0,0,0,0,0,0,0],"split_type":[0,0,0,0,0,0,0,0,0,0,0,0,0,0,0,0,0,0,0,0,0,0,0,0,0,0,0,0,0],"sum_hessian":[4.563543E3,1.4656809E3,3.097862E3,1.09965996E2,1.355715E3,3.5662424E2,2.7412378E3,8.925337E0,1.0104066E2,1.9108852E1,1.3366061E3,2.1830424E2,1.3831998E2,2.7369004E3,4.337488E0,1.4483417E0,7.4769945E0,4.950354E1,5.153712E1,1.1194664E1,7.9141884E0,1.4647506E1,1.3219586E3,5.206134E0,2.1309811E2,3.968088E1,9.86391E1,4.957477E2,2.2411526E3],"tree_param":{"num_deleted":"0","num_feature":"6","num_nodes":"29","size_leaf_vector":"1"}},{"base_weights":[1.3462474E-4,8.255475E-2,-5.3634837E-2,1.9836816E-1,5.6259643E-2,-2.4972742E-2,-1.03881404E-1,1.7333385E-1,5.482947E-1,1.1439388E-1,3.023917E-2,-2.9285762E-1,-1.985171E-2,4.2963205E-3,-1.2408499E-1,3.2441527E-2,7.928776E-3,3.250813E-2,-3.807669E-2,4.2130332E-3,1.5962794E-2,-3.911668E-3,3.1232506E-3,-5.1828142E-2,-1.1267565E-2,1.8125804E-2,-1.1489004E-3,-1.511584E-3,4.167931E-2,-2.079511E-2,-4.960554E-3],"categories":[],"categories_nodes":[],"categories_segments":[],"categories_sizes":[],"default_left":[0,0,0,0,0,0,0,0,0,0,0,0,0,0,0,0,0,0,0,0,0,0,0,0,0,0,0,0,0,0,0],"id":37,"left_children":[1,3,5,7,9,11,13,15,17,19,21,23,25,27,29,-1,-1,-1,-1,-1,-1,-1,-1,-1,-1,-1,-1,-1,-1,-1,-1],"loss_changes":[2.0217274E1,5.4738693E0,3.9735084E0,2.821021E0,2.2190518E0,2.4077325E0,2.191598E0,2.0873919E0,3.3988533E0,2.7752843E0,3.5575628E0,1.4195983E0,2.0732694E0,4.5703287E0,6.0906725E0,0E0,0E0,0E0,0E0,0E0,0E0,0E0,0E0,0E0,0E0,0E0,0E0,0E0,0E0,0E0,0E0],"parents":[2147483647,0,0,1,1,2,2,3,3,4,4,5,5,6,6,7,7,8,8,9,9,10,10,11,11,12,12,13,13,14,14],"right_children":[2,4,6,8,10,12,14,16,18,20,22,24,26,28,30,-1,-1,-1,-1,-1,-1,-1,-1,-1,-1,-1,-1,-1,-1,-1,-1],"split_conditions":[1.76E0,1.37E0,2.23E0,2.672668E-3,5.570326E-1,1.77E0,-6.400759E-2,1.09E0,2.4193592E-1,5.447544E-1,5.867474E-1,3.9799863E-1,-2.271986E-1,-6.597528E-2,-4.5411702E-2,3.2441527E-2,7.928776E-3,3.250813E-2,-3.807669E-2,4.2130332E-3,1.5962794E-2,-3.911668E-3,3.1232506E-3,-5.1828142E-2,-1.1267565E-2,1.8125804E-2,-1.1489004E-3,-1.511584E-3,4.167931E-2,-2.079511E-2,-4.960554E-3],"split_indices":[1,1,1,2,0,1,2,1,2,0,0,0,2,2,2,0,0,0,0,0,0,0,0,0,0,0,0,0,0,0,0],"split_type":[0,0,0,0,0,0,0,0,0,0,0,0,0,0,0,0,0,0,0,0,0,0,0,0,0,0,0,0,0,0,0],"sum_hessian":[4.559983E3,1.8001305E3,2.7598523E3,3.3187708E2,1.4682534E3,1.758341E3,1.0015114E3,3.1111478E2,2.0762299E1,4.5293097E2,1.0153225E3,3.1928917E1,1.726412E3,1.5773341E2,8.43778E2,8.0722685E0,3.030425E2,1.9731379E1,1.0309198E0,3.9608237E2,5.684859E1,2.3222455E2,7.8309796E2,1.4624383E0,3.046648E1,1.30686455E1,1.7133434E3,1.5235362E2,5.379793E0,6.503822E1,7.787398E2],"tree_param":{"num_deleted":"0","num_feature":"6","num_nodes":"31","size_leaf_vector":"1"}},{"base_weights":[1.3430115E-4,9.244224E-2,-4.3473564E-2,2.8801763E-1,7.657127E-2,-1.5322115E-1,-2.9186007E-2,8.892879E-2,3.622362E-1,3.447742E-1,7.2502576E-2,-8.175149E-2,-3.335122E-1,-2.7588908E-2,-8.6022437E-1,1.5302307E-2,-4.882878E-3,2.3232292E-2,9.007598E-3,1.6621388E-3,3.6853824E-2,-1.9595617E-2,3.8981263E-3,1.5260937E-2,-5.6122234E-3,-1.8319966E-2,5.2610405E-2,2.2164413E-3,-2.175988E-3,-4.8947927E-2,-1.6609933E-2],"categories":[],"categories_nodes":[],"categories_segments":[],"categories_sizes":[],"default_left":[0,0,0,0,0,0,0,0,0,0,0,0,0,0,0,0,0,0,0,0,0,0,0,0,0,0,0,0,0,0,0],"id":38,"left_children":[1,3,5,7,9,11,13,15,17,19,21,23,25,27,29,-1,-1,-1,-1,-1,-1,-1,-1,-1,-1,-1,-1,-1,-1,-1,-1],"loss_changes":[1.8349852E1,4.5177917E0,4.8501005E0,1.5845671E0,1.4527249E0,4.564931E0,3.6137178E0,1.2873054E0,1.3965044E0,2.416099E0,3.4162073E0,3.061427E0,4.9813585E0,3.1370127E0,2.2871494E-3,0E0,0E0,0E0,0E0,0E0,0E0,0E0,0E0,0E0,0E0,0E0,0E0,0E0,0E0,0E0,0E0],"parents":[2147483647,0,0,1,1,2,2,3,3,4,4,5,5,6,6,7,7,8,8,9,9,10,10,11,11,12,12,13,13,14,14],"right_children":[2,4,6,8,10,12,14,16,18,20,22,24,26,28,30,-1,-1,-1,-1,-1,-1,-1,-1,-1,-1,-1,-1,-1,-1,-1,-1],"split_conditions":[1.68E0,1.27E0,3.5850114E-1,-2.1878488E-1,-2.5308606E-1,3.369302E-1,3.55E0,1.16E0,-1.132349E-1,4.151794E-1,4.331109E-1,2.05E0,5.7526603E-2,-5.9480824E-2,4.922924E-1,1.5302307E-2,-4.882878E-3,2.3232292E-2,9.007598E-3,1.6621388E-3,3.6853824E-2,-1.9595617E-2,3.8981263E-3,1.5260937E-2,-5.6122234E-3,-1.8319966E-2,5.2610405E-2,2.2164413E-3,-2.175988E-3,-4.8947927E-2,-1.6609933E-2],"split_indices":[1,1,0,2,2,0,1,1,2,0,0,1,2,2,0,0,0,0,0,0,0,0,0,0,0,0,0,0,0,0,0],"split_type":[0,0,0,0,0,0,0,0,0,0,0,0,0,0,0,0,0,0,0,0,0,0,0,0,0,0,0,0,0,0,0],"sum_hessian":[4.5565723E3,1.4615929E3,3.0949795E3,1.0841872E2,1.3531741E3,3.553893E2,2.7395903E3,3.0038815E1,7.8379906E1,1.8969824E1,1.3342043E3,2.5554247E2,9.984684E1,2.7353665E3,4.223661E0,1.3587621E1,1.6451193E1,4.9172176E1,2.9207727E1,1.1177996E1,7.791828E0,1.46810055E1,1.3195233E3,1.8007631E1,2.3753484E2,9.8250656E1,1.5961821E0,4.9572015E2,2.2396465E3,2.7510498E0,1.4726112E0],"tree_param":{"num_deleted":"0","num_feature":"6","num_nodes":"31","size_leaf_vector":"1"}},{"base_weights":[1.3837978E-4,7.5060755E-2,-4.867929E-2,2.0452878E-1,5.4851845E-2,-3.8562164E-2,-1.7652814E-1,1.7764716E-1,5.6660897E-1,3.4890592E-2,1.3276064E-1,-4.3138687E-2,2.0409691E-1,-4.5373785E-1,-1.2517452E-1,1.3452922E-2,2.1189558E-3,5.436253E-2,1.4996405E-2,2.3762563E-3,-1.3502113E-2,1.573419E-2,2.7139278E-3,-4.4088643E-3,-6.141625E-4,1.7680911E-2,-1.1235655E-2,1.2113291E-2,-2.8567333E-2,3.0900223E-2,-8.7584425E-3],"categories":[],"categories_nodes":[],"categories_segments":[],"categories_sizes":[],"default_left":[0,0,0,0,0,0,0,0,0,0,0,0,0,0,0,0,0,0,0,0,0,0,0,0,0,0,0,0,0,0,0],"id":39,"left_children":[1,3,5,7,9,11,13,15,17,19,21,23,25,27,29,-1,-1,-1,-1,-1,-1,-1,-1,-1,-1,-1,-1,-1,-1,-1,-1],"loss_changes":[1.6660992E1,4.6908007E0,3.5607233E0,2.2574892E0,2.4149618E0,2.8486054E0,2.818468E0,2.79532E0,1.9353113E0,4.789705E0,4.5085216E0,3.4879174E0,3.125577E0,2.6912851E0,6.4909925E0,0E0,0E0,0E0,0E0,0E0,0E0,0E0,0E0,0E0,0E0,0E0,0E0,0E0,0E0,0E0,0E0],"parents":[2147483647,0,0,1,1,2,2,3,3,4,4,5,5,6,6,7,7,8,8,9,9,10,10,11,11,12,12,13,13,14,14],"right_children":[2,4,6,8,10,12,14,16,18,20,22,24,26,28,30,-1,-1,-1,-1,-1,-1,-1,-1,-1,-1,-1,-1,-1,-1,-1,-1],"split_conditions":[1.76E0,1.34E0,2.8E0,-9.269183E-3,6.5285087E-1,2.72E0,-4.348158E-2,-1.2594467E-1,1.2286747E-2,6.462522E-1,6.6776067E-1,4.5814428E-1,4.170673E-1,-1.06397785E-1,-3.349461E-2,1.3452922E-2,2.1189558E-3,5.436253E-2,1.4996405E-2,2.3762563E-3,-1.3502113E-2,1.573419E-2,2.7139278E-3,-4.4088643E-3,-6.141625E-4,1.7680911E-2,-1.1235655E-2,1.2113291E-2,-2.8567333E-2,3.0900223E-2,-8.7584425E-3],"split_indices":[1,1,1,2,0,1,2,2,2,0,0,0,0,2,2,0,0,0,0,0,0,0,0,0,0,0,0,0,0,0,0],"split_type":[0,0,0,0,0,0,0,0,0,0,0,0,0,0,0,0,0,0,0,0,0,0,0,0,0,0,0,0,0,0,0],"sum_hessian":[4.553252E3,1.7961274E3,2.7571245E3,2.412761E2,1.5548513E3,2.5561492E3,2.0097528E2,2.2598882E2,1.5287271E1,1.2388815E3,3.159698E2,2.50964E3,4.6509266E1,3.0187252E1,1.7078804E2,1.3426578E2,9.172304E1,4.135856E0,1.1151415E1,1.1904027E3,4.8478786E1,9.4321335E1,2.2164847E2,1.01956244E3,1.4900774E3,3.4614815E1,1.1894451E1,4.210394E0,2.5976858E1,1.0048776E1,1.6073926E2],"tree_param":{"num_deleted":"0","num_feature":"6","num_nodes":"31","size_leaf_vector":"1"}},{"base_weights":[1.5380586E-4,5.405766E-2,-6.179544E-2,1.749108E-1,3.5137326E-2,-5.956228E-2,-3.9929397E-2,1.5113764E-1,5.1278013E-1,2.8810859E-2,2.1161462E-1,-6.493069E-2,2.1902807E-1,3.0870115E-2,6.8534585E-3,3.3077355E-2,-2.0440925E-2,4.0368214E-3,3.8230623E-4,1.7359087E-2,-8.174621E-3,-2.6319737E-3,-1.3581449E-2,2.8780896E-2,-3.5978225E-3],"categories":[],"categories_nodes":[],"categories_segments":[],"categories_sizes":[],"default_left":[0,0,0,0,0,0,0,0,0,0,0,0,0,0,0,0,0,0,0,0,0,0,0,0,0],"id":40,"left_children":[1,3,5,7,9,11,-1,13,15,17,19,21,23,-1,-1,-1,-1,-1,-1,-1,-1,-1,-1,-1,-1],"loss_changes":[1.520132E1,5.559816E0,3.4374332E0,2.567113E0,2.3451324E0,3.1740074E0,0E0,1.9424582E0,3.180595E0,2.2349606E0,3.7549603E0,5.2537518E0,4.2096753E0,0E0,0E0,0E0,0E0,0E0,0E0,0E0,0E0,0E0,0E0,0E0,0E0],"parents":[2147483647,0,0,1,1,2,2,3,3,4,4,5,5,7,7,8,8,9,9,10,10,11,11,12,12],"right_children":[2,4,6,8,10,12,-1,14,16,18,20,22,24,-1,-1,-1,-1,-1,-1,-1,-1,-1,-1,-1,-1],"split_conditions":[1.92E0,1.37E0,8.387062E-1,2.672668E-3,1.91E0,6.5593636E-1,-3.9929397E-2,1.09E0,1.8781802E-1,1.56E0,5.809331E-1,6.0236835E-1,2.06E0,3.0870115E-2,6.8534585E-3,3.3077355E-2,-2.0440925E-2,4.0368214E-3,3.8230623E-4,1.7359087E-2,-8.174621E-3,-2.6319737E-3,-1.3581449E-2,2.8780896E-2,-3.5978225E-3],"split_indices":[1,1,0,2,1,0,0,1,2,1,0,0,1,0,0,0,0,0,0,0,0,0,0,0,0],"split_type":[0,0,0,0,0,0,0,0,0,0,0,0,0,0,0,0,0,0,0,0,0,0,0,0,0],"sum_hessian":[4.5502427E3,2.4331848E3,2.1170579E3,3.2825027E2,2.1049343E3,2.1117383E3,5.3196716E0,3.0802438E2,2.0225893E1,2.03321E3,7.17245E1,2.0725671E3,3.917127E1,7.7656455E0,3.0025873E2,1.7657711E1,2.5681825E0,5.8794086E2,1.445269E3,5.27387E1,1.8985802E1,1.9574243E3,1.1514268E2,1.7161888E1,2.2009378E1],"tree_param":{"num_deleted":"0","num_feature":"6","num_nodes":"25","size_leaf_vector":"1"}},{"base_weights":[1.5518586E-4,8.052033E-2,-3.7710067E-2,2.9161498E-1,6.826151E-2,-1.3929586E-1,-2.4526536E-2,1.4680976E-1,6.3876694E-1,2.830994E-1,6.351477E-2,-5.452483E-2,-2.801191E-1,-2.299536E-2,-8.387663E-1,-9.88642E-3,1.6249068E-2,-4.6152077E-3,3.4045257E-2,1.8752394E-2,-1.460088E-2,-1.9835526E-2,3.4238913E-3,-1.1297981E-2,3.4755324E-3,-4.409426E-3,-2.183624E-2,9.044156E-3,-1.4151064E-3,-4.7856532E-2,-1.592052E-2],"categories":[],"categories_nodes":[],"categories_segments":[],"categories_sizes":[],"default_left":[0,0,0,0,0,0,0,0,0,0,0,0,0,0,0,0,0,0,0,0,0,0,0,0,0,0,0,0,0,0,0],"id":41,"left_children":[1,3,5,7,9,11,13,15,17,19,21,23,25,27,29,-1,-1,-1,-1,-1,-1,-1,-1,-1,-1,-1,-1,-1,-1,-1,-1],"loss_changes":[1.38439455E1,3.7505026E0,4.138058E0,3.9108267E0,1.3876314E0,4.222684E0,3.394744E0,3.5947955E0,7.7600765E-1,1.6698515E0,3.1103716E0,4.754335E0,3.9638653E0,2.9633949E0,1.0072231E-2,0E0,0E0,0E0,0E0,0E0,0E0,0E0,0E0,0E0,0E0,0E0,0E0,0E0,0E0,0E0,0E0],"parents":[2147483647,0,0,1,1,2,2,3,3,4,4,5,5,6,6,7,7,8,8,9,9,10,10,11,11,12,12,13,13,14,14],"right_children":[2,4,6,8,10,12,14,16,18,20,22,24,26,28,30,-1,-1,-1,-1,-1,-1,-1,-1,-1,-1,-1,-1,-1,-1,-1,-1],"split_conditions":[1.68E0,1.24E0,3.5850114E-1,1.21E0,-2.3863894E-1,-6.1417714E-2,3.55E0,6.492111E-1,5.570326E-1,5.1382184E-1,4.331109E-1,-1.3199894E-1,3.2534614E-1,3.6966932E-1,4.922924E-1,-9.88642E-3,1.6249068E-2,-4.6152077E-3,3.4045257E-2,1.8752394E-2,-1.460088E-2,-1.9835526E-2,3.4238913E-3,-1.1297981E-2,3.4755324E-3,-4.409426E-3,-2.183624E-2,9.044156E-3,-1.4151064E-3,-4.7856532E-2,-1.592052E-2],"split_indices":[1,1,0,1,2,2,1,0,0,0,0,2,0,0,0,0,0,0,0,0,0,0,0,0,0,0,0,0,0,0,0],"split_type":[0,0,0,0,0,0,0,0,0,0,0,0,0,0,0,0,0,0,0,0,0,0,0,0,0,0,0,0,0,0,0],"sum_hessian":[4.547372E3,1.4560109E3,3.0913613E3,7.866281E1,1.3773481E3,3.540053E2,2.737356E3,5.6512867E1,2.2149944E1,2.8506388E1,1.3488417E3,2.218475E2,1.321578E2,2.7332444E3,4.1116204E0,1.9225641E1,3.7287224E1,1.1422418E0,2.1007704E1,2.4876986E1,3.6294036E0,1.3548554E1,1.3352932E3,9.278442E1,1.2906308E2,6.008402E1,7.20738E1,6.849962E1,2.6647446E3,2.6658485E0,1.4457719E0],"tree_param":{"num_deleted":"0","num_feature":"6","num_nodes":"31","size_leaf_vector":"1"}},{"base_weights":[1.3364712E-4,4.9636986E-2,-5.6731492E-2,1.6126016E-1,3.2266263E-2,-5.458608E-2,-3.8445305E-2,1.3844022E-1,4.8950943E-1,2.6153535E-2,2.0268339E-1,3.44497E-1,-5.8030795E-2,2.9834569E-2,6.2441775E-3,2.955986E-2,-3.6626015E-2,6.6631485E-4,5.306225E-3,1.658394E-2,-7.7206916E-3,1.0587371E-2,5.9999134E-2,-1.5915578E-2,-2.384292E-3],"categories":[],"categories_nodes":[],"categories_segments":[],"categories_sizes":[],"default_left":[0,0,0,0,0,0,0,0,0,0,0,0,0,0,0,0,0,0,0,0,0,0,0,0,0],"id":42,"left_children":[1,3,5,7,9,11,-1,13,15,17,19,21,23,-1,-1,-1,-1,-1,-1,-1,-1,-1,-1,-1,-1],"loss_changes":[1.2798604E1,4.7076836E0,3.1909928E0,2.3821402E0,2.1870322E0,2.9215765E0,0E0,1.8339076E0,3.0258842E0,2.0838645E0,3.4012716E0,1.8135462E0,5.621648E0,0E0,0E0,0E0,0E0,0E0,0E0,0E0,0E0,0E0,0E0,0E0,0E0],"parents":[2147483647,0,0,1,1,2,2,3,3,4,4,5,5,7,7,8,8,9,9,10,10,11,11,12,12],"right_children":[2,4,6,8,10,12,-1,14,16,18,20,22,24,-1,-1,-1,-1,-1,-1,-1,-1,-1,-1,-1,-1],"split_conditions":[1.92E0,1.37E0,8.387062E-1,2.672668E-3,1.91E0,-2.271986E-1,-3.8445305E-2,1.09E0,2.4193592E-1,6.574896E-1,5.809331E-1,2.2931617E-1,-1.299554E-1,2.9834569E-2,6.2441775E-3,2.955986E-2,-3.6626015E-2,6.6631485E-4,5.306225E-3,1.658394E-2,-7.7206916E-3,1.0587371E-2,5.9999134E-2,-1.5915578E-2,-2.384292E-3],"split_indices":[1,1,0,2,1,2,0,1,2,0,0,0,2,0,0,0,0,0,0,0,0,0,0,0,0],"split_type":[0,0,0,0,0,0,0,0,0,0,0,0,0,0,0,0,0,0,0,0,0,0,0,0,0],"sum_hessian":[4.54455E3,2.429608E3,2.1149421E3,3.2606314E2,2.103545E3,2.1096633E3,5.27867E0,3.0619797E2,1.9865171E1,2.0318185E3,7.172627E1,1.72066E1,2.0924568E3,7.56217E0,2.986358E2,1.8815693E1,1.049478E0,1.7519713E3,2.7984726E2,5.2744415E1,1.898186E1,1.5975177E1,1.2314235E0,7.884839E1,2.0136084E3],"tree_param":{"num_deleted":"0","num_feature":"6","num_nodes":"25","size_leaf_vector":"1"}},{"base_weights":[1.410536E-4,6.2927105E-2,-4.0677156E-2,2.4125485E-1,5.1662836E-2,-3.1431455E-2,-1.581709E-1,5.40332E-2,3.1256908E-1,3.2677267E-2,1.1683698E-1,-3.589342E-2,2.047913E-1,-4.2948547E-1,-1.0814925E-1,5.8289855E-3,-2.896423E-2,2.0803416E-2,6.543319E-3,2.1505172E-3,-2.1484481E-2,1.2658867E-2,3.217127E-3,-3.8853192E-3,-3.6446084E-4,1.7403807E-2,-1.0457381E-2,9.75574E-3,-2.7748067E-2,2.9733598E-2,-7.806197E-3],"categories":[],"categories_nodes":[],"categories_segments":[],"categories_sizes":[],"default_left":[0,0,0,0,0,0,0,0,0,0,0,0,0,0,0,0,0,0,0,0,0,0,0,0,0,0,0,0,0,0,0],"id":43,"left_children":[1,3,5,7,9,11,13,15,17,19,21,23,25,27,29,-1,-1,-1,-1,-1,-1,-1,-1,-1,-1,-1,-1,-1,-1,-1,-1],"loss_changes":[1.1645439E1,3.5836792E0,2.9864616E0,1.3996091E0,2.081349E0,2.6994298E0,2.67655E0,1.2746387E0,1.3864536E0,6.26001E0,2.701745E0,2.9986043E0,2.8900123E0,2.5297084E0,5.8498883E0,0E0,0E0,0E0,0E0,0E0,0E0,0E0,0E0,0E0,0E0,0E0,0E0,0E0,0E0,0E0,0E0],"parents":[2147483647,0,0,1,1,2,2,3,3,4,4,5,5,6,6,7,7,8,8,9,9,10,10,11,11,12,12,13,13,14,14],"right_children":[2,4,6,8,10,12,14,16,18,20,22,24,26,28,30,-1,-1,-1,-1,-1,-1,-1,-1,-1,-1,-1,-1,-1,-1,-1,-1],"split_conditions":[1.76E0,1.27E0,2.8E0,-2.1878488E-1,6.5285087E-1,2.72E0,-4.348158E-2,6.775611E-1,-1.132349E-1,6.492111E-1,6.6776067E-1,4.5814428E-1,4.170673E-1,-1.0238289E-1,-3.349461E-2,5.8289855E-3,-2.896423E-2,2.0803416E-2,6.543319E-3,2.1505172E-3,-2.1484481E-2,1.2658867E-2,3.217127E-3,-3.8853192E-3,-3.6446084E-4,1.7403807E-2,-1.0457381E-2,9.75574E-3,-2.7748067E-2,2.9733598E-2,-7.806197E-3],"split_indices":[1,1,1,2,0,1,2,0,2,0,0,0,0,2,2,0,0,0,0,0,0,0,0,0,0,0,0,0,0,0,0],"split_type":[0,0,0,0,0,0,0,0,0,0,0,0,0,0,0,0,0,0,0,0,0,0,0,0,0,0,0,0,0,0,0],"sum_hessian":[4.542006E3,1.7892549E3,2.752751E3,1.0509231E2,1.6841626E3,2.5531113E3,1.9963942E2,2.9473375E1,7.5618935E1,1.3053954E3,3.7876712E2,2.5066125E3,4.6498867E1,2.9896496E1,1.6974292E2,2.75668E1,1.9065768E0,4.7355217E1,2.8263718E1,1.2777471E3,2.7648392E1,1.0423124E2,2.745359E2,1.0175155E3,1.489097E3,3.466032E1,1.1838545E1,4.9083686E0,2.4988127E1,1.0118152E1,1.5962477E2],"tree_param":{"num_deleted":"0","num_feature":"6","num_nodes":"31","size_leaf_vector":"1"}},{"base_weights":[1.3599797E-4,9.722718E-2,-2.4233779E-2,8.66209E-2,3.6901075E-1,-3.050334E-3,-8.025069E-2,8.9797385E-2,-4.4324886E-2,-2.4905365E-2,4.4023427E-1,7.7496017E-3,-6.415952E-2,2.6531868E-2,-1.0025518E-1,4.965539E-2,4.332279E-3,2.8917907E-2,-2.2348985E-3,1.0979532E-4,2.4867026E-2,-2.686741E-2,-1.9250732E-3,-3.386355E-4,4.0809855E-2,-1.8426321E-2,-3.8819273E-3],"categories":[],"categories_nodes":[],"categories_segments":[],"categories_sizes":[],"default_left":[0,0,0,0,0,0,0,0,0,0,0,0,0,0,0,0,0,0,0,0,0,0,0,0,0,0,0],"id":44,"left_children":[1,3,5,7,9,11,13,15,-1,-1,17,19,21,23,25,-1,-1,-1,-1,-1,-1,-1,-1,-1,-1,-1,-1],"loss_changes":[1.0745192E1,2.594575E0,4.3074226E0,2.7943645E0,2.3138924E0,1.7396003E0,2.1303782E0,2.4088397E0,0E0,0E0,2.160677E0,6.090188E0,4.7856145E0,4.1595197E0,5.0626135E0,0E0,0E0,0E0,0E0,0E0,0E0,0E0,0E0,0E0,0E0,0E0,0E0],"parents":[2147483647,0,0,1,1,2,2,3,3,4,4,5,5,6,6,7,7,10,10,11,11,12,12,13,13,14,14],"right_children":[2,4,6,8,10,12,14,16,-1,-1,18,20,22,24,26,-1,-1,-1,-1,-1,-1,-1,-1,-1,-1,-1,-1],"split_conditions":[1.56E0,7.828795E-1,2.23E0,9.274391E-2,-8.0299795E-2,7.548404E-2,-6.400759E-2,3.6405957E-1,-4.4324886E-2,-2.4905365E-2,1.8781802E-1,7.2134964E-2,5.5994284E-1,-6.597528E-2,-4.5411702E-2,4.965539E-2,4.332279E-3,2.8917907E-2,-2.2348985E-3,1.0979532E-4,2.4867026E-2,-2.686741E-2,-1.9250732E-3,-3.386355E-4,4.0809855E-2,-1.8426321E-2,-3.8819273E-3],"split_indices":[1,0,1,2,2,2,2,0,0,0,2,2,0,2,2,0,0,0,0,0,0,0,0,0,0,0,0],"split_type":[0,0,0,0,0,0,0,0,0,0,0,0,0,0,0,0,0,0,0,0,0,0,0,0,0,0,0],"sum_hessian":[4.5393315E3,9.101661E2,3.6291658E3,8.772503E2,3.291574E1,2.6341033E3,9.9506226E2,8.7530084E2,1.9494656E0,2.0434895E0,3.0872252E1,2.239233E3,3.9487045E2,1.5694966E2,8.381126E2,1.9513571E0,8.733495E2,2.3878307E1,6.9939446E0,2.21511E3,2.412271E1,1.9284317E1,3.7558612E2,1.515494E2,5.400258E0,6.3974396E1,7.7413824E2],"tree_param":{"num_deleted":"0","num_feature":"6","num_nodes":"27","size_leaf_vector":"1"}},{"base_weights":[1.3545343E-4,4.3342113E-2,-4.947951E-2,1.432899E-1,2.7910363E-2,-4.741369E-2,-7.3989654E-1,1.2203184E-1,4.549584E-1,6.307954E-2,-1.9754313E-3,-5.2491713E-2,2.1535113E-1,-5.0265223E-2,-4.4960257E-1,2.8864285E-2,5.439604E-3,2.7801305E-2,-3.5450865E-2,2.6140085E-3,2.2580331E-2,-1.13339955E-2,1.3980087E-3,-2.0313326E-3,-1.2606206E-2,2.7677963E-2,-3.086617E-3,-3.201776E-3,-4.4005506E-2],"categories":[],"categories_nodes":[],"categories_segments":[],"categories_sizes":[],"default_left":[0,0,0,0,0,0,0,0,0,0,0,0,0,0,0,0,0,0,0,0,0,0,0,0,0,0,0,0,0],"id":45,"left_children":[1,3,5,7,9,11,13,15,17,19,21,23,25,-1,27,-1,-1,-1,-1,-1,-1,-1,-1,-1,-1,-1,-1,-1,-1],"loss_changes":[9.72972E0,3.7378688E0,2.9782262E0,2.0927029E0,2.2103071E0,2.8233576E0,2.8332949E-2,1.7749686E0,2.7866454E0,4.029785E0,7.65971E0,4.8888817E0,3.7968402E0,0E0,7.381616E-1,0E0,0E0,0E0,0E0,0E0,0E0,0E0,0E0,0E0,0E0,0E0,0E0,0E0,0E0],"parents":[2147483647,0,0,1,1,2,2,3,3,4,4,5,5,6,6,7,7,8,8,9,9,10,10,11,11,12,12,14,14],"right_children":[2,4,6,8,10,12,14,16,18,20,22,24,26,-1,28,-1,-1,-1,-1,-1,-1,-1,-1,-1,-1,-1,-1,-1,-1],"split_conditions":[1.92E0,1.37E0,8.387062E-1,2.672668E-3,-4.438316E-2,6.5593636E-1,2.01E0,1.09E0,2.4193592E-1,1.91E0,-3.27615E-2,6.0236835E-1,2.06E0,-5.0265223E-2,2.12E0,2.8864285E-2,5.439604E-3,2.7801305E-2,-3.5450865E-2,2.6140085E-3,2.2580331E-2,-1.13339955E-2,1.3980087E-3,-2.0313326E-3,-1.2606206E-2,2.7677963E-2,-3.086617E-3,-3.201776E-3,-4.4005506E-2],"split_indices":[1,1,0,2,2,0,1,1,2,1,2,0,1,0,1,0,0,0,0,0,0,0,0,0,0,0,0,0,0],"split_type":[0,0,0,0,0,0,0,0,0,0,0,0,0,0,0,0,0,0,0,0,0,0,0,0,0,0,0,0,0],"sum_hessian":[4.536757E3,2.4250522E3,2.1117043E3,3.2323712E2,2.1018152E3,2.1064702E3,5.2341766E0,3.0390045E2,1.9336672E1,9.650487E2,1.1367665E3,2.0673188E3,3.915145E1,1.4476099E0,3.7865667E0,7.3843546E0,2.9651608E2,1.8272388E1,1.0642823E0,9.4005383E2,2.4994883E1,1.3286615E2,1.00390027E3,1.9524777E3,1.14841095E2,1.7181683E1,2.196977E1,2.6035469E0,1.1830198E0],"tree_param":{"num_deleted":"0","num_feature":"6","num_nodes":"29","size_leaf_vector":"1"}},{"base_weights":[1.20124125E-4,8.926023E-2,-2.2201793E-2,5.9914505E-1,8.4177874E-2,-2.6416408E-3,-7.40021E-2,-7.094614E-3,7.48677E-1,4.7598667E-2,8.143109E-2,-1.2171465E-1,2.1442634E-3,2.7479043E-2,-9.304887E-2,4.1421577E-2,9.76268E-3,-3.3524066E-2,4.2299717E-3,-9.48497E-3,1.5535267E-2,7.168599E-4,-3.231429E-3,-8.237237E-3,7.6080984E-3,-1.7524565E-2,-3.572048E-3],"categories":[],"categories_nodes":[],"categories_segments":[],"categories_sizes":[],"default_left":[0,0,0,0,0,0,0,0,0,0,0,0,0,0,0,0,0,0,0,0,0,0,0,0,0,0,0],"id":46,"left_children":[1,3,5,7,9,11,13,-1,15,-1,17,19,21,23,25,-1,-1,-1,-1,-1,-1,-1,-1,-1,-1,-1,-1],"loss_changes":[9.02668E0,2.3038816E0,